0.9563815975516052
0.42250165937430145
-2.43435650282538
-0.7485611864410929
0.02311560406748576
0.6017964734303538
1.0128762603345354
0.3242600822078806
0.06890876158076258
-0.7921990388836528
-1.91134423248112
-1.4674586926742283
-1.9385620886967163
-1.9164126751214798
5.068480910476573
0.1445383326989069
0.4323435971864171
-2.5566180421341853
0.6789979688180753
0.11498400567255382
-1.4993609834035966
-0.28220126182370225
-1.4366491427216783
0.9223054631663319
1.6425316572065114
0.5513415168133846
0.055617100091425155
0.210247793286703
0.48477049527811805
0.05073642614030606
1.1727215211652078
-0.17532750720679477
0.20928381636606241
0.3004273552239956
-1.6943342307873799
0.578681639248437
-0.5027030515616475
-0.4701392312445491
-0.030449451551841724
-1.2035114188621
0.7242461507537336
0.10063904096826504
0.013477050680139244
0.8557579103849706
-0.2923631094504703
-0.7434146089746229
-0.10029601908491186
-0.859586870059251
1.2792630098505977
0.27334542332666245
-2.109790363536715
-0.3693128810508776
-0.908549173940976
0.9079162360318929
2.2277612946075025
0.640154939616847
-0.10325918274504449
-1.9604644513368326
0.3619967118319963
0.9547193937440803
-4.6340344941842
-2.7679653576052394
2.5786824808454383
7.39538479227876
-3.0363160911970604
-0.6879880408644284
1.8197543544576213
-0.8220102742291303
0.8562491572686566
-2.0125582409420555
0.8809364186943744
0.7595939665255305
0.08862253011745327
0.9125297048998048
-1.1470949972908389
0.11542324659798235
0.42954951063189245
-0.08565291017647521
0.9429404691463803
-1.677326277132042
-2.7075311863144513
-0.3370781073358699
-3.5663659915759083
4.146331596209744
0.6209354397319742
0.12859393095087432
0.662561704018623
-0.5061250646334992
1.6493904997983497
-1.234660557017364
0.4553329105663534
-0.15974969224243551
-1.4335648528694853
0.25157907025731063
0.7112241415729568
0.019711040829837472
1.3735036511982146
-0.7284962632626374
1.0406024105646052
-0.8541384529946996
1.0515341813465786
0.6639722037508906
0.7705695002839852
1.0407128218190749
-0.2733028122802043
-0.4406860998263193
-0.15854152461826962
1.4339401106715868
1.915492240077441
-1.561391938342402
-0.1080084636646687
0.3120978867157131
0.5642221287548564
-0.01849909238952504
-1.2485542458251309
-3.9087808673606848
0.5690672561518741
-0.45223511208597916
-0.13954304637621662
2.254870008188657
2.003571678241175
0.3617035627065433
-0.29962900769889683
-0.6823280934524555
-1.0269421539215673
-4.572728180765485
1.7976395754046102
1.6869755364167376
1.395569662361877
-0.5937844366008297
-1.3112075843083428
0.8320407678179813
-1.2882115200320823
1.3463718770225652
-1.0101304924092915
0.02415824674550448
-0.06875314266313483
-1.1028615556299741
2.868338449875303
0.21978004531561524
-2.0768496473915112
2.6181462085210088
0.38291580413861476
1.3452053477656234
-2.3447871336665838
1.0193785337701544
0.9107285218500606
-1.4240726114950801
0.7841529902129587
-0.12671049893608388
1.5240319251797143
-0.1666274427501146
-0.632137811479052
-1.92544080441639
0.12249829264491595
0.08657978948173083
-0.15445480199931066
-1.7312155119784254
0.1014634313117739
0.5568899609987912
1.2077757336456982
0.934459117148066
-0.2535014237413044
0.7303832465125892
-0.1390131836231058
0.9672469248269596
-0.23410739734796812
-0.7824400422817784
-1.228523946723523
-0.8885127800424573
-0.7208775861929317
-1.222845138965303
1.0447990360625288
1.4120477422549103
-2.8100699701153413
0.8167143784588492
-0.47536450264595703
-0.09127708504549022
-0.25586888998990787
-0.6832625037671919
0.969098996210777
0.1921908951971706
0.4607573457811863
0.7028745049888088
-0.04197275378200109
-3.503236882567271
2.024617608982792
0.7685665046398266
-0.8131270156167305
1.1957222792190862
1.1573194575272512
0.8225662168485012
-0.7568548704146709
-0.8575873804737338
-0.7848530781799167
0.3143282899210625
0.009055537583400114
-0.9625799085868427
-0.2122923145370109
1.961617630238539
1.282320641300793
2.911116285266731
-1.1248054384223882
-2.5724292550937373
-1.6392220842508807
-0.2618980881827117
-0.5436342432552835
-0.7444030026758618
-0.20001083359188868
1.8438732205574828
0.8261620891796836
0.40498785330492343
-1.2752457421639172
-0.13701456683975327
0.6541931600212001
-1.2764276708047841
-0.7966874464137638
1.6499484812506908
3.65331959175655
-2.1007011767765413
0.2972745659151754
0.6995641828070291
0.012992846265803715
0.4842731807296113
0.6748527215488371
0.6795956806307977
0.2987080154894647
-0.3671769521755584
0.5783417163080445
-0.4039961192238735
-0.9808074235743954
2.001579508635834
-1.6135953877397977
2.9853962088589476
-2.6310167112923204
0.28224338566729645
0.5592005002863298
-0.4616636979824547
0.9880982778632648
-0.9445558957641511
0.5532094872534449
0.5157301958602089
-0.4505545958432394
0.3388883371594998
0.8092227132089813
-0.45014005138616314
-0.05306376112368848
-1.3088666793114025
1.0552139575311088
0.19929915891605
0.4462120514298715
0.19248788531086955
-0.38390587073366295
0.6456344089624675
-0.34779493649816345
1.4096162286302272
-0.09348196521015122
0.4918828483034006
0.7041501663751307
-0.33287105125840427
0.58390310679704
0.11172959154824048
-0.3992740123275909
-0.42153462706688766
-1.1955455393654308
0.57326119834559
0.15906903920357662
0.09687062592739935
-0.27166739829783804
0.29904179833469424
-0.17499107293396687
1.2770858722012233
-0.028015633438127293
-1.589834014984068
0.5601645639849834
0.6221261616299829
0.44628675237771553
-0.6703365696003108
-0.4067362187412733
0.18552805010259957
0.8120567129894704
-0.3403660786587855
0.45456402671069424
-1.0016209570429022
-0.5363737664339062
1.2969909185783621
-0.1352796020323658
0.708119947089469
0.7615606622047145
-0.3416554609498959
-0.763255047350108
1.659336036576227
0.11883377581825676
0.66255577966939
-1.1273088952837378
0.02750997861926784
-0.4296901518655897
-0.4229465432125591
0.10115504974066107
0.6573788424668058
-0.32216132311841944
-0.10205966079719234
-0.4406207999636674
-0.867026706169233
-0.6005758997254569
-0.8546772497363173
0.7547645079636682
-1.333223806403547
0.8918086307766122
-0.8966180255740472
-1.4315556418190825
2.1011053373385766
-0.15210343142929042
0.7159592600298782
-0.9988224929534548
-0.3171564549662322
1.2335435900193694
-0.7921815031611021
1.1077924448502674
-0.015087612465999585
-0.30813345375562234
1.0203552005685512
-0.9436453103393901
1.2831958181355019
-0.4480773017790397
-2.307292766512008
2.4487782210650657
-0.8563774579926456
2.10345724119329
-0.6043500592069242
1.2842427388785949
-0.055249254134703725
0.22888774129522615
-2.200170837523074
-0.14047947036008973
0.14789007702175672
0.04647170542277191
-0.5440356784916628
0.7991780931854932
0.655762154469024
1.3905901270058576
-0.7709228300972728
-0.01676621725706958
0.3525392136089592
0.6414918226504596
-4.0306631651957305
-0.4102658151805704
-1.0889151819235656
-0.08623165067373592
6.779692684443634
0.27804852894625065
-0.5758415533739749
-0.2794524927684105
-0.6429569160776611
-0.38192587559461744
-0.5600909134175592
-0.8243055876433557
-1.1826738442617597
2.4890628812653133
-0.6502780742651515
1.0393421578368418
0.4724663258218731
0.050881542819531854
-0.7748815982491577
0.8614908835438985
0.1655357596511846
-0.12366142876263486
-0.3538153624841998
-0.0038012935126866096
-0.870201292465609
-1.0542415578892326
2.082744414256599
-0.8332527359135923
-0.5448323558346482
-1.9920040525350264
-1.3713348253508644
-0.23959228056607038
-1.9101337403830587
0.7654512102056811
2.4317978581271973
0.8022528979015108
0.9399008548297567
-0.30816916827128865
0.4132827896781538
-1.103176191015193
0.23610094055345462
0.7264668678116319
-0.13625901961329862
0.34436765547065035
0.8279732402154742
0.27204853819913044
0.4335192021953228
-1.4619677777786073
-0.4530513974885295
0.20556659047540013
-4.69800473351938
-0.06469837374958823
-1.8003628449556583
1.4466180739989243
4.458677933637413
1.1964635028276782
0.2806521251854478
-1.7156672423127957
-0.8912501691764769
0.7512687708497214
-0.7549002467615366
1.0569797426703582
0.2684284328163795
1.3298090213379468
-3.1646530463757596
0.2822234191451391
0.18110824367989753
-0.516795736793102
-1.690261622440003
-0.6135214360923917
0.8034617649511799
1.1698959666449709
-0.3250278629959955
-0.6787768232881056
-1.570388648966067
1.2699327818298412
0.2998983360647141
0.4456985949490641
0.9904007212100137
-0.25107147757364934
0.5946444703943855
1.5732491722796231
0.5656544770066887
1.4785170734542876
-4.015111970426558
0.43810734349116065
-0.1870254602994243
-0.08643127714408722
-0.5639019026992602
-0.47630755529934155
-0.2390420168030147
-0.7351691868318085
-1.9871411013208025
0.03809617643340994
0.9924737887621683
0.6435395540477875
0.7035702832344056
-0.5488880422706194
0.725621680226033
0.3090293107591058
0.9530366829604869
0.9066293587231194
0.7038788406113655
1.3820207096705204
-2.116881154787659
0.5379972393768215
0.36770874850171276
-0.7276278895478504
-0.43173252924684913
-0.22955837431895668
1.159730943118323
0.8514952411099946
0.4501645122517775
-1.3909070887274153
-1.2912119949628253
1.1202701961588726
0.15412197887479942
0.44675995801937696
1.895577107109796
-2.0653590329904667
1.0607696798890718
0.7084313691703055
-0.21655138381533712
-1.8659921703908293
-0.06261714437887604
0.5099081545793286
-0.02407619519629168
-1.0848802631421177
0.8736815771151353
-0.4245620796568334
0.695135038368655
0.04519103756653289
-0.10575368500668561
-0.654736731704508
-0.9028975384905146
0.6674061525297674
0.36325774076846024
0.08296322398338005
-0.7806758932297463
-0.3125327759380434
0.6105456691111684
-0.41047990907474596
-0.5540786757802937
-0.42826038722202703
0.2598608288821989
-0.012218229958208978
0.8921151464920274
-0.4003349523298855
0.6984659334026101
-0.9588895836165197
0.6361715939150466
0.4032735334285525
-1.0383193603965388
0.21517823269865105
0.3143384635146656
0.792261948092753
0.45290690339272605
-0.268888975501562
-0.3053186683214722
-0.0801650101496132
-0.9463984639355179
0.3358849031777285
-0.17139519504001485
2.7213186272494245
-1.8884123809302997
-3.4188170427370306
-0.6133631486585172
-2.862016178957411
1.140726276212943
5.406159722231023
-0.48627894509244757
-0.7386681595000759
0.2770705299463559
0.0022932448687796557
-0.7610131457499072
1.2687996473410332
0.3125440971189298
-1.0833470815070123
-1.208567002598219
-0.8846874012512235
2.03496695578054
0.5427464684741712
0.6458365628669721
-2.999469565837013
-0.144273181624336
-0.3721118824597304
0.734636094279608
0.6281181412569039
-0.49471092605726663
-0.19927053328511513
0.20496176594373375
-0.9371286086042986
-0.4028916547828197
-0.26933018758109484
-1.085614054291866
0.3203951611429675
0.9581320746192735
-0.8137719387694521
-0.6425813651546178
-0.34653862665550983
0.44429509650222637
-0.09814677144800081
0.0408831923742245
0.39270398989492267
-1.228827833182696
0.525786699750205
1.997048539565898
0.3276677132883866
2.6642817720266163
-6.548410125029301
-0.8269516207001185
1.6604306967683284
-1.480504791133267
3.279034276156183
-0.384817025152279
0.018703206198850134
0.4796637257659609
-0.362661723273647
0.9822139259907322
-0.5166281112123009
0.960754626080581
1.2496054565903416
-1.0386285737108238
1.434179375363508
-1.9254638876964358
1.1595379936181194
-0.3745034447980323
0.09980737085501848
-2.2136526504061758
-1.0490342138069233
0.5735406078499765
-0.14480438961281344
0.16988378862373582
-0.37391671681532546
-1.0979633927768508
1.7982181193286402
1.9920865495947964
-0.9962053180135687
0.06919239640254343
-3.947725776142079
0.45960702707838247
0.7762456107389716
0.4997088151189302
0.8202863890014306
0.5659886487363845
-1.2405547899467944
0.6215008426578145
-1.1519145230056174
-0.7777252326614464
-0.6282144098710709
0.307410168256863
-1.1276491958668926
-0.10053379757152024
2.161418297724667
-0.8998239059894002
0.0723904803984972
0.2093603408817307
-0.573088601292838
-0.3752492745166529
-0.9504590942621141
0.1879255125935853
0.9695166046688027
-1.7645701701594125
0.714732043697567
0.22594265971477903
-1.1231438457231644
0.5042695196068312
-0.4957611364701447
0.2272765859746151
1.6010001031455943
0.717068575600781
-0.24941143792828435
0.8265736892554624
1.3021600898732117
-2.366775745149264
-0.161655545216265
0.6027058198187274
0.6044256953113527
0.0590200835289889
-2.0636335863799116
0.8682928363664245
-0.09998958025088599
-1.5531689587293942
-0.8215145423143102
0.142760716631699
0.27798531118202574
-0.4339340294614568
-0.44288485999801147
1.015777325121839
0.18080705398363056
0.5676590137262333
-0.22987020034642502
-0.6892219376073494
1.1700218915917369
-0.7178946904249961
0.8252702625274642
0.12576811188965306
-1.0127151169571542
0.8105605705474028
0.5453755218019256
-1.8141921074926517
-3.6387744160308517
0.4346258189148173
3.6735606122863604
1.5346922170941977
-1.0093950065116053
0.08622016641632843
-1.8011414593898238
3.7534467422529216
-0.37393313383040977
0.8909257505184679
0.454964679948826
-2.1357655732938827
-1.021725679716664
0.28153024374067975
0.43141445020564123
-0.20443807412631726
-0.526832710036648
-0.19322111775774292
-1.439549947857282
-0.602548784863249
-0.14643185558955574
-1.9982548390421635
2.492346622950152
0.6726667831950023
-1.3035233783904678
-1.6946672938217413
2.077618418914677
1.3731080331417043
-0.5977127943971855
0.31053400145020515
2.1036773710051144
-0.25758246591985995
-1.6836267179853606
-0.06941056254123626
0.9470734079001805
0.49173030965220277
0.46481700885121113
0.393033886372586
-0.17951989449095232
0.1631225728917025
-0.704367748191202
-3.2904216854387327
2.805687669958137
0.33748647167757007
1.2536171898236053
-0.04166067659947752
-1.0677362302571114
-0.18336043937384108
0.6584992564257255
-0.18705058243592082
-0.4086800150743963
-0.6168495703226036
1.213196435912486
0.1407164766116764
1.1086829613812885
0.45414579931562665
-0.2948833805802477
0.07827139784841326
-1.0331585998802248
0.45316061232037314
0.08512176207065805
-0.17015538482922182
-0.6109552002570768
-0.21458978397132158
-0.029258959784491386
0.2953030332133595
1.5918273027099374
1.5925392558865723
-0.15388687609013513
0.5244364355132429
-0.2744373488733221
-1.5081103500835458
-0.7318563006472303
-0.3302892644263563
0.4103091602453174
0.2836752467181275
-0.24570808087444918
-0.8985983031625747
-0.3614504018097514
-2.255978565668662
-0.4872295357192299
-1.5603826870716606
4.677719837362198
-1.1617201465766607
0.7216938788358086
0.08520289565411573
-0.2703230869308403
0.47436107357384233
-1.019852744741711
0.1273663341085886
-1.2683169491844883
-0.9461268535103979
-0.8627339825747926
-0.5540239910877675
0.171715168609369
0.39979525279760064
-1.6826456721234024
0.017507099280483863
-0.34027312924870656
-1.792414785476416
0.7715485611022086
-0.794978876070466
2.2447008304863534
-0.05895871372141725
1.777501433448087
-1.1055960049857383
-0.5289139626493454
0.25037393293626553
-0.580810105908593
-0.30186509319187993
0.7194594740050114
-0.25782491522988954
-0.03295800307001627
-0.03436086816313796
-0.1361849806864128
0.6716417801959917
0.14425639026787118
0.6469064941808907
-0.7588294520922388
-0.17644750084435673
0.038366603873038176
-0.5034669405917349
0.2706630443460727
0.49720801859099006
0.2425744493431685
0.3195762502657871
-0.88278618544387
0.4233775033996684
-0.00947526199452175
0.8123194586159566
-0.4819163718938709
-0.05423714987246119
-0.9125155607420458
0.1747107206743464
-0.029467443442913105
0.7139800181529182
-1.0324737625486167
-0.7992501992756756
0.9517674964034623
0.3041573851027671
-0.3712865509705622
-0.014840581782914072
0.8816516083436956
-1.002505514881463
0.2021181833925804
0.07366784055697695
-0.19429263492695598
0.04948304122966132
0.5004365340387297
-1.9834159636799795
2.714706252906083
-0.928347535980221
0.3529659653756366
0.5383685640771271
-3.7498696242118186
-0.33002841170005376
-2.014068273972365
3.996806289956703
1.157286345430359
0.05649967890922435
-0.6107314921708659
-0.4677922438767345
0.3656619869576949
-1.3429719863297005
2.466095227982162
2.8402553797147245
0.8696840079942657
-1.9113201830335074
-3.7508685304824505
0.19165180933544848
0.47118412457465236
0.3073659420604156
2.4774983009319635
-3.154774307931473
1.5996303837360408
0.12496080810142396
0.2769285877864963
-0.6435754910952813
-0.09034119014614717
-0.9283665565834922
-1.4504171089123854
-2.2057794613610886
1.3328747705962931
1.3942720193288056
-3.793872000861234
1.3591972031498394
1.3742388332910482
-0.18662117729544958
0.8203118125166088
0.7503692954110097
0.19318638398818674
-0.09581783102970862
0.28371832206449044
-0.5716563376381119
0.9802941589924624
1.203408292868418
-1.2438327843195685
0.4670323845964415
-0.32130178033349077
7.504666646499774
-1.5287628206246577
1.2470414626046642
-5.171452288181022
-0.8342886147185536
0.17275872543713985
-0.15482934048755637
-0.3396246795796923
-0.2687007106875848
-0.37516937290194435
0.5628271583989384
-0.001391190764874357
-0.610548253587504
0.18325932278963344
0.41781516179686373
-0.3026752275941841
0.05827083116037148
-2.1380485531622484
0.9884500059610797
1.2723166686659544
0.6911245676641079
0.17415064800173052
-0.321337248648624
1.00997391324226
-0.19999609500687665
1.2811476639644666
0.26277529797796373
-0.20336220532847096
-0.03504579391055735
-0.9011842387973616
-0.773061762253526
-1.2818697950135631
5.274160884263019
-0.25501111045642566
-4.0692961971681365
1.0073823050256894
-0.03912734680536399
0.3557421934040118
-0.3192237838059609
-0.6005641706493821
0.6546987032882774
0.7623370749382569
0.5117925102456484
0.5885080406708683
-0.47807462385893373
0.12657655346820823
-0.3800924999539986
-0.44667232448853245
2.0987439138837223
0.7619867457608488
-0.18955719453471806
-0.06771889122423072
1.0735065156458745
1.2507213700620128
-0.9696833469025951
3.0948473406796806
-0.7183229381387384
-1.0489134364030426
0.5189420224002709
-1.8285364173569694
-0.1717571595248173
0.3379673088956534
-0.3808213131601952
0.3879459443022858
-0.729245712951386
0.46973650618876833
-0.44758205367870146
2.8185087215640734
0.8928420864773108
-5.440526843168787
-0.8060577943646342
-0.794867301040384
-1.3924520106312932
2.9898597846024355
-0.873731213886552
-0.6279505517968674
0.4937600405429188
-0.7117999333796104
1.9600412768359277
-1.4233339939042473
-1.4361055500358317
1.4918286069588789
-1.4537475317203925
1.0411904037302717
0.14231830170354132
0.6257020655685475
-0.32762743758364216
-0.16686338197464523
-0.7257235298502472
-0.15213939245414104
1.6401802158441785
1.8857522353073708
1.1454714525753238
-0.3358544842540481
-4.936053549708742
-1.1606869644731337
1.3212201774408232
-0.9861500976115983
-0.38787054649356184
-0.13430274678086768
-1.3531680659475513
-1.1976103380432124
-0.07152615209586909
2.3015559943470523
0.4739358060557605
1.2590872439175103
-0.30367383256087543
0.511315778670368
0.14233759894861833
-1.2418886750589688
0.38876078392310576
0.475754993266426
1.0839643066568898
-0.12258583335395444
-1.8798564475764625
-1.5364999002177966
0.05489296121049205
0.4941414468772596
3.8929966635673052
0.05581930346122893
1.1387523964798414
0.5009512697180645
-0.31037530333278907
-0.4738783812705736
-0.1252790104734929
1.2759354429175058
-0.297783125544437
-1.3769110422145734
0.43822529106051455
1.2235718647536518
0.6306812217364441
1.0379046953975222
-0.4438462281822007
0.12133869545665824
0.447790201824297
0.4340958560775551
0.42358043238263504
-0.24626204513752092
-0.15627877958998332
-1.6470957084344076
1.3586618497380731
0.8523398314625326
0.533587146479701
0.28102634386444747
-0.18854249627044284
-1.47777901515724
0.8746815870871915
-1.243131415936659
0.6674880886099662
1.552412218382169
0.8142779095655606
1.0271337852357774
0.02651333564258694
-0.2328483441413078
-3.2489012658072682
-0.2783069634162334
-0.6415619905392929
-0.5561908746226912
0.13236668398408774
-0.8042466150646295
0.1332395096356602
1.8262637075174262
-1.504116317704789
1.2305386109146166
0.04424029841769356
-0.15153428002292468
0.6040221254447472
-0.2910630631027889
0.3646356858068817
-1.4623550368473628
1.6005596593991236
1.2000751228417228
-0.008097505778047787
-1.1108078414561642
-0.5492630124417536
0.3099672551837299
-0.05693042039947132
-0.012049893756609042
0.10828590414102414
0.054068068830642114
0.7921357606202877
0.6964585338791147
-1.510916514704179
-0.6667392120238526
0.2716208341132308
0.10321292838632164
-0.9182418423977503
-3.00806283787136
0.055139525331983824
2.206595059230142
0.25362060561719785
1.2575145771453755
-0.9480891140614385
1.3387982400549105
-2.103078107626797
0.8928378908303561
0.14328259343313693
0.29517757662038085
-0.5455226264405799
-0.03743440027966424
-0.3052365021362172
-1.6656972114192004
-1.5465387707397045
-3.7343565203906044
3.8301410319942444
-0.14964107881383604
-0.4225923753223804
0.8957306446479816
1.4760931258174437
-1.4097789879237208
-0.5971303900183484
0.012116002260366427
-0.6353456223496005
0.3404949978613961
-0.20706461746237007
0.855007061083272
-1.147564545381775
1.8740469841492455
-1.23892086546218
-0.9153292526096958
-1.8890792526146136
0.31758496753115034
1.5650353810849447
2.6923592270775587
-4.136751222027618
0.9769701082364848
-0.7372666538230261
-0.9036243776348233
-0.7783845685988577
0.3722686611184718
1.7689848504474672
0.9923401717489114
0.48265323038170393
-0.8201783565345858
-0.5580532268192825
0.8635272478528934
1.217721596454332
-1.4419035025906595
0.14083414303679465
0.9864370591798298
-2.0043819853028078
-1.0377995815700454
-2.2939944078713084
-0.5624510052045947
5.982096383213074
0.3760358124465513
-0.40034804520523337
-1.536437662643659
-0.23749593223232668
0.1724580725251614
-5.639310836608138
-1.7318606868692556
-4.50057635715726
9.960051350553414
0.7962662627932678
-2.7349689075531547
0.6712891226100524
-2.2893555913613266
1.882349981852201
0.9430034645391605
1.7909289933310963
1.2968442332601293
-0.7360682956642649
-1.3291882168989901
-0.4851872391614218
-1.6581125471183105
1.223710615833325
-1.5872328728348242
1.088528811261126
0.3541015461942392
0.17319914231039293
0.14930794378456394
-0.7472067727170881
-1.22056628177791
-0.7906572260608191
1.2716723208107703
1.049965334245458
-0.893325466323956
-0.7722485949180358
-0.06887763521085395
-0.34384406894035
0.2926707450345735
-0.9556032587509907
0.7403413619842499
1.1435287690615572
0.8748517624858484
0.36902768652281237
0.1377949480847206
0.9474604833162296
0.35861090146225916
0.6968556474981341
0.29468694349739993
-0.9580471233125911
-1.5786337505845423
0.6740712973640351
-0.12844339395152218
-0.11337421718639376
-0.27657853984115444
0.40193832794604895
-0.26519701058375295
-1.258253939459203
2.4800471706554226
0.20397310173964345
0.31060480969029114
-1.952936200229176
-2.3519655913951834
0.31119376134994864
-1.1163157730229636
2.812928553208909
0.1001235126549015
5.221361748194182
2.4220485545798787
-0.8022665538714739
-4.72158012287433
-2.0085720327930403
0.7316665856901835
-0.4981420478544587
0.09272825276570687
1.7566134158730986
-1.9441323119854064
-0.5405775405875249
0.8773936334718748
-0.6890979865752674
1.8766798986246922
0.42198064227312854
0.7927561939857363
-0.09738967958045176
0.31089102362964205
0.5179431209803134
0.7561803468977051
0.6215486449183623
1.0206374087150365
-1.2059652792451376
0.8351682047039449
0.34835088806816195
0.26899443924029226
0.8973935355057973
-0.3265858673445879
0.05301980609002575
-0.22525770547594134
0.27523104784553487
-0.9700939747411306
-0.5381292124051031
0.6268890680419249
0.5871732849830125
0.3615014361500334
0.17531697742109945
-0.8250238752211476
0.21007943395311604
0.29501267185229824
0.39618042152287825
0.2478387008406811
-0.1650712964053178
0.5872499683252399
-0.18038317150410355
-0.5818053998981504
2.590741586865152
0.6752399295694872
-0.010826992753903449
-1.538947959711663
-0.817793664215452
-0.2536169591654553
-1.2729507340488166
1.9176274100270552
0.32069520036292454
0.10288369286206413
0.34363468697902416
-1.0730367711688507
0.7803545172717281
0.5700945058583727
-1.0263070224745068
-1.2734824648916978
-1.2636248887695685
2.4422818898531586
-0.6215903132061844
0.4024655099506764
-0.23764945996287548
-1.0355708433057653
0.39092372089246097
0.21137820948368696
7.224274014341334
-0.19627708618853557
2.5840255728394603
-6.659402568896473
-2.4235240634745865
0.21926972275726322
0.994805683156838
0.0693845752647758
0.2966827642108479
0.21192208170243645
0.24367677858556044
-0.16206895285329379
-0.5993309589723259
0.4030824433928975
-0.5570242853112084
0.3881858389973006
-0.7389643909650112
-0.1427686035096832
0.5937767830151782
0.3591902330083363
-2.305850750476465
0.11527530513620739
0.35817611685956496
2.20262958172219
-0.44604214676799475
-0.7500577846576874
-0.46401860671679845
0.8722451859869701
2.2859045865974847
-2.7877470713486887
-0.14246026598782935
0.11576049805990316
-1.0578548586061798
0.12645381686359491
-0.6617029307410957
-0.6974997037807821
-1.2607680588267198
0.9085830290477558
3.2550074883305586
-3.035712432186067
0.9669473410483371
0.17059410829272711
-0.08338618024227666
1.5685014336375136
-2.616480005514822
0.10642805773853509
0.30995073956650004
-0.17392413856272426
-0.07240251403916151
-0.6239084732491343
-0.7443371796417283
0.7110408766591486
-1.1183474505957134
2.2094771758040412
-1.2440871406492997
0.29571047103049164
-0.14352762953381046
-0.22547242559109323
0.10020091165091834
-1.6166014458654954
-0.49567850754861953
1.200673304568288
-0.7907586993243556
1.6396315146065887
0.002077429424834129
-0.03646143960945147
-0.3287455640739984
-0.35014207456934676
-0.6051051703282836
-0.8520900599180626
0.12183670627493448
0.4963745663386675
-0.31310812497742835
2.3443671766454566
-1.8957374977509478
1.0118142672278883
-10.576063036569078
6.864860746870543
2.5226441706493823
0.05553595541717091
-0.20354651429491066
-0.2906511870966567
-0.7866103570072958
-0.4256774007201431
-0.42162153999597685
1.9512611265812358
2.4150843679498006
0.8778701887395146
-0.17949360002099626
-4.972993256451085
0.7071552598681377
0.046100994336415235
0.05668347358898604
0.20947490711581374
-0.515267252664552
-0.12943666826219974
0.2719683123559466
-1.4100623739002367
1.554937639350982
-0.501768720591338
0.6421671667222159
-0.6787494086045766
0.1242328238875097
0.21053315458956806
-0.23613408960328627
1.0017434940626904
0.04604040927661981
-0.44276599262069727
1.117076467851179
-2.475531927965853
1.8029352375000833
0.18668780335165247
-0.14110993176465106
-0.5310890267668879
-0.2829337586348823
0.22119969455800165
0.1596560164578611
-0.10257490350466533
0.41451410747242906
0.24259832475829554
2.323134693284308
0.07243835499945982
-0.8748320343661299
-3.534508141889692
-0.5918197380453746
0.783117248030859
1.5491637753459777
0.2568119532285586
0.3431336554800363
-2.7696589441730124
-0.13523990419456097
-0.09416531650175693
-1.253753920378199
1.0704577026612223
1.5893087582071759
0.9016636772745953
0.9636279872119857
-0.9401373347983543
0.02946688624520038
-1.1262808154573418
9.507179721273495
-11.009247626277869
0.5450539202066148
-0.21281830506611715
1.8050378386247024
-2.8122951031612917
-0.3064488790391847
-0.8934183618949142
4.322327046348618
-2.3789559639874303
0.7778873209367789
0.05576105133049728
-0.37044812258689364
-0.3836268813325058
-0.36778857780421736
-0.3402252824834099
1.277865441674461
-0.3151951981154084
-0.27143614841683034
-0.7629282904459515
0.16384380814249716
0.5179972132963306
-2.207177159857533
1.134743982397047
1.1953224418737098
-1.1388583658579892
1.0601429909437265
-0.45910160336110367
1.8329091464438534
-2.006798875531956
2.1839067907293326
2.140575169694549
0.16427995787322877
-3.53722478125745
0.07625395794037694
-0.12341410619220149
0.43425219880132565
-1.966352764131061
1.1748766817968033
0.500243407510252
-2.7695635885678156
-0.7604203506315821
0.19137960506904456
3.2112237819608
-1.5920999215277436
1.192217157872414
-3.7457765191979067
-1.7147183588460533
-5.841145061468348
7.867222719942709
2.6530736114258597
0.8732998488539196
0.8870842209151997
-2.7000382639888723
-0.18786695356179595
3.4825110220809594
-2.2619633541819546
-1.218979189754863
-1.091990387910977
-0.30702646806854167
0.41767974393825186
0.25925447692262954
-0.29204327641442174
-0.5247991453663255
-0.18263194788021594
0.9497843931423904
0.974499441324042
-0.5208237853743802
0.6061488119612292
-0.4388785878495063
1.1211304949659797
-0.25734470491678185
-0.2692845775460201
0.37875086624122334
0.4818969833441512
1.1130553396415477
-0.6454312825282764
-0.39418614155403026
-0.21887046269327584
-1.1302453651122053
1.2977901088113397
0.6780674462638928
-0.7590213356169176
-0.5924548347728931
-0.18980006025884222
0.519024283144328
0.673373797675314
-0.2856893228635692
-0.24908127921513096
-0.7439552359986199
-0.5064212674302657
1.5271387846457147
-1.7295954424674933
0.1477207749483067
-0.07802233855648509
-0.6331575387819673
0.20501817762604607
-0.4669749104758942
1.5805503226151354
-2.727672384152676
1.1575982650765901
0.965061732309547
-0.686542765009598
0.5643502677618187
-0.4622663719289455
-0.9705278205393276
2.299923784582511
1.5330031975300162
3.910768973444583
-5.211404334254496
0.23784358825670035
0.32509184311664563
-0.7598523185691394
-0.45213802380809054
-0.5362771268646
0.23817935218370506
0.43260608616964125
-0.5121874674153093
-0.5818403067049518
0.11133054859755943
-0.21004868075297678
-0.570222326860095
-1.4451426617524588
0.536831466852999
0.9996875738467838
0.23791776532668907
0.495344434630262
0.2092845441628549
0.19862122948742764
-0.6904254139088086
-0.40043199074985064
0.4009159747666538
-1.8091812075047904
0.6413059884706338
0.7861303554912988
-1.0760355597683395
0.6943414068806151
-0.6356668468895976
-0.841178162225155
-0.24773742749931393
-0.17788071285566884
0.6852252044373075
-0.16091809937286758
0.627968460641954
0.723065198919867
0.16008089342932094
2.2578909240968623
0.02540450379379176
-1.2380892942582593
0.03748349613207433
0.8305250803708316
-0.1328961168815448
0.3253264587882598
-0.33520116978387643
-0.5325690160599179
-1.8874694453544094
2.1444767127073185
-0.03434137879321086
1.0639323806981578
-1.9008156292316236
-0.6288624242837734
0.5978030695944352
0.6833120541456076
0.4353827302684442
-2.1144997294624575
0.8280301445300068
1.1456559652049176
2.1743378999639495
-1.6719541174709138
-4.035349338439338
1.1118449475774166
0.2659813107396818
-1.926446558407425
0.492369615238629
0.12042763253759524
-0.9058385981346824
-0.10656598443067794
-2.6610319264650153
2.10265872872182
1.8816180196033037
0.8326981049327108
0.31215120479354147
-1.2830178549019706
-0.1556595930384057
-0.395036500353433
-0.004240426617150042
0.2003914215303054
-1.2273776181241929
-0.03440190875283066
0.1712407025185349
-0.34437687670130246
0.18954512383693045
-1.1365868494828568
1.4472256424956227
-1.2265414753907098
-0.5961263051014906
0.1998556665161931
-1.0880270816735622
1.2165430814426228
0.4894542470520487
0.7526640682652853
0.3780752929477389
-0.8818829629305226
-0.6649758205905878
0.5479321412408286
-0.8616315088492773
2.773172979794024
0.4390980844152072
-0.048185797338579466
-0.5705695773689751
-0.4066382840947423
0.840302041655669
-0.996896366177611
-0.45529613854417483
0.16840779950917878
0.6031790351988092
-0.021314567812010916
0.011004184243226519
-0.512604875123504
-0.5594215460410589
-0.7577320906072214
1.4444367663508508
-1.659668290711059
0.621067833747187
-0.98053734191914
-0.4049996333093849
0.6269486598879358
-1.1975014083052375
1.017133966504018
0.2936103118009177
0.8311086866185599
0.10139493185150628
-1.172320873514629
0.642202467606025
-0.7217459885503863
0.32664794609824616
0.020510943222340275
-0.42483812240574126
-0.03820268138942296
-1.3028729238607302
0.49395858233318574
0.16554597369696428
-0.7813486372721147
0.06799674369004813
-0.27444942123630794
0.927155122092257
0.7079638486860571
-1.2349838000376814
0.13372730082174167
0.77355387278296
3.097938828007733
-0.5706502854487557
-0.41775416999896886
-0.3852648341980987
0.0929174350423107
1.9355786026522954
-0.9071055440588478
2.1605534091410896
-2.7489047189841367
0.9091316579827354
0.5675224387949428
0.1792249898091113
-2.0041058993934677
-0.2334948504099255
0.19199945621500264
0.9499841392035108
0.5914862022420746
-0.41712536357863567
1.362413350262985
0.6068143931792217
0.9583913788803602
0.09898060742473029
-0.5455207555454896
-0.7931074231360603
-1.01053943799196
0.4125978311977227
0.512063483266093
-0.0850525923674452
-0.4931153582298983
0.3877032023316555
0.5507534093254274
-0.2247780676274092
0.09055206908212678
0.29896251896152315
-0.8127977718593812
-0.0972614372364216
0.3616069087700742
-0.48042449618637256
0.03468514854016665
-0.573300512240093
1.703789110337049
-0.32581317790350267
0.14938919226725145
-1.150714967481996
0.3966708344206736
0.8169167200113524
1.1943394993358687
0.742655498706332
-1.1482365749194132
-2.0162402335287495
0.5671553009889484
0.22872370342485118
-1.2285337795336992
0.9236368094917875
-0.7584919455433222
0.31673119653737314
0.0678357115614563
-0.7022483677714414
0.3189786740807668
-0.09563826378520618
0.7957632866120354
-0.2246128073317324
-0.4904534629991672
0.1038552481482158
-0.477961841885956
-3.237301672951584
-0.7368178750013733
-2.733511101557753
3.0331256548805983
3.2640294420012985
-1.2848638415639284
-0.9430356879172456
-1.9166495771651202
2.5846908164790987
0.09829557066666017
0.6449082898724158
0.46872079749348716
-1.2556672503837503
-0.5651447328174001
-0.013009232960796317
1.5869719397703543
0.2760667972710061
-0.09880034682305443
-1.632371785753683
0.11335977661487671
0.9047398245871265
0.340326761590017
-1.5189989712941343
-0.712345045772019
-0.20553493341018267
0.8953401785438121
-0.13813539600736313
0.13269135575265956
0.6165381380090168
-1.0712575858547393
-3.4052405976475377
0.8488432799057436
-0.6819660662204393
4.024586205431287
-1.6397833052627946
0.7106713567153399
0.3009396844981541
-0.11172631379400286
0.9124140289020659
-0.42901394408653704
-0.4260234612699371
-0.08054590662896036
0.6397859324089771
-1.4009161539579895
0.5694761500082562
0.49966237621026555
0.3180147894704774
-0.3007485316372197
0.44311524286560083
-0.5586577846988617
0.03534754853369144
0.045274819360855235
-0.5034493874513685
0.10379394399687704
-0.716495261388058
0.8507648455249517
-0.4529348051261746
-0.4764194719622047
0.40989219156865997
-1.1213228203185783
0.7350681347421028
0.8118147146521731
-1.0299662559750753
1.0053579039849871
-1.0193566882967153
0.7177834678332269
0.22548978845221837
0.19473316932953325
2.314224697431882
-3.423187944334058
0.46097340471079173
1.3729490306337166
0.09305000729579357
0.07811204855543548
-2.375290109281493
1.3672731081988483
0.4490021406095694
-0.21683497262648574
-0.4367190406284291
-1.1103995156529483
0.8195255908021691
-0.1535196639128763
-1.3723592021460593
-0.27355184783389364
-0.2910702356362051
0.3557084540183476
0.5247847044001345
-0.28205003641557835
-0.3499397306231575
-0.3941473315105155
-0.41793655889201037
0.45396864358308203
0.41339062793268794
1.9456390292971109
0.04166366408135226
1.4847140620235855
0.6267013104832285
-0.5384310869627814
-1.1171629008106638
0.6459398098478134
0.7007865354968462
0.7979593825196595
0.3146078627181536
0.7580488751337486
1.0389626113367096
-0.31199345514271587
-2.188703236285598
2.606279333941601
0.7155350394190101
-2.121070507436125
0.7440435681529207
-0.16354945875776658
-0.7146532378047141
0.17511290124225992
-0.7420906631499905
0.8357547576366162
0.010513065678523895
-0.673316059509411
-0.39312129405004503
-1.5752967392727395
-0.46116470602445137
-0.7022643150347289
-0.4494727001012801
0.8175993244026726
-0.4623235248888069
1.3110722541323307
-0.5804143364456561
-0.39339181982080873
0.45264453200986826
-1.831234760971206
1.155649025886702
0.55482714549831
-1.070067097338414
0.04398634284574148
0.0996321333781308
-0.17329829078063413
0.4029146970789427
-0.6693168993793609
0.5830187194345289
0.8520661961220589
0.3859780758548947
0.21405372516898738
-0.6834331671976566
0.046097437934340325
0.4041977179979
-0.21090885457356548
0.8167453419069478
-2.0253420016360977
-0.601284400172629
-0.7325202304677522
0.5275438132629657
0.2439093050741631
-0.18446845894240216
0.06443065213932218
0.36656049474647634
2.3351635356578018
-0.20219840819847598
1.1136622972087624
-3.488769823558851
0.29650821148549844
-0.20336839124003517
1.0803464911365748
-1.0319609920682193
-0.5612942437189482
-0.8966874483282261
-0.47228934839978576
0.4707949964033638
-0.15694539276227282
0.24096801870439194
0.27636218381538985
0.6608448506600196
0.1768914819649146
-0.5809229622210705
-0.014196546100154884
0.7689618934348592
0.10269966763407037
0.07045383900090318
-1.258310771442578
-1.0106500838304404
1.362201412483101
-0.5748892054861666
0.6332854073892485
-2.0255132914949914
-0.1605036523154279
0.6479648232865053
0.6538289958503396
1.3770513194517926
-1.2806766402702061
0.25939874126353146
-0.05660065884950594
1.1055091244695445
-0.01189122196863086
-1.3758896402205465
0.4309292397460174
0.3174898294021765
0.9842816305924119
-0.425047318335099
-0.4868580784529582
0.6503086527059444
0.34056663517857505
-2.1991853014732277
2.5711029786393085
-0.6364857953675768
1.5473117942157315
-0.38778541452361864
0.42530287403680794
0.7801603759597865
0.765164250720153
0.9287534254111486
-1.0053527579354888
1.2374338060954035
0.9534899575982301
-0.8775843007215289
-0.47377418587064435
-0.22796877799250362
-0.020033809353048018
-1.4043525285427136
0.8877375307344483
1.2442892655722941
-1.9799176885773206
1.910525937026196
0.9805870615912285
0.5838641530863207
-2.0919167758440373
-0.48961107223236927
0.07674094901701205
0.07677445674522299
-0.19939776944629403
0.4346041548958335
0.2993694052685165
0.7802800222457124
0.6993123778761221
-0.49559573041959737
1.704270863053177
0.44386519278329667
0.270699650927522
-1.0794579874579162
-0.33604664370753207
0.10980509285682902
-0.5254477166340654
-1.5676134061276321
-0.5584119506650771
-1.936346854015882
3.066632282944952
1.544768947747744
0.752768157209326
0.11215772230142834
0.17529148263423516
-0.9537428982069756
-0.1510444088724053
0.9726170320108308
0.07746392735571249
-1.3816353329132125
0.3669404058684255
0.6987673086226431
0.35375151256781656
-0.13495103662510027
0.23459727369314348
3.168075333668278
-3.378561939259419
0.6570785827888646
0.1416874599833931
-0.7768844007765103
-0.11309813316012048
-0.6099701287062824
-3.3650318812238007
1.6575177995729378
-0.4631421502190107
-0.7820003042404664
3.184911819123015
-0.15152684203965733
0.42521065038075484
-2.3956460092392886
-0.09855602511814837
-0.36843536901165036
0.5264092651427718
-0.0709813116862579
-0.11038025361600738
0.11855573528378381
-0.8485444561526684
-1.1180143454377456
-0.08996108820196819
-1.249046943089147
1.4234828147103717
0.43236871690267176
0.7837676153952055
1.065378701021554
0.49660096075229887
0.4719900321587813
-2.3665950135825913
0.2400896246099707
-0.5888895154989551
-0.30817049809943414
-0.693166492389188
0.3097128391896831
8.066225908669937
2.2232913471688223
2.4503263630422705
-8.519851942916356
-2.4041008130946695
1.4143534608482604
0.09864997720958968
-0.2215598728115699
-3.114688686723704
-0.37130374252660175
0.37597414662514456
-0.08306131307828035
-2.1721733303923827
0.6914607895117867
0.017452488450556147
-1.9237903708512445
1.2722868252340753
0.18706414603715965
2.5895540342332897
0.6774284788042654
0.5384951622361993
-1.8147668133262782
0.28868711357335297
2.149277531537056
-1.4636378996550565
