-1.5370803764274603
-2.0502285944169145
4.066414095775596
-4.458002690266913
-1.6550819238994077
0.6944221417189
-0.9578209095139757
-1.0165951166435625
-0.4972774942402416
-1.4872535799711128
0.1999907542265575
-0.09092364505014565
-6.046088135779139
-4.183574082335199
-3.548887167266783
-1.9226399930946005
-15.113506867499453
-4.078588796686666
0.653473437943473
-2.1197278342684367
-1.3234008901927037
0.26855146035116906
-0.03768569176683956
1.2361069356815955
1.6523771729962209
-1.000448790841641
-4.1345945736748
-6.532701892297998
2.576050882395262
-2.3070782684653146
4.0860370138527395
-0.32170958888502005
-1.8770673789313432
1.3972045404711009
-2.8602894350681063
0.3082979282956641
-0.38902057223170605
1.7189826141762983
0.21741374151699802
1.8808940482912786
0.9598253632086385
3.7715866018249606
-1.4608964349910203
2.566809200459039
-0.6399248336228999
-2.4026046049574004
-7.8632406851822845
-4.545447175755571
-1.4321174762212863
0.7848421106424203
-2.1449699872059687
0.02821230925010212
-1.1268588549836598
2.9694667912898893
0.09437004820655495
-0.09787853796289782
3.8626451151537755
-0.46873657464362395
0.44924013369852756
0.2177207959181679
1.7394967067724765
-1.8732130924917174
-5.001741569740042
-2.1693916248987652
-4.213700868308244
0.5320611337620892
0.16480938615160093
-2.6704261369457623
1.0844521638891615
0.26529075742990677
1.1083042149845252
-1.9106777418493204
3.0110384026965273
-0.74512976682878
-4.011457273702677
-0.8687883747563091
-3.2113710527793295
0.39565669946442455
0.1279840593431366
-0.18938129141483206
-1.372861866471545
-4.741253500882857
2.378115338407746
0.08153927472708297
-0.42558232613583546
6.0233678541277795
0.9712209786325903
0.3101358948019972
-1.8179598137007595
-1.5409273539006625
-0.8727254053888936
2.0842671714885133
4.858487088382774
3.467211874162655
-3.178701278463317
0.8185428044695181
0.8951891166753313
1.9935955485911263
-3.29663727670771
0.4906080238825723
0.6781017590211728
-2.5200997515272636
-0.5248519582920181
-1.3466560524580542
0.2966543803805586
6.240739735885163
1.2349933175863819
-0.0805839372999737
-0.5494856965243318
-0.40171031637850846
-4.2846073368294135
-9.479352974627071
-3.6806600910369087
-4.085698469538584
3.375681503007898
0.1529635963896308
-5.238864026709942
-1.2506778665661598
-2.164704610148032
-2.7935903373713042
-0.19696630361980064
-5.060506908743694
-0.6708380963149015
1.5769594122956951
2.582140229971533
-0.557666686696968
-2.3602929507039416
-0.6150548513665532
-0.9859639645121332
0.2345896119572606
-6.925384979351778
-0.10371358864552734
-1.3737057575383425
-6.149801417593657
3.7704931946454994
1.580685488536342
0.6804095196835213
-9.698577479555384
-0.47271487738517537
-1.9631797021629938
-0.7965816687948694
0.46534698120044604
0.5705763601983874
-0.06024381915351326
1.264544664876709
-9.754364202242854
-1.8217279992106716
0.8379860031134468
-3.5220501675625964
-4.288902014497872
1.2330347821668541
-1.3034082134377845
-2.2496552548053907
-1.09627111585145
-2.1798753155716004
4.124751052492493
0.9677473786439257
-2.187224163685943
-0.9007407162303034
-2.6483585754440178
-10.689800483294848
-2.090002419423418
1.7361781663854832
-1.3898498585994519
3.8475320685522414
-2.0278206008947963
3.061225701090559
-1.1595933651660166
-0.9479437964777429
13.017063476071947
-0.5755392318822592
0.5332204869440448
-2.7969888158039375
-2.249575515415424
-0.17897208732488523
9.837254660051384
0.7035135365780613
-0.4795708370343634
-0.13222141442565447
-1.2983925069976823
5.800217022601145
-2.8705510521768063
4.689098410019345
-6.737598677155089
-2.574046061060092
-3.300816909058134
2.397722133687738
-1.6492318664226586
-2.9290804482085915
0.325456153333517
-0.6530202253269793
1.3894103182557715
-4.051486764770419
1.668117720876694
-2.7146275595424685
-0.11887849855065724
-1.1517082491272514
1.4761850543665027
-0.2674243223826794
0.8970060883022893
-1.592259571768192
-0.45115614265750265
2.3734027881657687
1.2353773553640826
1.3073335587570445
-0.3530093251020842
-3.5679319836408143
-5.001754870287976
2.1647911316467785
7.0947472622631365
-2.3637558586871226
-1.933834370558922
7.626209905965448
0.5575308145940288
2.432599342372601
0.9516793049232026
-1.0746943379879668
4.095674442846534
0.26105119744854743
-23.427128437621633
-2.7497720945839776
1.231590042059917
-3.6346221239830974
0.6296239784585529
-0.14874369328467046
-0.05021121806649986
-0.6879777444360616
2.4900629186707244
-0.9335165471314808
-0.9001387945946672
-3.294403686740532
5.120409294163661
-4.047330718100038
-1.4219842458559906
-0.035086509927379446
-1.7386498682446643
-0.5550943644703825
0.04380859098004451
0.21767792157982108
-2.1047560519348445
-0.3351283489660011
-5.837403382628024
-3.1910961748199345
-5.432934438009736
-1.7633452296147982
15.878728494719441
-1.3550169412501725
-1.9454039985773866
-0.5349566220836361
2.4010545162853667
-3.299232658890126
-2.7729248862698523
-6.745611517539172
-2.6794806580878023
-0.755961445916101
-6.532216205741938
-2.2466161247936935
-2.487615674404576
-0.34454184006137684
-8.628099120248017
17.042904069145756
-1.1554105082968578
-2.222894488396408
-0.83273251408004
-5.273683153747247
1.3048204797557563
-3.3141840355245895
1.8702379987993099
-0.9308098722241077
4.168058153482941
-2.5887190897578636
-2.2890120392035516
0.06188320066566576
15.814449920613619
-12.783423728958843
-0.5415885510520935
1.4173725889304833
-3.3119847561610136
-0.18127314474832057
6.957601590047358
-4.549537083357383
5.7354125435540295
11.725526336682664
5.319626533483728
5.050264767983138
0.8398395766015769
-3.403548877019178
0.7694756967491803
0.010485419517102967
0.6546813429208695
0.662972792561738
-2.6119380945062094
0.49317656345162286
-1.4151757586926839
-3.5566826375733958
-0.7066818516762096
0.282715756609893
1.8775533478000181
-0.3652994058483278
-0.8760154785247223
-0.1493058591193016
-0.6915235887485173
1.4094293403421119
1.5668216002884323
-3.046070876308132
-0.8926155130289701
5.476330095127636
-4.3790310202306255
-7.466805534401391
0.5996755220740289
-0.2605076864036624
-4.084303918588822
-2.9597500577658256
0.0871641798127626
-0.5991327756759549
2.0459380081844185
0.9294841223668565
-0.5806509395964664
-2.5920980156944218
-1.190099060096015
0.038950037831100064
-1.4697622610664682
-1.5112715277321893
2.1529549086059863
6.146896919151083
-1.8816822616242093
-1.1726265142369736
0.10120153138720492
1.1579747774300495
0.3358544768193651
-2.3440835565905833
3.93396133182383
-0.3485046129723496
-1.6501276586437015
-1.4096069138018068
-1.0402158572711697
-5.453487051896987
-5.3176909927641045
-1.479577512307263
2.5451214857742133
-1.1665204086532492
-0.9963811917369
-10.888930418673883
-2.870553449725813
1.6491994481566312
-2.273130817116949
-2.3960426729280124
-2.1068556018774736
-2.578451897655205
-4.810727116280743
-3.4167093900157157
0.7577677559469682
0.06243231540533386
-0.4923574182760976
-3.2512438938528185
1.4764246920970117
0.2112388300086728
7.0731394166236266
-2.113550901539619
-1.8253373244581113
-1.2240132404799566
2.3651631160281554
1.2344078321144714
-0.08320214622973028
-1.4679032157376573
-2.362315204080849
0.16833851739612912
5.272824051909821
2.9889274183376675
2.670937758368144
0.4150593727825156
2.6663472163790574
-0.7122438609055266
-1.410911833110916
-2.977919816835175
0.24798139326070417
-3.972912715759995
0.7876272095791257
0.3760002577201886
3.3617834396090758
0.7537539794747206
-1.3119687663128097
-2.573824094349373
0.5266817395616705
-7.40586613230598
2.0057829186165823
-3.046587386722497
-2.8044199654273765
-2.0617517038046875
1.6359687939187428
-3.50306527312024
-0.5920713004084788
-6.363858937795672
-0.9379788295758543
1.2333140212422313
8.521397270715438
2.1784131249744982
-3.522645222957569
-0.4040560567426346
6.259692299962168
-5.688235754892182
-1.1183993243899428
-0.1945188650260414
-6.179310909189107
0.12057879910877693
-0.6428167192962497
-1.5007056619363026
-4.1331874370327215
-3.9908704289558226
-0.5008037579173347
4.198923096510843
0.40886393956293626
11.603562766880176
1.3811049176465373
-3.33138242931921
-1.1701856105228219
-5.426950529699298
-3.1889415728816464
-0.09304724307516554
-2.1582229323994104
-2.4134585901266923
-2.2153815328474695
-1.0532614699727574
10.90575589708971
-0.5069961187222146
14.64772388399092
1.566141112366236
-4.8544085443651355
3.0741162861400464
-3.6187576680685245
0.2089400582802094
-3.105040816985871
-1.517366275815975
-4.02065415727886
-0.17022365710173343
-3.9032487402301617
-2.66739526856596
13.99280301377038
-3.5312441152303586
1.2277319903755979
-1.5650967714590867
-0.11900245381484582
-1.4254591140004798
0.7349771249691532
-0.9640413619232852
-3.736181933301456
-6.0437880953881065
-4.109160134344658
-1.7891391483524792
-0.9808841249954826
-3.885144341664326
-4.148953243249983
-3.3754070689402718
-1.7910371454091056
0.9382658140446122
-3.57772781699446
5.874345961217399
-2.5477422536162075
-1.3453335943861422
-2.2541715974216148
-0.3423253572434
-2.0241879700065164
0.0321540922890865
-1.3794467824853338
-1.706840615572116
-1.0123695659746095
-1.1564308459600021
-2.8670974959764775
0.06874764077120513
2.2346898137457787
-0.845698995402892
-1.2383537173366135
-2.513674061999454
-2.223143966689344
4.923307138887416
0.2245642919144179
-4.509597258324052
-1.8147669727682432
-2.443748002863659
7.094488270660034
-2.546180440385084
-0.8539727908316955
-0.48335282783177796
-2.078859963472284
-3.8930060083224576
-8.502903220704976
-2.209409247503011
-0.7118868092626004
-3.7462749307377625
0.14685325586766843
-4.353705201885118
-1.3840707830710994
0.7659692124295617
-2.141108058466315
-4.267666290573455
-3.319712592652986
-0.700433240228591
-4.25011324041996
-4.080906386193502
1.1727320602819653
-3.449258837282154
-1.4106467489236993
5.444468719096306
-0.26476913333254537
-4.222826419111759
1.6581845192619178
-0.3356918914921531
-2.325492496013064
-0.5699505563024095
-1.994546404966655
-4.8254830331055
-2.0280191303481088
-1.7579972703239501
-5.5088436027459045
-2.7122188846637116
-1.068530337363942
-9.420656765126376
-1.054169633276165
-2.2652827018159365
-1.6966972222167707
-1.5416383458766594
-7.086892429356583
1.1997151263192114
3.1013732691117815
-0.4258828475847006
-4.97421465240881
-3.601425288053675
-4.649622086653865
-0.529150893439036
6.866108282465048
-0.23601469692970017
-5.546974513725746
-3.7917352587048585
-2.5130983685042056
11.933837745549756
0.2055151289339059
-1.820313669009663
-10.2271828875651
-2.7473182088581276
-1.5000878516586857
-6.213792004838451
-1.9127727717423388
-1.1813483710064485
-1.7450060406448635
-2.329428073479196
-3.3575748809956707
-4.4959542267345185
-3.418669662351335
-3.2603095155745607
4.470901072320959
-9.665649533543508
-0.0596784098661196
-1.1404557272122906
-0.8456436033977712
-0.9068294076996566
-1.7115775759310872
-4.416424716330368
-2.5252455291279645
-0.10363946933163143
4.307872203898348
0.15443309310745607
-3.4389481604528314
-0.05570150811847347
0.45775680580880684
-4.455462665115377
0.8654674223452563
13.011143649345124
-3.9802215805494376
-3.4600437610450108
-2.316007587387792
-1.1733726552144244
-4.588868548395162
-0.7060204264030929
-5.452164784017416
-6.2202053098142995
17.066615188884917
-0.7598711005766301
-0.8392816478381926
-1.265881470096694
-0.1348454506543718
-8.210654223508774
-1.3761050390412333
6.144390741023767
-3.7775738853166434
-2.5340341503480226
2.025112548390001
-1.891187929698453
-6.258974658953904
0.7896417672086786
4.175888359724802
0.20448094852204735
-3.712447746409042
2.760560247721776
-1.3597824181114255
-3.713609115445507
-4.9170367960191665
-1.0902016555393939
2.6193659925657715
0.8658198151252857
-2.3913127565322982
-1.8249043527357682
-1.7478136612299526
0.11932296673612144
-3.1157481452037215
-0.8122641106578192
-2.165674087282898
-5.157944675781481
-4.466655132069867
-1.2910733191901365
-3.3786030079586054
-3.3236620501331777
-0.3166198496118678
7.406996693629764
-1.0788596300191318
-6.087590912921644
-3.9510383514003777
-4.4060099957231955
3.138428187231005
1.0015311237493005
-5.254029258829375
-0.9860802432714376
-3.9976088692489236
2.515828995807206
-3.331520677678752
-5.196765773366077
-0.3284058672864698
-3.3527805817077105
-1.865872076344262
-0.3926102982357548
3.964156058575193
3.962384877016932
-3.6086282539089827
-0.3608667425282149
2.9671548177692246
-2.3481730982757907
-4.463832764135398
-2.9871260845605403
-3.909039854600169
-1.2071323962605456
-3.1731632998368227
4.559551141284565
0.6432104878288808
-4.1471017045142915
-3.1888479825082885
-3.6480816594594803
0.026002904717939347
-1.778493110535361
-4.6402142211762305
-1.7680801657828022
-0.6415077890019844
-0.5039943605504134
2.7393061369050518
2.068025095799571
-0.946589902360102
-0.9236883162301371
-4.339861660241158
-4.052676983156512
-2.07997353845625
-1.9548933619994355
-0.9838790167892104
17.654644209992576
-1.3170605737698253
-2.454417585645331
-1.9909215264677762
-4.470305815520365
-1.6714343915552359
-1.3494161355703351
-0.7092903785800327
-0.22652016242351525
0.32781499560400984
-2.67559204505619
-2.363240909841338
0.5642682818393117
-9.16602054747297
0.32786361818674004
-4.328115230528663
-1.6588331314635814
-4.788142072432888
-2.0909959171243964
1.5353961546797015
-5.726299215996215
-8.831453379861738
3.904063073533936
-2.51839599974422
-14.706989609966525
-1.6678417792824431
-3.1087010991503
-4.592229390242408
0.9588874835116302
-1.0387806965387298
-1.08078129102312
2.254203691608133
-1.537984751481587
-2.8105043744675036
0.7791921112015879
-2.6652465182160436
-1.6014735435323428
1.5314077314169827
-1.2545790298223203
-1.15379204160867
0.5975095664869553
-0.04861578940431378
-1.2255739265717784
-1.0845042570918033
5.402800889817313
4.9416091340287265
5.965408537087232
-5.739854545022882
-5.326724027437213
-0.38948949112479114
-2.0120597821170025
-2.8787675977196225
-1.854169064859266
1.2647439383141514
5.18280168043699
0.5527250361008772
-1.1235935706837805
0.20969254165894133
-3.7172419375285273
0.2197320605818076
-3.186774609934091
-2.353954837130549
-2.4936635161429326
-0.9420729699614857
5.311295164385411
-3.0592365704073528
1.4880671232744844
-4.70254701223487
-1.4289396747408851
-3.593497448110365
-3.0313150559206705
0.3572067431346702
2.055883518462924
0.8851511327237367
-2.898129584942302
-4.217544482837501
0.1737759118045526
-1.3593167928058243
-4.021939309628876
0.26249349130529265
-3.7988744416599234
-3.7125893065025286
1.5344702661113885
-2.9330548312552365
1.2443497656372513
-4.339365074460295
-2.0042194747232256
-6.0176538432574205
-2.6550663872599247
-1.0005669591753237
-4.137732930192307
-5.0478565748644035
0.4822267140167377
-2.6242985475994574
3.658436140535519
-2.100939536586544
-2.326762996713257
9.669125300531103
-5.286120443032281
-6.778569912043001
-1.9042144948078292
-1.9129546365058598
0.9435780791476286
-1.499894648572428
-3.9275257652679727
-4.332170960004547
-1.6416557146780015
0.7344527699210636
-3.165946490163798
1.4500294825295938
-3.3382298533701236
2.9038693790762133
-3.8305302527770966
0.26272269809661536
-2.1959558532126695
-5.113602722849669
4.220831355060826
-1.1362854203560475
-2.010510192663
5.032242572740195
-1.307530592788491
-1.4851869601182248
-3.4657313527079836
-2.4857873310053162
-3.4949118982813503
-0.6347547450162341
-3.3273413581725415
-2.9088326916102156
-5.9363208771359215
9.372339953352725
-6.322631025074259
-2.6833423925937123
1.9137143000160122
-1.7709839383069488
-0.3110105322155639
-2.141879245279703
-0.7027812524766358
-5.314739661257087
-0.7162778374701155
-3.970166540929303
-9.004768215853455
-5.269601105666708
1.0641116235124666
-13.332302596240869
-1.2319588562844515
-1.5274021215566542
-0.8664091521547054
-4.1483916124411335
-3.641126155839755
-3.116089203974783
1.071944475862986
-0.6976990076882595
19.05515536632529
-4.7472279717426495
-4.656848684948423
-4.082226749899821
-18.43591628563356
-5.990497941024644
-2.4558865128671448
-4.409060313975838
-2.545723453281988
-1.0205753041498895
-0.14451632959020755
11.421529265611449
-0.6473475566645964
11.135390451761735
-2.0511743058143503
-7.849122769582869
-5.2417915196390625
-3.8000788834020796
2.1550279409358346
-2.7895444460270005
-3.3335730828550214
-5.582805690729513
-8.664898979120945
-0.5982867953674802
-2.1758112285105464
11.661776767686101
-7.577030578943678
-0.2985161621615237
-2.759682698620064
1.072006665908818
-2.5491934921976847
-1.46670037450912
-1.342220582412845
-6.516652339460491
-18.021084659715587
-7.746791667639934
-3.870165599196504
-5.991251356526654
-6.540857478335406
-1.7377621761049276
-6.306972517159117
0.9068412697386758
-1.0450240183826838
-5.889474170290982
10.905172738839498
0.28228620849706726
-3.2024724675363347
-0.22979413733101933
-0.5330079898711606
-4.04400791157033
-8.005520687549966
-3.4841260038710877
-4.159985517821979
0.1614979470471401
1.180165860532866
-5.04326847969522
-0.8376924323113247
3.36218116755039
0.44010032934196347
-1.39254342098573
-0.41268420271284945
-3.456930369967771
-5.124387879703588
-3.1055838408809295
-10.27251933974647
-1.6547686033081508
-5.180343816847353
4.586546654814924
-3.8761584462468925
-6.084676350262397
-0.5634405296184911
-3.4649830309581073
-4.035152369872044
-6.203410234731441
0.6105894911336327
-1.3011228930624075
-5.53554098454046
-2.2792022901866953
-7.044862723231454
-1.9493356177528538
-2.86143538743989
-3.4622810694736863
-6.353943358342509
-2.570038537079164
-2.415818059841717
-2.6128330549049203
-5.573259427500901
1.2778729479044035
-4.1306691791048955
-5.5365102225518905
5.159738807011238
-1.441134830409357
-6.603723865701704
2.03358436783256
-2.112002229686679
-1.105057932127611
-1.7316032964030559
-1.9985949486344805
-8.19856662372235
-11.32922610513147
-1.8710227207679975
-11.187067920216194
-0.8513022488198517
-0.6697698359901026
-19.485644950972556
0.031696618936178055
-4.083099787523858
-1.3114080822309788
-2.8846328478771603
-13.241706662903793
-3.32180802258535
7.535758179447456
-0.715563887402798
-5.444410465816039
-4.003693891108424
-3.4390092652696334
-1.9508470466715129
17.610350798568742
-4.858263374905649
-7.042664812081947
-6.070773574823296
-4.096115175176805
23.061686517952268
-3.80783376799237
-2.0155861492449896
-18.212257014538615
-2.04616529582103
-2.598048600659431
-7.503397942135049
-2.346805567058853
-2.50680209086226
-2.838608319939271
-3.6614670699644627
-7.958894150223353
-6.843896496980264
-1.5437077540634778
-6.751269564499313
0.23403811612003791
-5.255783321352181
-3.5964479486896908
-3.66302644356756
-1.2906139549377067
-3.6153065999262193
1.505216602195886
-4.936873908329093
-2.194760511144389
-2.113690173441394
-4.886111576175249
-6.947671339156581
-3.1256083707494087
-1.9375381428646508
-5.830877058455137
-0.18782702131980386
-0.765089626307945
13.712834307019229
-4.654707508521414
-4.983615962595056
11.657922304849636
-1.645124199055007
-5.1239785430347595
-2.0283175190640277
-5.632406609281613
-6.758163448052187
29.855436895763475
-1.141900064903423
-3.0478914661978673
-0.4595583851522228
-1.680715375548534
-1.6647175274999195
-4.588581605448443
14.91253743765023
-7.878577650334044
-4.812685669680677
-3.7278935399538065
0.5244818457056212
-11.652167282552073
-10.86257611920076
3.0520009857221266
-1.5957103985160994
-1.413214614107817
1.6535490861756206
-0.5510196470982962
-4.395725400468466
-5.432970318900025
-3.617344705282331
5.756197792849304
-3.2980880533167665
-2.2929256559886566
-1.208065713302862
-1.5812330032459403
-2.354943438989417
-7.192857689823887
0.5425419318147614
-2.842733403774261
-5.924559938407618
-8.035100514404931
0.7583753950411344
2.1195497274868815
-6.1319727012162595
-1.6170240721029934
16.730007887234414
-2.9237860000390294
-3.096245497365129
-3.558536124605131
-8.188778216463831
1.6200722671243788
0.9310530357302068
-17.603486405456373
-4.28664365490582
-5.656322135479079
-1.8783714276736119
-5.66716381738694
-7.882670927478102
0.9152990068299207
-0.3188663610792728
-4.533488744548327
-2.778708046855784
0.39265018024780435
1.954266428850748
0.2935084878763341
-4.79152732412466
-0.07847873762671925
1.7200971341265219
-7.734237238066036
-4.832964593540476
-0.6398413422973532
-2.6239687282273056
-3.555521903135094
0.14531979013433569
-4.589688463772777
-7.559882412634887
-4.421163812079934
-5.980290541236133
14.118018340834315
-2.218749107208686
-5.05831265883345
1.0688575590221872
-1.3265319672569114
-3.782475549757869
2.4333942918291394
-4.265427821925737
-0.6168838312453335
-1.9869413180853996
-6.630377027211977
-0.680327588524121
-4.193951885887847
-0.6001824767040144
-5.587445363831926
62.16549473640333
-4.2286017093589985
-5.853863669192594
-3.4375533091452612
-8.14321972793618
1.1634338134701865
-4.599642514762943
-0.9392106454065273
-0.6964180723202494
-0.1644004638044374
-3.691994198087758
-2.2210822488204487
-0.8999227125386021
31.34612222490614
-9.416023329248713
-3.8438381293675006
-0.7001609285146307
-8.268554665157534
0.20822204157929167
1.493550012473537
-11.804490560983657
-3.5253077844775156
14.837761958100659
0.42437862807774723
-4.46662835779228
-2.6049950184348534
-7.343740740756791
-3.3681847267661404
-0.39246835781586104
-2.0604649718013057
-1.500792392561826
-2.8611890775083055
-2.3733629130413343
-4.224778234872156
-9.379289361434635
-0.5020004548528242
-2.0709731837486953
2.7676889404732368
-2.288893584702578
-2.0048250164645935
-2.3515039816673693
-2.0284984736805782
-1.6224884537047075
0.8596020782556956
-1.4899759015893674
0.6067712297540483
10.46200391725914
-7.623400682604243
-12.289361365604403
1.3965539643646692
-1.923174182727165
-5.698626113796086
-6.072343963736076
-1.5745423427687275
2.5723719821693987
-0.6207021643512248
-0.9863690563620978
-1.2342706530630885
-6.649171590146771
0.1928252078764474
-2.9757328803348466
-3.9168912756239247
-2.2790138024204163
-0.5552665454282943
10.607176667885888
-3.564441955530631
2.680458220675412
-6.218946484519427
-1.9655399969443215
-0.7631608013602673
-3.5487233228974886
2.350600765311026
0.5245578179505448
-0.7407144980932829
-5.969922061179018
-4.493381414474793
-2.304843698052858
-4.042314219836453
-6.783578790738355
0.4206463627933601
-2.3368482665725785
-4.320350149914912
-6.797554644322463
-4.866169730125561
1.4799520224596778
-6.786341540043517
-4.393624734852545
-5.3213450664933655
-5.766637093814349
-4.555377226631049
-8.378351816446976
-6.991238056394633
0.6481982445663954
-3.581930142787668
1.2509811094395695
-2.989224887803387
-1.2646269673966937
22.52239129009357
-6.276376977201878
-7.189215904685018
-2.0370693148196253
-2.3847796998998
1.0516297148381193
-4.541304373850188
-5.368574122515279
-11.91749736176846
-3.540079968554726
-0.8066366175249626
2.3419011871029607
-0.921418135826352
-3.956158369794526
2.2443512282990112
-7.708114719769943
-0.9350653072314083
-4.945390180394998
-4.3565347066149
-1.8521711512830137
-1.0037902986484533
-3.9200240152573342
11.236787382787147
-0.21630371366379036
-2.1992217629703386
-6.178378770829085
1.1253559118971486
-8.789712687621382
-0.7597681786309591
-3.0930287633415032
-5.589530943157684
-8.080656096428504
9.105927060853078
-11.275447504059708
-3.2793195430230906
-3.7560937603260474
-5.57128486251303
0.37490150468611505
-1.0103366494384163
0.5428435327116904
-8.29564931568004
-1.666177724159299
-2.003275821413103
-6.783206702231848
-0.20973370094327443
1.9585220905466856
-8.415660524497618
-1.4645140066839206
-1.9769768828145486
-0.3926723826958464
-3.236348395273092
-3.896874520681302
-1.5426788962324933
0.6886538310263352
-0.4101326504154059
8.084677936678746
-1.4239927706661004
-3.889544568573845
-2.028553501784043
-12.967844759569166
-3.1993467713928703
-2.78326249531521
-3.709727335887453
-2.6283121925345467
-2.1942131892493717
0.7049737029968909
7.098770450582311
1.531580780214273
8.905953933306987
-0.8906456737246801
-5.651084578766033
-1.729186673147334
-4.534694604347306
3.1908931541414236
-1.9504484031920994
-2.3414856872266347
-2.4679833801501103
-0.3426798173943876
-2.2773886163222117
-2.1298129757419613
7.7870560154983455
-5.398859070239255
0.31206510175864893
-2.219702004663127
1.086070063815373
-2.8491735968284533
2.113547150135346
-2.3343776675767276
-4.9352746625194985
-10.890440188939985
-4.670640626806814
-1.9048455805397013
-0.0553083624993977
-4.613207186842339
-2.9447156399842136
-3.2854897717509326
-1.1513731848127096
-0.15628906958248528
-3.7863499971433794
5.587569797797518
-0.941043800850087
-2.15142892339707
-0.3307462810759108
-1.827351070517464
-3.7838249595181255
-3.5660140524488413
-4.176353256122578
-3.4108009192577278
-1.0421472478523475
1.6217679553642557
-1.7266042525879748
0.9832670231826203
2.9342646332962503
-1.331809424724751
-2.5616939833226056
-0.6497743164832569
-2.5451256870642003
1.1476578660913277
-1.0645832090950604
-6.060900507405999
-2.135382614345599
-3.532860644052016
2.441591112538545
-2.5673643461731372
-4.193785877746762
-0.6891674538570683
-2.169574588859884
-3.653337030542094
-3.0418052409169873
-1.5432031523322753
-1.972141603902598
-5.59642036494836
-2.03772452641961
-4.616665827057341
-1.0696109818122352
-0.45531068847224887
-0.18069945185353958
-4.225727979850233
-1.816672345178404
-0.9247796564849466
-1.5327634261819585
-6.359861783390421
-0.08599641870609889
-2.2756618951733736
-2.380688201373601
3.4871608594495553
-0.05726562339928232
-4.59089957974047
4.0067171419216345
-0.42473692330671675
-2.3385271218815347
-3.042482645318544
-2.6031043438375847
-7.38648405051677
-7.015585916058763
-2.3763264666297523
-8.899916626644156
0.35975244795199907
-1.1906099804255295
-11.2526873208808
-1.3647618511167656
-4.853687304011615
-2.519665538569579
0.6680531802852131
-7.490960996126357
0.019180187846627696
1.8809480024922067
-0.13597178119331502
-3.7655876991630004
-4.000919372759388
-4.775268761183003
-1.5658061118585043
8.099007151000219
-2.966673612123547
-5.926663168956174
-4.027243467528354
-4.762037546619446
11.770409522940303
-2.2862972860085806
-2.7082774606303506
-13.594158500119423
-1.2364738045629975
-1.827849626375081
-4.60178837798367
-0.5530236784794078
-1.3164746815042445
-2.6785040301292127
-2.1146749564255725
-7.999723937305167
-4.577154934848072
-2.4322582363215624
-5.627014981647469
1.3322682190974553
-6.544422176654012
-1.8370188216517649
-2.009806892002188
-1.5414376162001668
-0.8414971267426827
-0.7274456234971329
-5.497342182710245
-3.2296081337296934
-1.3539577775619334
-2.542981197268618
-5.504361006315454
-3.4945564022568405
-0.15976902140027802
0.2482468642807626
-1.2419952156627276
-0.7411822723460587
11.276838863047333
-2.085887789299988
-4.464921965513588
5.398814134030545
-2.308917509166355
-3.748289105720397
-3.5882031968845816
-4.128749682803315
-5.371114076397851
20.122370791081792
-0.35645712161515536
-2.2274287097400216
0.3038743636501553
-0.1302858719797848
-3.7973890750089856
-3.714863844768659
7.84142599718852
-5.337099144052565
-3.6541254871737263
-0.887924463172827
-0.44253183289837783
-2.449721919403139
-0.8765432402494617
2.745647777757147
-0.3385026768441252
-2.570947713693168
0.014966243486751065
-0.9329784374010593
-2.5792060976993287
-5.691379686350215
-2.9376596101328167
2.801269697410719
-1.0389848484017912
0.21118446925687415
-2.233668638664039
-2.1478806586984267
0.17548116414610654
-3.6984509827312295
-1.6373976771777026
-2.4502162205174227
-5.256167337390907
-5.420412504782617
-0.8101153100038
4.422170149064809
-1.661672629020728
-1.783714833746514
11.272339073576155
-1.846433305724268
-3.1546781436518003
-2.927611795187242
-5.6146045779195894
2.1496657494638542
-0.9320063698122539
-13.41900400031502
-4.338976699630955
-2.554366153102372
-0.7076530268606934
-3.0097884331692866
-4.459173159273385
0.706435645822343
-2.4561463297726953
-1.8666841062963904
-2.0668898099977584
-0.0441034140937705
-1.4350342727315228
1.1186310537186286
-0.9295553886237705
0.34879751900032174
0.35217669762994125
-5.526729857260613
-5.270939701450325
-1.4254051542088486
-0.8147084670015887
-3.375149456610371
2.1108535998966054
-3.8024608424464024
-3.896197134933938
-4.1636986005494805
-3.4504861731280174
7.135780873515903
-3.520167766566285
-3.434136934361699
-1.843763531241249
-1.4566970778448034
-0.938571841321716
1.4536518994823482
-0.6321134564683331
-1.8886855405526009
-1.3610024989550897
-5.3508326880056325
-3.2461907059317467
-3.490412550708926
-0.6949811255942032
-4.9926902535915945
31.290723163484284
-2.4930178509188123
-0.8472793951197225
-3.1195183005768237
-6.773253722617351
-0.7901776209493785
-3.16361670919374
-1.9493522607079135
-0.3352195336464824
1.5078172514397987
-2.8584308108852827
-3.0955381060654332
-1.7421793654325644
11.615906131583387
-6.337323760195506
-3.577885341829364
-3.173967064027293
-7.354400760709229
-1.3448860749106748
-0.22810340291501693
-8.280363093375628
-6.738538411304975
10.49290858787322
2.66695498035405
-6.787604159187126
-2.369844917854746
-5.902082125193247
-3.3134007493371693
1.3408150391755733
-0.5231565564890198
-1.5406741561420318
-1.0738656795140775
-2.8696577816494533
-4.1346551097811854
-1.5631386247955388
-2.5749465899327424
-0.8287316716784507
1.8628975316897562
-1.9697074928611673
-3.8739796298726072
-2.982567242561411
-2.042098466857109
-1.5129025241141076
-0.4517290177661222
1.4148409194850906
1.2599312091717154
7.673501443886467
-6.418116866309031
-8.00738263974508
-1.0111945198782737
-2.0064808538601095
-4.817080105671099
-3.9501999476606646
1.2698773484891848
1.1975225170619301
-0.23072593734004462
-2.073626891510249
-1.6533197924317
-4.568189554303104
-1.1421349780724563
-4.5098341296259195
-4.1316291433548304
-2.3875802053167856
-0.9338144637778671
6.058517004051054
-3.0730693935304885
0.5474554371284617
-4.320207410028337
-2.18716764782682
-1.0805743250182476
-2.963854656068697
2.64501471786667
0.8207863757335438
-1.2480953910132804
-4.274204726653926
-4.238320259300699
-2.913179388287216
-4.017286599899378
-5.304129474829251
2.285849919282757
-3.244207692644264
-4.1868548800984815
-6.773634238653844
-3.9790816269001157
1.4191643266922784
-3.0818272508104507
-2.8076760914120418
-4.5424794065717995
-5.493875369781696
-1.6510781531267942
-4.301547684417568
-4.138494599501517
-0.45749220540606117
-2.9548430969640345
1.5726627897330403
-2.897014756423662
-2.422404721756853
11.807027650571849
-4.215981655072099
-4.551197117562561
-0.8930640670147455
-0.9626866220066382
-0.9069115115006424
-2.7622719832208453
-2.6614580755209323
-7.089740455621313
-1.8855367133082204
3.136205791396468
-0.15190468555739864
0.6203346488920641
-2.913467046428111
2.2335429768956145
-6.36410931484207
-1.6247540194960919
-4.337638566651058
-4.066157760719046
0.27792647160882206
-1.5697921357340263
-1.8998646383109075
6.041191359875567
-1.4789544456984767
-0.9569122144992278
-3.3008256477712528
-0.9378014680166187
-5.405237889421025
-1.2360358944795278
-1.6434654356513216
-4.106357317151978
-4.660050110714824
6.103119974863511
-7.862748105196185
-3.3635082974469834
-3.0192849093987317
-0.4793102026163441
-0.5313221992719594
2.109883478163498
0.9522937601547063
-6.513246609761638
-1.9746943473469507
-1.8384281479302764
-9.346339660150695
-0.27524372878464953
-0.09169755220511677
-10.997761271507935
-0.3902279687782817
-2.5393477743198827
-1.2497125694179472
-7.24560537197164
-5.383153933231641
-0.7561495008094383
4.631493405410244
-1.862161036691244
19.356489030784356
2.3746083373378752
-4.275974300165344
-1.4795865127793564
-9.677788662643561
-2.625669486964271
-3.119416702690274
-2.579705740345939
-4.143154019217614
-1.464678158648135
-0.6708520820348209
17.648356013516242
-0.3128740773727673
21.883068921978513
3.4767461782038396
-6.765342208776328
2.6670474113915508
-4.6624925443862315
0.6861044806015071
-3.3762891794248455
-2.131740021290986
-4.347468736744263
-1.3026454049920646
-5.362614536226277
-4.301341912137195
19.9951791034721
-5.588329368726416
-0.1414912312435675
-0.2230075742412865
-0.9090912435164594
-3.599598290044883
-2.821852630764771
-2.4162617963612543
-6.514075042540728
-11.12441157131242
-4.862743655410219
-1.994051728122981
-4.313282568603752
-5.41388674628373
-6.625178224702196
-6.219565969405179
-4.037941526200068
0.38176245530384306
-5.790876418754813
8.007189541780164
-4.232089617234445
-2.04185767459394
-3.1463644269425637
-0.1697845180458117
-2.5548381048943094
1.1850084429194072
-1.6171806280721894
-0.04651995549594551
-1.4739365521242485
0.921099505563466
-4.348031816534681
-1.3308412188610996
5.1138767672547125
-3.6740234025628373
-1.631429948715825
-2.9134738545750785
-4.227812962417173
7.959267232711461
-1.136749737307251
-6.411183773164682
-2.556317641446547
-5.225139455732215
8.741385506316378
-3.234883589091006
-1.3044664884450021
-1.981326059808936
-2.5557294038659415
-6.679994727979461
-15.82658496797633
-1.5404035674843406
-1.4130557338913385
-6.957479665491603
-0.3560490849735694
-5.33947621009341
-3.049368521998875
-3.3864671864242597
-3.3693712260250046
-5.336807003592861
-4.280114811855421
-2.4739283650801127
-4.615004808895285
-4.426107204079321
3.112019889929867
-5.029090953583472
-2.410628085203983
7.8001856461509185
-0.6447385942568923
-6.620206076096852
1.9659597112628016
1.329510666946899
-4.708813000643733
-0.9889258316004674
-3.8097114407222152
-7.205553187984479
-4.0966960616937085
-4.065207913818114
-9.068319448971172
-0.5034137549369796
-3.291291661595351
-14.348111057588158
-1.4445018505205618
-1.9969100668259796
-0.8600765383041498
-2.4602869386755066
-10.061333937554409
2.1221314346629936
3.9963806793437358
-1.3921832952057294
-5.97208831429441
-6.414115929262107
-8.733851109508647
-2.097275277709177
12.01238596267204
-0.6949012431112659
-6.9348510980519
-6.886235837279483
-3.548705105715539
18.266881848530737
-0.2203433553156468
-2.5514235667202847
-17.4557578341197
-2.6794539071854326
-3.716470039951581
-9.42739330444422
-3.007910378516306
-0.5783764689321083
-3.2280413044927423
-2.7354586419710865
-3.3889389622192883
-6.798410624298806
-6.16748405143888
-6.140230271002541
5.384649578905125
-14.511101373931666
-1.2896467037971036
-0.19850275749504034
-1.301842165216743
-1.5529057774607913
-3.689392103914955
-6.047435119712626
-4.761465990374114
-2.2260113659527287
5.470897055509672
0.6111047588814379
-5.718368281820667
0.25079947231396016
-0.5338218193276623
-7.072513661882876
2.5386567409036562
21.404776912299095
-4.893871471652707
-4.819125617421387
-6.5499569564219895
-2.7225089514069984
-5.907055071148564
-2.5154551883998595
-6.600843460858007
-7.8945131231652805
24.75539449359348
-0.4467979798569932
-1.2118485697770143
-1.5987522569948465
-0.6007291417220847
-14.813051476261133
-3.1996822121384856
9.338158982601664
-6.857981048871653
-3.026247646635651
4.252091310146449
-3.964755600328823
-10.231171464655713
2.0462177938022945
2.767863787259221
-0.19333759305378584
-7.866092263823003
5.458223035562502
-2.0592593583351677
-3.7499877740113035
-5.778806817041161
-2.3716784196409417
5.591288162737429
-1.4151239623938463
-1.5965764222569394
-2.0333704030841417
-1.5838842265151603
-0.1749483343598526
-4.835035059570005
-2.905303120683691
-2.494404054903137
-6.1117605277073785
-4.1841410321431365
-1.3900857001112752
-0.5969063910288269
-3.7044353831230556
-1.4854937163713031
11.030767408505017
-1.6689115616348722
-8.623871129339081
-5.21891008154599
-5.994574325172722
2.626362861510099
0.9018320737297152
-7.532812186410628
-3.7997347898513167
-4.348653108695206
5.131805007674004
-3.3760079826653184
-6.594908118705766
2.0264130045205286
-3.5162811167124595
-4.958984945426633
-2.300520039545358
6.476322510600629
6.1196295419707525
-2.3327702318433805
0.5969761903299918
3.0605291554722744
-2.1409275426246235
-6.6693161157598535
-4.814440531160479
-5.26058820713145
-2.6451485430364357
-4.780811003036642
8.85681411323848
-1.062870501525067
-4.453742505419236
-4.430150371636553
-6.1239082616149645
-1.0045541778407083
-2.6836760643448674
-5.575150615796252
-3.0592815464010803
-0.5262175942419115
-0.17567520374472753
5.668519885175662
2.8344037993155182
-1.548402589486156
-2.200327240880006
-4.183298663055578
-4.601633770319988
-2.951594807649972
-2.8849649486436677
-1.2044137879962615
28.347293041758544
-3.581697847340221
-1.7459539814909169
-4.796720871962826
-7.043122945161123
-4.308570955626484
-1.6797839107190404
-2.2211031659352614
-1.9505439482573264
-0.29911201035017315
-3.555568361561882
-3.1060829562213264
0.6619331633234079
-11.869760860638495
-2.195010933745678
-6.429214914666845
-4.462201034963743
-6.649470801024102
-1.9135892753791113
0.2072622340580746
-9.818548534770256
-16.80511071119413
6.018456631459119
-1.668425480281593
-22.07403519180871
-2.469543023579126
-5.668282788733913
-7.707933890735788
-0.4517440878665116
-1.9584943684782665
-0.5436337919450375
4.479983974907917
-1.654288027040634
-4.08135372126732
1.416435550612017
-4.742079567475465
-1.2268566517568427
3.0801826708186915
-1.4099017322918699
-2.8465547815290697
-0.29276532608376044
-0.138665626658233
-2.0805077944085317
-3.6402285403387777
7.793798260085
6.979241177072599
10.548888488036592
-6.9069019715397415
-10.226270278537372
0.20625100365634425
-3.6304243317253237
-6.4954452994640315
-3.347050188541953
2.344298728063335
8.105385963284643
-0.43565448332268447
-2.562019399030064
-1.073259419172582
-3.8858657897893396
-0.142377873509583
-5.4594621555091
-4.581995929158231
-2.325400352068548
-0.608900905826634
7.645011661623745
-3.032958758816866
1.6527346848761328
-8.23810582092672
-2.1630650237861015
-4.667167714285588
-3.822004930257285
0.3670926170055984
2.4457387646954576
-0.8117528093648209
-6.673448708342798
-7.229082347924359
-0.3063076188430119
-4.265572308525877
-5.472357609005465
0.12019149485530302
-4.6061867533821195
-6.879490402776476
2.2714872410506266
-6.864563400710965
2.7327638788318076
-5.323735056591844
-4.381248366422888
-9.636999878017406
-5.083108866156044
-0.7076827252563628
-3.359865999076031
-7.827667229831738
-0.8788400910101828
-2.8319400383902145
3.919651300014358
-4.69107492019394
-2.40934017481938
15.141880895386587
-9.606871361670386
-8.234167621808496
-2.7497360829501583
-2.9553276623044695
0.568521509845786
-2.1916000126075916
-5.552122886892079
-7.056048405503759
-4.357772216740507
3.448257312431606
-3.8755633242879326
0.7408137324496
-6.288996655597237
2.2732692611069525
-6.042124431346453
1.6229796093768447
-3.6249241378373624
-8.087524657160381
9.538884053246536
-1.9303697379411535
-2.558062635436263
6.31839306016985
-1.550874061781271
-1.653657662955914
-5.433580939395672
-5.154892242749707
-4.011581121098807
-1.9957833408703678
-4.2759736592721636
-4.108979814638246
-8.477221109146747
15.426984447814949
-7.587281082854887
-4.512694581630915
2.1500640494239254
-1.4878912015721277
-2.679847760250142
-1.006603246163496
0.2098556345693482
-8.378506535868794
0.30516214676721376
-12.139095680790309
-9.446995048944611
0.24564405899431752
-2.4488818190025814
-9.734493932616031
-0.4723500534460369
-1.93943753014069
0.4245272380689926
-4.115850033617737
-2.3712166882854837
-1.2060644687142408
-2.1887583695983373
-4.882862708832271
24.707668926718576
2.5904998579578002
-2.162966309517023
0.7344141254109293
-13.754647501962523
-1.2513958905716651
-4.744077849029702
0.5442088501290613
-0.6371426918862146
-0.05604524345559693
-1.483857638883436
7.050918008148085
1.6730222487973712
15.184836743762164
1.4621132305923203
-5.589066270090934
2.115196617745311
-2.76313996560064
-0.3871356474984762
-3.310646817818289
-2.388954520324694
-4.178514513576978
1.085354569378596
-2.75644751080442
-1.129651621946415
11.121012502751341
-4.620466099522076
0.05882835111927879
0.45111337619186215
-3.1886585270562326
-2.883537610748754
3.0322183673068026
-2.5995892985793034
-4.144905649367859
-7.726743745790557
-4.775453510380804
-1.9506198671784807
-2.3054911557416395
-4.787871597172761
-1.9306891205860672
-3.2906212586823522
-0.47027329184353217
0.08162035057659774
-6.987856964362352
9.572483907696348
1.0217682278064646
-0.006006957585479569
-2.1586929376561366
0.45636496689520833
-0.5541958846793471
-1.1437371902544031
-1.082640730364064
-2.0086575557752226
0.0896872654832621
-0.22004174654208478
-3.8549836977270306
-0.3249556972292273
-0.25900668416362715
-0.46696603678426446
-0.06263393950934328
-4.088633411096814
-1.8832835106473393
1.7750671226793735
-3.3341045917740235
-4.423773143986268
-2.70097003888637
-4.608756966509833
-4.027739309853619
-4.525679761831747
2.5313443357881718
-0.7985337724338545
-1.2634428239255047
-2.8939296734674103
-0.22938010722713087
-0.006537816951898719
-3.4957617189081227
-4.4542314036099615
2.326667069423133
-5.2042421499648635
-1.2449910836174947
1.5974908493680584
-4.452288725361288
-4.5689830400233555
-1.5792843634528058
-1.8012370783489449
-5.129592748433096
-2.587434806962915
1.7726674995282128
-4.582049271485414
1.0927948665955214
-2.223319356728235
-1.368817113902691
-5.531299632820829
0.510207480167417
0.6057248205309311
-0.038899023145230714
0.14602324877362852
-0.6333489035860461
4.603413348754196
-2.576285215482055
1.3757886059859774
-5.4162769995708695
-2.180208823793325
-0.7578705213731851
-9.298331859090462
0.24185157450168074
-1.8402860940638888
-0.5506918669664447
-0.5267133775843083
-10.397240767154585
-1.3229677926757109
8.802630921709307
-2.490017811444319
-7.0829879260836694
-3.1750909950299886
-2.773816453034787
-3.0710108705995713
13.319575405241519
-0.5372845683486944
-7.054467847697604
-2.7636059072254633
-2.0242880078874927
20.532973313243176
-1.1605492250689748
-1.2543421536161656
-14.34986929157532
-3.7672168036331164
-1.4933342183930596
-5.086333591564947
-2.523856472756887
-0.47725419594822627
-2.044712723177693
-1.9652957863511082
-1.3914387404810002
-3.280457209177796
-2.6095780085800753
-5.380957695015727
3.6558749093037792
-6.216251438491004
-1.5827465486847918
-1.0429122794107888
-2.055759850485819
-1.8618700580981435
-1.4780495698664045
-7.228140435576069
-1.2500361349945304
-1.7534421860514378
-0.16477686184253437
-4.645081182032076
-1.1415955537190519
0.3637128386968965
2.3664989028737096
-1.8384937869794296
-2.17801763919008
13.932680628009052
-2.540040190884112
-2.595296105293639
1.852524016242979
-2.7590285709002553
-5.825732384756625
-2.6647172836098356
-5.1675981415501635
-4.644193079558773
29.47280774603246
-1.4203135202313595
0.08830473219156358
-0.5858363184962435
0.41991347676453056
-3.4133793840531257
-1.708076789910979
18.16339949156577
-3.903393942422611
-1.1605876865638027
-0.35533938331618303
-2.326126983366309
2.890713753445445
-4.167404260345536
1.2458566142256078
-0.9665175836901055
-1.450698708723182
2.5366007676066644
-2.0078637621903375
-5.7109932656071
-5.000028283942427
0.9039109755151338
5.793687920167651
-1.1399632932603143
0.45197375210863316
-1.4603957959154454
-0.8061983856013998
-0.47919199826586933
-6.1116654313525896
-1.5596402904402547
-2.018827510004688
-9.249764528407455
-1.0233758728312325
-0.9647005876917862
-5.481612959794637
2.399348311916645
-0.5982523452454677
14.80571804863523
2.6518593827670722
-7.043058973325244
-3.2711064527001885
-6.40104629194848
-2.5012272966890157
0.05024688011990351
-4.608114647120676
-2.063561660486926
-3.396723582477767
0.32314460763408837
-3.3212342450048573
-6.8481280847439185
-1.4068706723755913
-1.277339450235913
-6.115046683526445
-1.9264396020021632
5.37046020624372
4.000662342755034
-1.5049968609520616
0.733101265689752
2.2918323059979286
-1.150566956415863
-6.118441767230261
-3.714342043310998
-2.66359415857515
-1.4990691650543497
-1.7797540412199488
6.16348837185102
-3.573954645325541
-6.420101429885908
-3.044898543445945
-4.654845166723832
8.240337640894715
-1.2157253145729765
-3.997036560264087
-2.2405187604701013
-1.1353960599247277
1.7601766994481254
4.514886720340601
1.6346209141076824
2.765707186173725
-0.9757241747452329
-1.1364901169720227
2.5036250687750994
0.13882407747443315
0.0982017704738158
0.15784644690406283
43.88145431716598
-2.467887338537927
-2.0354577869379384
-1.8114203393809671
-4.130117622494432
-1.1492181378342032
-0.28321132440961405
-2.670789893541619
-0.9627422418810041
-1.4166099093825382
2.1834178248609675
-1.325221526211712
2.1472471148117007
10.409580454284168
2.742054282903355
-4.139194457695869
1.1260456565139836
-8.773424260848627
1.9397179314385355
-1.0648905456872801
-10.263709787242322
0.8778341746334914
-2.9662252808655194
-2.2232317087151965
-9.802562916657507
-3.6102212710631636
-5.10818359755615
-5.0502213631640425
-1.167631976318241
-2.6805492065004386
0.30966018314539506
0.0069799080590773905
-0.8256896727829854
-0.8605039274683541
4.435006721566017
-4.5309499681801536E-4
-2.3764021975256027
2.0617182342040654
-0.8156927928879643
-2.8390058916039402
-2.4396182934990973
-2.6872124624606775
-1.2318342151881
-0.5425904739826137
4.416416080949183
4.287287470701654
12.612488512540423
-7.206821302490914
-12.955116681140678
0.37760435903289585
-2.670932586835877
0.1782652141231491
-5.361798356332925
-2.7505959600847456
2.696430576619198
-0.13761198240044312
-1.1035108089866603
-0.8924970025902973
-4.352330579318358
1.049923111268511
-2.0165961813570794
-4.07467513170537
-2.0379272744697263
-2.5121759723474013
2.3056991236071553
-2.8359803643355406
2.351326646414084
-5.762616862814291
-1.4139137486171245
-0.37463292902187717
-2.717614861199506
-1.8422452338330322
1.527340497973587
1.4994575359887838
-5.706504155906663
-4.289006981863381
-2.6011550325492574
-3.0066937831512854
-5.8795115635974025
-0.12311616975510992
-2.5924114057022063
-1.6426047836148638
1.9212382281221734
-3.123996537956839
0.8249046328035416
-3.25998322206122
-1.8460803156141263
-3.630561535690022
-2.2522949506493153
0.7974996978832154
-2.177809808448488
-5.778944730000757
-0.06067004331287524
-3.3376861919034164
1.526053609173672
-5.234550868142409
-3.0101696700602263
18.848175533508538
-5.492347370865122
-4.401405157234103
-0.15460551776469547
-0.027008816043675797
0.7538891052824893
-4.157323088173456
-5.778376318281817
-7.907750677673113
-3.7339774565013673
-1.9696220611387596
0.6305776881547535
-2.48341088789389
-6.4592472193473975
0.2662677449834135
-6.639639202499961
-0.8449144090209205
-4.3420738262576295
-4.803095188472904
2.1483106759702078
-0.0668050295393652
-3.1319378503915978
10.758403459032587
-0.06689757197578042
-1.0470171962675794
-3.9186691067660124
-0.11376757160419596
-6.146056720800284
-0.958379284887995
-3.1174085241788987
-1.1820777642655744
-6.866819574876277
5.118221819951299
-7.862405873780359
-1.343417887877764
-3.133197176780258
-1.043197393837492
-0.9635598906987514
-0.5796985761951396
-1.0729824272413184
-6.794510697557079
0.2647995801483302
-2.0115568197463687
-13.547011034933343
1.0549957075890368
-4.784983308587987
-13.128192449917561
0.3936146555242252
-3.373671185681833
-2.040749709717829
-10.211848193323267
-6.942814631547658
0.8602650165662272
7.111399139903609
-5.209125625363402
38.976905514493914
6.890175205977603
-2.7828926131231033
-1.4328764128603448
-7.877179913679083
-1.4881003907339498
-4.857940529377542
-1.4475675549418332
-3.572898159277698
-1.600513934248453
-2.2542557370321394
22.16365576048665
-1.3588429231133012
35.48288166899791
8.482099087876703
-5.933656605956131
4.506762169654369
-4.748694746939444
-2.6840716836474616
-4.89896112628148
-2.8469229259056346
-9.335630908239509
3.985445718384614
-9.160789641575345
-3.782019674061264
27.945824097717168
-9.49091215429643
-0.22754281283469785
0.03727746476851545
-4.899214193349541
-4.836740222658006
-2.6614892544718525
-3.2664708198797303
-8.797101119075872
-8.284284624272463
-5.380340004814175
-3.733072501100762
-3.691992732270445
-5.968305546305704
-9.177258243118876
-7.648593410291421
-5.04158921533072
-0.05579040748084702
-8.194814211152424
8.281726618876517
-6.029304787834075
-1.9942741992900872
-4.387621394128082
-2.627361714649945
-1.3682797715777115
7.4870571920062865
-0.9597484706971917
1.6439476879866577
-2.0812618251188733
-3.2990120909316616
-4.8413784407385165
-1.3649755178221543
5.572633122047236
-4.608592635201452
-1.465855804836551
-7.588878949067205
-3.6130737234549306
12.626894583160707
1.0132211291026367
-8.308037371253889
-2.857350235349517
-8.556447017886653
8.743437520617546
-6.9346702354031065
4.465809408987308
-2.757205716705012
-2.8046319146338816
-7.781434048365864
-18.15183734542581
-4.737414657325278
-2.773363416769187
-8.202187287895729
1.229252003938928
-8.109146169164449
-4.125314112398368
-2.647267493749447
-7.351204547157524
-7.235362343862895
-5.762992049196952
-4.08265383112087
-9.410216683753855
-4.448169926586584
2.889773909367784
-7.540141880336959
0.9986701208287173
8.725890928491678
-1.1832171973656331
-10.662262554734959
-4.575326597744765
-0.24664214000602666
-6.5654165177547785
-1.5276324657161893
-3.240556826940519
-2.0995463878712464
2.2911603852677254
-0.8364246202254253
-7.611042925980527
-4.310200916104807
-3.559628813447356
-18.39212423736071
-1.3721403029711852
-1.710433059157579
0.9704110779130234
-1.4114825952405334
-11.546136316560716
4.234296657737419
9.548951890412788
-3.860985908647114
-11.218364341964708
-6.778907707366605
-8.797682571609414
-4.439769207003797
18.607747068922873
3.164524099305261
-11.725296903756762
-7.608886136192009
-1.153515386005262
27.557671478309764
-0.6069908770637426
-4.91513743260456
-20.572821467033908
-6.3221325780619635
-3.463233278686215
-10.92085177726913
-4.789591155622654
-1.6080250298314553
-5.231112909596826
-5.0263275622535435
2.5000735437081487
-7.819683604330093
-9.806210803628936
-6.387606451881094
13.41050467816693
-19.079416141021
-1.0752728782971064
0.7476312720567065
-3.603370722181612
-2.297059394198599
-6.952321552520831
-8.401660849461512
-2.8232528139317212
-3.528441063197406
10.565385975150912
6.559453617739304
-5.122921918846643
-0.3957585972013865
-0.1223023322345532
-11.26578292185927
0.9655148516964408
31.518937773936045
-6.273825522855755
-3.980701625475971
-18.20068629978938
-4.684970053861973
-9.269629822712144
-3.0512586965221082
-8.01587408608312
-10.709309004254164
35.980031469171486
-3.350529107002095
-2.4221654776878863
-1.1569634695852324
-2.1753091722310374
-22.26274907401742
-0.7952439663788843
18.974532925656145
-2.4109107483831798
-0.7600228640174101
7.677309177744251
-7.464387136393806
-8.689781684225721
2.7637700031110723
5.210886582195896
-1.9581438891570702
-9.665979008070657
10.807100594025872
-3.2268926606217687
-7.839694414920917
-9.686378937613412
-1.0455860445258571
6.574406968536833
-0.2537356674169167
-4.314229763917232
-2.728376771532838
-1.981123434162565
-1.607423658324508
-10.380990947995597
-4.0073898360105105
-5.013535114714153
-10.77207300502313
-1.5867968420160792
-5.437908802179617
-12.719853920912717
-1.9367303629156873
-1.1262483699576302
13.911911069879604
2.3735799119401246
-14.637872385480657
-7.618992580998211
-7.702711687731218
-0.4868199717734203
-1.7213856388957287
7.097527072277278
0.4159451032116964
-7.908883250287392
9.500860059637988
-5.385579231697845
-10.47176958073075
-0.9430986248429074
-4.426916840421278
-8.64441767045863
-1.5064015546885867
10.56291845264993
11.859668348124115
-12.493523359295953
3.788551141904107
7.650479077762946
-3.9941260084099466
-7.982972296753276
-5.106247029210975
-8.126697765492468
-3.6337282301867853
-3.8005857274712236
14.233128472000063
1.6068755794226932
-6.8504895745685515
-2.2349029179199698
-8.722550094171044
-10.721470717394736
-1.888678535017282
-6.053693106246392
-5.073948839655774
-0.8267625330687863
4.554825460110288
8.63852186581032
9.19011905248087
0.6007953241213977
-1.3935534519661392
-0.611993788679653
-4.210899776624786
0.25782696375735514
-2.031760896097125
2.3590599585778564
36.98093759684832
-5.09853813337813
-3.090076733947103
-5.210232250719243
-4.627779458469815
-5.684868966216762
-2.8988675771857353
-6.952183817978997
-2.406882512408791
-4.874030235162136
-0.5647977582764515
-1.747475151744846
0.8269408704025559
-29.1734154192621
9.866222205991782
-9.102201186724797
-3.939411199080005
-9.489236723839046
-2.1090443418158724
-2.848061198752304
-10.719412858589049
-17.04930077671009
-5.8476746657349805
-9.54973470029878
-33.89561627062436
-5.1479070565193945
-7.885363549195454
-11.619709460377171
-2.8538389838201508
-4.8435953294019525
-1.549293424621149
7.039636035538261
-1.0250440751344283
-2.723973224449517
12.268079704751205
-3.8065750057937717
-2.1546555495054216
2.4206371075792052
-0.34361287204860586
-2.597361946251229
0.3254799941380415
0.20635736234566457
-2.6114561787017965
-4.240120869914015
15.661120150683308
9.444608437785098
14.163640909721197
-11.188207669463027
-11.55532299432776
0.9155152789634962
-4.314948190376413
-2.8270931384708518
-3.2227331460061936
-0.2724004223686108
12.406531779869855
0.5506880158700457
-4.637420771132131
-1.4323510029990472
-5.0317911934878055
-0.37541249208792987
-7.547770365255576
-5.217477623351798
-4.6853008380606616
-3.841634388425895
4.694177658795011
-4.8628385278118085
3.2275530443668807
-12.435911474943577
-5.076521765737393
-3.852876456424237
-2.5076130981291667
-4.669057133036358
4.02605111790216
0.970067194717238
-8.126156074698828
-11.54013555795476
3.2926886081733246
-1.2009352844298622
-9.270415335855803
-2.157927189891951
-5.929646418233515
-8.463437702915288
13.306986682254474
-5.962849698388887
2.5650170213138987
-5.872391311932311
-4.096982003715279
-11.08783671165624
-3.414921316078692
0.8152364000555915
-4.421772506098316
-11.524049040826576
-2.2505394676402046
-6.041430288036718
6.7826286902464865
-8.430269184425429
-3.7594119692516847
22.16211225629206
-12.31510397425863
-11.471144698341243
0.0795711295503647
-5.643013010313906
-0.8034095463626745
-2.5210750729723475
-8.024517399825182
-10.006655912272539
-5.593898862530522
-0.2975833792502588
-6.174799158485821
-3.496410345278548
-9.329619409576516
2.544573945611753
-7.971201572425957
1.3359871272880304
-8.190184167264915
-12.90916276209325
14.330119392503706
-1.2709392902843575
-5.166468203742181
11.946232999470677
-3.2088329325602163
-1.1070596821098015
-6.364949557750045
-6.125459213397963
-3.622051164180251
-3.6818415359503662
-5.1651219129734685
-0.7261158832897537
-10.366308278577685
20.39951427543824
-11.7077998928875
-5.201613125392065
4.8005687197921905
-4.196076752363538
-4.8425767844181005
-11.02584726118541
-3.8245128138136737
-10.676879563600599
3.718929396997645
-15.278634442673097
-9.816742195489606
3.8501389242534496
1.0946993068063804
-10.24988707004214
1.2810999423555527
-5.287017176276833
-3.4639291851754965
-11.5364834359858
-8.018492099946439
-0.48946027434989275
7.133303305422277
-1.1298523122880764
11.393980032005691
7.985013384942447
-4.131930185055537
-2.725094261627464
-11.34365349671341
-2.701959062102879
-3.4713609705538477
-4.194154729986934
-5.15687953418996
-1.8387857067127744
-0.32162832113979334
23.127715488757428
0.05107672480380379
30.37708946594389
7.387901906969129
-9.06830370595324
6.159768226981253
-5.925795705233127
1.644444286908688
-4.864020223148642
-2.7476068592867287
-4.349206796671882
4.611047108576558
-9.916329617676428
-5.787154970176572
31.746345091757384
-6.292693615673405
4.117476094130883
3.904783019267522
-2.1679079516627047
-3.805493763385947
-7.606809188580673
-3.1146975214294144
-7.28766932975055
-11.651881010849188
-5.14480854872717
-1.7829693341128747
-5.0818801636973765
-7.057560961382381
-11.359339720027492
-5.457105281660836
-6.338996879788714
4.9071886962719145
-3.9089788002708916
5.161578584276076
-10.377993912559468
-0.5913354942231976
-6.213350775332154
-2.1004884304105405
-2.5961799394238496
8.873698331539401
-2.5760478142887333
2.6723539540626757
-3.7642207653511495
0.7011584950778584
-5.626704013487716
0.5332591399154926
9.430827529823006
-4.004980550575429
-4.553689136707594
-2.1161900018067588
-4.395124232725479
18.533969791188674
1.5139749645259901
-5.854639239642056
-3.0263994227232365
-4.665299487818251
11.282769107791378
-4.366728193240112
0.315729699545715
0.07364138694223198
-0.9406418804337364
-9.39279564337158
-18.20804128264035
-5.016333813299485
0.17884986242078743
-8.964723090477943
-0.8522243348667461
-5.724841007938786
-0.3823198772955651
-0.7172087794683659
-0.156562548338774
-6.786252533501127
-5.226665783514289
-1.698009092865692
-7.1062620698153385
-6.421413421789594
3.074686971563545
-5.2869386405284935
-2.9756010076843147
11.996327821725812
0.5038068838017864
-6.963236663504936
3.961477157947727
3.0178294808213595
-9.056349660207177
-0.288264594671882
-6.395926430769443
-5.008204201056271
-1.368067819362246
-5.194669239106106
-9.433877625292475
1.50134191257584
-5.55050941128888
-13.067752773714249
-3.210724221537867
-0.7276807412471985
-3.816112445070238
-0.38171348029811675
-7.141860916240793
5.806496157703883
0.15269298931421774
-0.8228022661178015
-6.645648550351929
-9.12301644461107
-15.047585451968954
-2.096318915348262
3.746726216541737
-1.8402265759036893
-6.450659239784385
-7.80452125137504
-4.423025861240543
12.043833878143124
4.4832894058696855
-5.522843170000089
-19.822052807905866
-3.7183001715086283
-4.379231122411999
-10.491729448629227
-3.535329134762203
-1.6008783712040995
-4.249722384058268
-0.9925992233197825
-5.932006060270416
-8.987492429021351
-9.050105943138577
-4.396245356561072
8.3308564767835
-22.32064103615088
-0.11974034480101474
0.9512424097461013
-2.8407799043644224
-1.0503193274469538
-7.313847678988831
-6.56501866934537
-6.943519330275654
-2.1840735697690996
11.599905164305419
1.581077942669644
-7.417558307488061
3.546604507472091
-3.2286233306080137
-11.453718643356975
1.3038607639139341
31.832080013975297
-6.117446782990683
-4.5228196909795795
-14.736631979343203
-2.924546811235425
-6.617153310554028
-2.3590583755498735
-8.913889990159358
-10.368586649892324
22.161433057342727
-2.12966111444175
-2.4852942823186117
-1.5179277110928604
-1.6383351494379625
-17.331421760797472
-2.658609340095445
5.678486468607695
-9.838776376917792
-3.128123372333181
9.36237106828058
-5.454150505213545
-8.367941895909189
8.960881836549692
1.3325247304965988
-1.9897103947036718
-14.859315097201156
2.711276683282204
-1.559970125054058
-5.990577501284187
-9.568740300433111
-1.7505502695123663
3.4512640584761702
3.4543118984305736
1.030329460208303
-5.304514708376852
-3.1975400193549297
0.32912380319166823
-3.545802078585013
-5.84534731023887
-2.512026645580396
-8.486326859621622
-2.584601826858687
-3.28869019993613
-2.2100845442083585
-3.8900434750443034
-2.759356718097148
8.971763186020679
0.4834946576615398
-12.540647706500302
-4.211765262153604
-4.857778736678662
5.842312211222334
0.6880278568931129
-13.370610184945907
-1.2634050730313815
-3.094265830348424
9.819957395468801
-0.912773554904356
-5.942794211620489
-0.4924452025706022
-9.205354705757708
-2.7965527489041975
-1.6310186469253674
12.602745925636421
6.849258466143385
2.417811767820053
2.127592072893451
5.837513240217715
-5.616726398246137
-6.728775808686161
-5.029520860342194
-10.641559860228252
-2.5805731743719873
-5.108910792757965
16.523971943527197
-0.616328504525003
-3.3519846784766436
-9.535232922056032
-5.42459031721204
-4.984794430213968
-1.6780847241419474
-6.829586809475932
-8.54818644684773
0.4956656388956457
0.10107974356374773
6.52410496916196
2.318625303568118
-2.776753958094644
-3.6664297924347657
-3.4526370997341562
-7.4662093681006025
-2.1234311525567247
-2.691222461664202
-3.2000318582670415
0.4985170109890513
-2.7953648469207377
3.097611954702749
-6.505962534661678
-7.997370341354571
-9.41406953052473
-6.542386150700887
-3.192976856659153
-3.6799730738361056
-0.12409958536545417
-1.1487057415158872
-1.9302828710246067
1.8561595737913306
-49.76357649995875
-2.0607933084846626
-6.752347605857013
-6.623739930128364
-7.275851137242743
-3.382549163669559
3.5739594327678676
-9.833639187208568
-26.24178744071605
6.517356915082987
1.7318813921092284
-35.39363866546483
-2.50272328386702
-5.698832046850917
-11.605643145093682
0.3878658960492989
-1.3217126076222014
-0.4840976821806159
11.954673152350592
-0.5504367817612664
-3.9080313861312153
2.9229105732638683
-6.29071506820536
0.38348797046226235
2.0682391655105024
-0.7420710605090806
-3.2101845497951036
2.240190717269183
-0.09568108528041532
0.1576506720498262
-5.597585627122364
14.537472266876476
8.404596974438766
11.261264119654552
-9.095858158266973
-10.377800990140841
0.43317099824943206
-0.7495671425073412
-5.710919654267749
-1.4373189517124092
5.047504837096731
17.603970959412564
3.0167906523385386
-3.563346614636757
-1.5482869252604354
-3.8124891041852704
-1.2058968637821703
-8.439386827539915
-4.860182327544621
-2.718123765580081
-0.9534106166565265
8.31310898892027
-4.723983510203463
0.9896668704344271
-8.642426304575727
-3.210150987887333
-6.70269892779833
-3.745052758079508
1.3622622504344089
5.478374647985103
-1.3259656300070266
-7.146071552893063
-10.937350490776941
-1.0276085767555843
-5.918643439474034
-5.7690443474769335
2.0174880984434727
-4.884630662878751
-11.164776007751442
3.986705345169184
-7.78175669437487
5.439673058546993
-5.078671300394786
-2.892525753829636
-13.70678320841462
-6.367326304356333
-1.8803084080623849
-2.216667975714393
-9.809622154817564
-1.7440287661038862
-4.144762426248388
3.6630992635025597
-3.934677074084542
-6.452640463601054
9.01508009815346
-11.78765308695121
-10.00989884220434
-3.980323141729655
-3.309152127841151
-0.7108553365687427
-0.866761089859849
-4.479280313379628
-6.153451394581349
-3.433258017839226
10.018044741676398
-10.30808351542924
0.9222239472324045
-6.311627355635986
4.854664073419669
-4.7395187419206835
1.5209065413992877
-5.029520442776232
-14.274883142772753
15.241420824970447
-1.6285546849976444
-3.3888254829358835
2.8922303458694496
-1.6120537913798323
-1.4549031311706901
-6.191566660934642
-9.785753772203286
-5.763073013619216
-2.6433615929460728
-3.371871714467441
-6.5004749757380695
-9.217921803258864
25.441293853124506
-7.154589481943606
-6.686636552456293
2.52541382998038
0.4793742511574239
-4.722925911601962
2.2387645531871754
0.4073109948685463
-9.148950319489767
0.9999617229535372
-18.81921208079058
-15.719665451771244
0.1263621238474033
-2.2320830096050615
-17.049023360582698
-1.7350091301385648
-2.9936330077511886
-2.099062240331652
-9.332104658223104
-8.36728865258344
-2.261848968842175
2.5732642608776364
-2.7424886408496163
24.818382873908575
3.683420128231498
-5.506407388374155
-1.1241391053190617
-21.544800054460612
-5.286718725008207
-6.155593275269712
-4.171893884013949
-2.77129361540505
-1.5843982778815369
-1.121328418026362
19.468254023624645
0.47439242932142633
29.850890080618278
4.34083354274417
-13.222617395120746
2.9646473633596497
-6.982245540730609
1.6673397898707727
-6.106650434352046
-3.1604341002376337
-6.7890790835956665
1.6753327419018285
-6.857292507448479
-4.764082252753102
26.967372169066177
-7.495430454677192
1.4770426666014551
2.4721590954902504
-2.244303581876302
-5.424094739992541
-5.03662864933559
-2.737520098575309
-8.723572420927523
-14.784227137128823
-8.441787694917453
-3.60023409002635
-8.061177531683112
-7.922298199337927
-7.468759566989681
-6.1130922359768265
-3.0835016821825105
3.406025067258946
-7.035678849700636
10.848087193198651
-5.0159136485687625
-0.4911884219579093
-5.3157313475844665
-1.3222981881307214
-3.662674319678089
3.492041955134495
-3.0551974024014665
-2.6338414926164115
-3.3447804881036816
0.07038958853792505
-7.0174852413529285
-0.5289098461063436
5.159183031472752
-2.2513444663886233
-5.199669106074205
-3.1549092714038722
-4.248253845836257
11.212108155433654
-4.738964213660803
-8.961224170377054
-4.482152986397664
-8.859907922728821
2.127537203565627
-7.0921476468559765
1.1407220929667834
-0.9510463429539443
-2.8820311850185987
-8.706700679938136
-9.10368140059362
-3.0596796626894043
-4.801278029296735
-9.551692735447283
0.08294016962845156
-8.529568977015415
0.8637665634392049
-1.3324679692111252
-2.894581101879515
-9.075895376328099
-3.9883183291810456
-2.4538805662659935
-8.857084491173586
-4.7797469135490225
1.1853203401659493
-7.304087535849436
-2.0341209911151945
2.7323218809965675
0.016722403308816625
-9.073588399395987
3.345886671012853
1.4605029091741655
-4.859972724651415
-1.7227855820675975
-4.613514852146588
1.098798076685783
-6.353905015582247
-5.066513318323763
-10.83226271075023
0.7086318890710053
-2.523633550848777
-17.16913002100193
-3.0293652216316738
-2.12410582470101
-3.029912509184627
-2.406315491241295
-14.22488909339374
1.905973910426642
8.241001048380653
-1.0479193148643136
-10.270966375321104
-8.056632449778721
-11.643558202749189
-4.811553308263599
12.562003231598304
-4.495393696994072
-11.540133876691428
-8.173106433113555
-7.24409820061518
25.484636192145203
1.2915876583443755
-4.0996798223757525
-28.34869913676569
-6.852080163302929
-4.911336158941871
-10.080093904969893
-1.9640903962454204
-0.2596014143901426
-6.8072447758276144
-2.083880213009358
-9.089005861118343
-10.041603532819737
-7.670253588766405
-8.754401104590936
6.610676209781423
-18.64872783113517
-0.5211894729615856
0.026785786075716442
-3.196061135040285
-4.397812860769782
-3.5580209864286316
-7.921829459727025
-5.814701839146136
-1.793469631471051
6.041233827062082
-4.61625406744629
-5.815600493312372
5.927456173529478
-2.469191254318052
-7.063305560783365
-1.8951183891089638
30.18669031486132
-7.507763802789861
-5.443802465035566
-3.8928404559754726
-4.060851126871653
-10.142039399871212
-6.716437678421375
-9.759007157251297
-10.100120596879076
37.78833756369624
-1.4386705191587057
-2.3897116638873532
-1.3792206769567206
-0.4878951043480014
-12.637837096818322
-3.3121583604497804
19.274759400379697
-13.179059931547883
-3.1014064500812064
3.693097896964078
-3.767570179088825
-2.719533819589375
0.09301737714661548
2.0472025030424934
-0.8116180707515822
-7.346042929721293
4.404620765876556
-2.111932876586658
-10.135079437318524
-7.0062789406607635
-1.8583951317228593
6.60680412070774
-0.9984550133685125
0.27314474049845106
-4.142727321969454
-3.8601057312899196
0.34341460087192793
-5.209308292816546
-2.534575123891683
-4.023623127488298
-14.526224425886173
-4.375301132655311
-0.7913238223134572
-4.36060428941547
-1.6331569878435925
-2.827795707626869
16.46427221086701
1.6154310377953842
-11.89284228739647
-3.1949899735769036
-9.171892958560717
-1.3186142150165232
-0.8966709585130758
-22.458321366354152
-4.9514666982767785
-6.218187055151596
4.520724006734776
-3.257500701970528
-9.157978207663698
-1.7413483631635827
-6.9050353336920764
-7.598944424573206
-2.8008744982067153
9.597937146273477
3.354177023409008
-1.1357273989664893
-0.3299771146689987
3.3358203822124133
-4.568842521047542
-9.197939895989922
-4.097395257697454
-8.81511877997081
-3.6900263098143053
-5.81603809670284
13.152437458784696
-6.350455900596866
-8.41709911090487
-10.790409966046505
-8.927751521693141
7.987966258131852
-2.2009718518533306
-7.681875068706648
-6.94475402660929
1.7226121012171904
1.725926866968315
6.853251091294204
-0.47090731369135364
-2.418080442938432
-2.798841067946266
-5.700325828004072
-3.824494297064377
-3.13043334441199
-2.7467833406445443
-4.07561617965191
38.004358027697975
-3.7990605497638144
1.9216900242729855
-5.782161398508623
-11.071138929707626
-6.08545910268996
-6.4994431293866075
-5.075475681610942
-3.2360189474297467
-1.3732129081696427
0.22367188632429819
-5.399166821705691
2.2090477109372526
-19.130664696460926
-3.327199932506027
-7.202859064108309
-1.911116609695396
-13.594251319875763
-1.8248930076476586
2.8453479371629284
-15.145553368748521
-15.904907951558977
4.75616806263237
0.7109697668877838
-27.650130226446915
-4.606545649224108
-8.283783701289144
-11.723716659965735
-0.06432734328069932
-3.085562741275382
-0.9137686700459726
5.433776847765204
0.43170591607976
-5.2740468226461665
3.5191219978844854
-3.883534420747837
-1.7536406231841524
0.4946256127266341
-0.6461315614639216
-5.8142644559785674
2.590586167887635
-2.0312664058124756
0.04166865724056205
-2.0949273462898086
11.590105248930254
9.300884352125449
18.823281248984507
-12.113041120661414
-18.771533137400464
0.12229444447623006
-3.8874319034221156
-8.095944796180557
-7.469949509221241
2.3942816781432166
13.113365692816762
0.10633674396731033
-3.8610508651446307
-2.7700461709921167
-8.490666409692647
-1.286791198655632
-6.6876747196158846
-6.055701999532597
-5.189813790139666
-1.7381396136755327
11.08764365059682
-6.9275151939793655
1.8766918424539674
-10.090892387285804
-1.9757954427171192
-4.834036872362212
-2.883136945933701
1.7338438798299307
5.275591555230059
-0.7672974485630605
-9.632045474265121
-10.126598105960644
-6.821293160505967
-8.02438741836132
-8.450983511673432
1.165360409090368
-6.789602389138006
-7.985641102100187
2.114100566894173
-8.413581460878913
4.508128141160635
-7.1469879362600155
-4.630582232365062
-11.367111028666825
-5.917275652653746
-2.1982233769202777
-4.373142306290754
-9.366764611106841
-1.3714575050833202
-2.588464029727302
2.0561775887723623
-5.600369070022257
-4.762789142905198
21.364520696768633
-12.903417126124035
-10.942808278852333
-4.992897603682866
-2.5785453247148986
-0.8091961413056216
-3.718476523910092
-7.3185364345228745
-11.935961393415923
-5.370174915030314
6.851338845007932
-3.866518104197784
-2.3823368582195927
-9.485640551348682
2.112905815868816
-9.916213685103271
0.0919508102930155
-8.867373310068864
-13.71030465208943
9.03544796684464
-1.015975019307938
-5.265671798985025
10.395892176885484
-2.7800593741169597
-2.598784555323157
-8.718301112000566
-6.330747053084281
-12.763028174272204
-0.17976721863592082
-7.919608465718767
-5.390365011548234
-9.974460852115184
19.001210779943637
-13.986560036707077
-5.2076338893930885
-2.2431471062958463
-0.0794801076417793
-2.6552904684930807
3.9822309288780304
0.6971666502540863
-15.663004868732214
0.5027627420655311
-12.008377657101182
-4.171616434844976
0.32168950820589187
0.518909582410944
-4.787997527323366
3.202924019148746
-0.5634608228128002
-1.1954351793006
-3.1846730705825963
-1.0959781757355618
2.224343302028761
3.5762650347730824
-0.40849363959763124
13.323919942220261
2.519643295668892
-2.2403416598770125
0.6271945985332772
0.8890637629270712
0.4320500532900515
-1.4221733522473068
0.47375275921180093
-1.1431894227677963
-0.13614236387174727
0.5423727514437972
9.074704535115057
0.3848722088415639
11.47004655364247
3.2328215527541193
-2.327354415950517
1.088788815352562
-0.2818765911870337
0.044193880303631666
-0.34214892382816015
0.49846471234888895
-1.9268189487569687
0.09068003563363443
-3.823628427617509
-1.3680930233958413
7.488433620153272
-4.700500253553819
1.2812429088035415
1.1607584516151708
-0.25010800531916944
-0.5811106770775177
1.8115185459724878
-0.6424283857974387
-2.348003318725415
-2.978934055415614
-0.9020835479803658
1.0444647921456702
0.901294830701218
-2.1595477728596597
-3.0926880800603223
-2.1172416319660474
-3.05741946403949
2.117607878937827
-3.932259358959492
3.8031194946163853
-2.50481665565471
1.6585325231769241
-1.735241393447273
-1.821949343425205
0.3420618291224758
0.30635337746082947
1.3861139118786003
1.316737583841941
-0.23342066526470168
1.3719423754272144
-2.002539191498611
1.0806350150386692
5.694179977426754
-2.70701643826989
2.0832986517400727
-3.72627488352516
-2.72082238122965
3.6746948181475116
1.1547341028701337
-3.5404544809458383
-2.043419047924881
-2.3112617614111066
5.81589879208991
-0.7516110466080871
-0.1180194781874558
-1.0705471499343928
-1.1871399098277922
-2.452891060954224
2.5180190047391244
-2.8632106899005545
0.6332875921134095
-3.129865484456832
0.8725184832429388
-3.7648302526017483
-2.234160179569888
-1.4247119420297434
-2.0632843589149474
-1.3797837802127073
-2.9868271751868294
-2.9533139781961655
-3.910862812439493
-1.745031596181023
0.41677845871273783
-3.495330404901661
1.112925185034337
5.3666612306406165
0.26409625069029324
-4.319393205598276
0.18166848880924763
0.1962969277769074
-2.8915798095068093
-0.566416879828432
-1.391515518476646
-2.7006691529152236
-0.7967692996158637
0.07521184785423055
-4.186234371249842
-1.0231530631906829
-2.2128886386628897
-8.002887400995888
0.8310162002847155
-0.18142521318347815
0.8241056319636987
2.360834569412687
-3.0710282953827783
1.5108914927831065
3.298532490110533
-1.5698921918709563
-3.5579777891959736
-2.2358638708346765
-2.6893892107316564
-0.6678921644181733
9.307343155333816
2.5393846873889214
-3.869271270543052
-3.68428849704856
2.7163030393014753
8.877299585051313
-0.3819845734104875
-1.5681005189239616
-5.5291664595904795
-0.9995698745379586
1.5678797622752336
-5.2868718630404326
-2.081835869414029
0.48526240658343617
-0.7984235687430061
-1.7600461211988367
0.8813991438429336
-2.5483063907907963
-3.862281265119059
-1.4042395855026426
5.488510622804345
-6.12719689241751
-0.5702679123749251
0.07803773105320437
-0.7084344907871672
1.7168029223156844
-3.3599899676348493
-4.172733421347853
-0.9669762231750498
-1.5243918658838125
3.7973551042436338
4.136393089662777
-1.5137455838617158
-1.5987326694386235
-2.3378996460640584
-5.260732412361192
1.304721696628629
10.309914507383331
-2.555099957697569
-0.5661691500728013
-6.011239545774341
-0.755970702736916
-2.79458107170113
1.349132100625758
-2.041673292889995
-3.400454840149834
11.676110783970206
-1.4503465396479496
-1.5635809057010854
-0.02393091676997724
1.2256305583751579
1.953230786572225
-1.2513379910858327
4.77247165020113
-0.4354854179606258
0.8629105798902996
3.2794682646334024
-2.075103055700176
0.048175277183390285
0.761148229839426
2.6236814558802886
-1.9477266032863163
-1.2781302046559564
3.6671113654048972
-1.2552331082502826
-1.064717321564699
-3.695971985687644
0.6421013929147207
2.791680071316564
2.408266199632193
-1.0456069063716276
-0.8742122594295172
1.082834080168953
0.0387882068161223
-4.39569761037529
-0.9986857946322785
-0.9964070943206617
-1.4129075952562726
-0.09487099690988895
-2.491174396037991
-3.15588547872484
0.25388230439951714
1.4014354712820767
5.534270973113882
0.889335645731815
-5.017105072230386
-3.0307787128733077
-3.0247588677809136
1.181355065044007
0.016913451120867527
3.413030681152902
3.446980907278434
-4.235166023774288
3.3908559614125595
-1.9296964575178464
-3.9348799847491502
0.010542629789041138
-2.1867363111911846
-3.5578703883804446
0.003772298515668705
3.4905604745203864
6.019696504502244
-4.763101498937462
1.5742288335989267
4.021978187856069
-0.2471061974316531
-1.8591346813964675
-2.125963789374611
-1.1754445650183567
1.3270969519616407
-1.1615825723101167
2.4050966963440463
1.6834750522391178
-1.4862769583011441
-0.34551254986481983
-0.5924814544743586
-5.147093923876169
-1.9128450819372873
-3.154153042614449
-0.9020784222671541
-0.6874310092620393
1.244914438927259
3.3008722796445182
1.0114971770318781
-0.2937379595259063
-0.883628464319456
2.4240673374505683
-0.7443421511050688
2.0001556070275437
-0.8024814881051959
1.18935304528693
16.111234937280816
-1.8975159426457044
0.3973388058356358
-2.960146669510867
-1.9962771906096952
-2.41326575909683
-3.5123087495491667
-3.317293549494557
-1.1638736019700362
-1.6237134791606744
0.26831008719658017
1.1768088491921866
0.3386262227860937
-2.366526145110246
5.245742824932727
-2.516270338287687
-1.270131432063325
-1.6675403670973514
0.0903451114322729
-1.9675808306006461
-3.7106966437068563
1.5827960976767403
-2.396217266339809
-3.752802047688399
-9.388868121786182
-1.964742726782434
-2.056015362771085
-3.1052441198463914
-0.5157906325567444
-1.4119521629704435
-0.15301504913120895
2.19954481059192
-3.019868672524483
0.49949633422708
6.420884223633363
-1.758843608797483
0.2642377274826809
1.3759748538846304
-0.3311288539321999
0.28991632836165687
-0.016311845999314113
-0.15481230779938407
0.1953631499625777
-2.6124298362885336
4.921966641307232
2.1807315071199533
2.830377110324539
-3.604114723042118
-1.4063345199333483
1.4868406309625446
0.6356484988538705
1.0403138949350592
0.9220776620917881
-0.4371636478134953
1.3289039901676618
2.0561174865770058
-2.212714562730688
1.3987433741954491
-0.8777108111207447
0.06798195754923755
-3.332915311373827
-0.6413771150093913
-0.816092486687175
-2.376604400003115
-3.0826567422312845
-1.8991976118975422
1.8041299033631144
-5.423098004383241
-2.3231370663014967
-2.263528683294961
-1.3672534882353515
-0.1805893303275429
-1.159927236109768
2.0444370261724356
-1.7564269486117523
-3.307966178227984
5.031865802881173
1.5252477196641638
-2.741023247397202
0.2898689260167581
-1.0231451809228038
-3.693562822668618
5.427788932501427
-3.178947724537764
-0.9669021855962441
-1.9230329441433094
-1.6964186912280432
-3.787601170974562
-0.14655945636522352
0.8596409887363247
-2.7974162004577
-5.90739141463436
0.12332679221249011
-2.0975268026941136
1.0087991828481973
-2.5564718001222855
-1.2504374883747538
8.784876443170049
-4.903104896601436
-3.9854902888604027
1.257622281761347
-1.2217796910701975
0.9638779739712905
-0.6264096100534727
-1.5698740397562272
-4.105219686107759
-2.4828506497239995
-2.447862016749252
-2.3409652522299553
-0.8845054627686388
-3.338647826988623
0.5466272267435988
-2.3205911004266166
-0.21975731112090996
-2.0572620266035435
-4.611130591504089
4.898084291713372
0.7375492928630997
-0.7079660830042769
5.919052159372364
-1.0779534040504102
-1.166881066013896
-1.9082657568356336
-2.242852766690552
0.18134682934512147
-2.9172516480456165
-0.6457861179890583
-1.0850270861638731
-2.7890467095862332
6.395707171477006
-2.5379890067972095
-2.6911079938986515
0.751770854625925
1.9650389085508833
-1.742563311704972
-5.87505118321195
-1.0079483226675268
-2.150821939624503
4.426237644255959
2.5582929979795304
-5.033715975018951
4.299136807513574
-0.8043382450833587
-0.8043256410831311
3.847462195020098
-2.748469141060502
-0.45490164362212016
-8.599591601002784
-5.7179912104895285
2.4657333005239233
8.15616288804521
0.4859140703245621
10.11177243229191
10.587307488792987
-0.9851931799151443
-0.7419824873585635
5.895411501801448
1.6125068554834388
-0.26404119976154694
1.2876861022622665
-2.6934495048245246
-1.0684272883420896
-0.1467313443157636
19.191910727432152
-1.0698997693052985
26.010341563265616
10.362416799910713
0.037500001432018586
7.667573150147472
-0.2367881601377444
-0.2763060268460259
-1.1732209088652121
0.7932188487370855
-3.0478809430932983
5.8711787524408985
-8.988330253484891
-5.539741278131629
24.48620524613244
-3.4410670476873095
2.1893151079700788
2.1047418933257034
-2.160443479905966
0.6017414688295727
-2.92576093681239
-1.598551838096407
-4.4722007759091404
2.9242400659361127
0.09563473587348786
0.1702534560409407
-0.07424451619986554
-2.186195282230983
-10.006737723970176
-5.351749557911453
-7.642696596610504
4.261886451249083
-1.7375189843059944
0.11303098569896389
-8.925168419396126
0.12524401761333315
-4.547585950434344
-2.674844544526959
1.0031357028259504
11.281686744376422
1.645553801680358
7.443630309319608
-2.350935592340983
-1.0050774289609297
-0.6842717459682711
-0.05679260991280599
7.550584206553985
-5.086438803192338
-0.744516485311718
-3.8500427132164585
-2.4539873609764733
18.215520316061866
4.611660077730396
-1.2634617378157467
-0.588987922107697
-0.13315026154912993
15.161462545259589
-0.5981188496931612
3.5924038544264456
-0.2906061090563648
-0.7450120908977402
-6.383426966123442
-12.21112002031648
-6.082360315075175
2.5112967812579563
-2.7531379398972957
1.3782007377440946
-1.5355840378229841
-2.2140521599538636
-1.8004770553719407
-0.677199844820239
-1.3224314610529015
-4.792764593797196
-1.9957640725762789
-5.8244725234042285
-2.4021549298541776
2.2405936725147035
-3.8871737600330856
2.3724755222719955
13.034239822028475
1.506965756051431
-4.767394806101428
-1.330171766881148
2.2052811511669845
-7.413061769843887
1.4885439491009895
-4.54883058084407
-2.872536172447535
8.380712074559465
-3.353558416353221
-1.6650025121665524
-1.630681560643746
-4.377903064725914
-4.930624290632926
-2.3374800617999094
2.291654232169275
0.7200005885211773
0.5774293640749426
1.3986563416014302
6.918704517270132
-0.3405951526052013
-0.19076901944294736
-3.1049298548296327
-5.854971045605388
-8.644695946177592
2.0032114877470066
-0.5042710104437759
6.395974226771907
-2.7799650391012443
-4.774078099478225
3.0012132131391343
4.28275792864621
2.740584765431357
-4.573000879552668
-5.3597248431186335
-1.2571903550572554
-0.3627278352593828
-5.536519250030111
-2.4198211360586046
-0.14119594141950803
-1.4454752589392672
-1.4225092710476612
4.8878015798015895
-5.46512493269153
-8.077490185794408
0.3724788063433208
12.942623103097153
-18.92761104409497
1.676596024606168
3.0801648487710356
-1.8468813347818556
1.8841143918065615
-7.809911594114095
-3.7148193154720754
-5.649475617039915
-1.2272512491894256
15.0323786144591
12.297812200635075
-4.366483906379582
1.6176845324588844
2.203038413528016
-12.265188203856363
6.242356943853206
23.05090848813095
-4.094414344080357
0.32585801495265204
-26.198701606005265
-2.9672878640856246
-5.471265869714446
1.7937091459302024
-4.849516708043213
-7.970898565464167
5.840412384625285
-1.6641712181742851
-0.2784393042464776
0.027073761238377538
0.3895555045054298
-15.732363955072922
0.0027014187870701215
-1.6650483928119566
0.6831437502029114
2.3499308639941265
12.72888906881423
-5.2862433158510065
-4.202814220271879
12.905318017011622
2.9978755603778087
0.15684978050510323
-10.80763853304864
6.88719504036521
-1.2581629785245578
-2.077489293581305
-5.117115627701202
-0.7407838282868658
1.1052807763458712
5.101722069857749
1.3843211490113776
-3.7349612173634728
1.391194598809827
0.6425263972150125
-3.4058421425704712
-5.141579610656069
-0.72107133471043
-2.8965299688642983
1.963656565361094
-4.053025251209932
-5.6896505372896415
1.4035051001103906
0.14266214983552752
-1.0758200110216645
0.788006080427647
-11.235202878222069
-4.4027964498461865
0.5936861834075672
4.659510885011921
2.9052048999504305
8.412213949262558
4.317587797829943
-1.8206364684497631
12.843054319251939
-1.1866937444529209
-3.4223719231070184
3.087200539366127
-6.372984971537844
-3.5485504503120486
-1.035759563034802
12.271280240572459
10.820987743015646
-3.3014234520320795
6.224216111102563
8.617400790110732
-5.776159749654321
0.14284823320138737
-3.232763518345711
-7.951869576275423
-0.39867381875697266
-1.824937530392518
14.0385079767658
4.84795606590866
1.090507729468927
-2.242717675762863
-1.7292953771977253
-18.098279867646884
-0.21167712396074984
-3.634070482487449
-6.144662957555587
0.6864926377401884
3.5901280032362473
6.33111317363952
6.079433864934452
-0.255440733487463
-2.025512309250698
2.5492668129847957
-7.416260435842775
1.2819880126021066
-2.902637774043817
4.254071725586242
-23.577247095129305
-1.1277282342295745
6.523843808476517
-5.341321095593335
0.7921637306887404
-8.922547512558777
0.1791115882854905
-3.3379212163532577
-2.457769245937626
-0.3849372729671159
-0.07920987027292603
-0.22701125270019043
3.857296642012612
-56.79314132004474
8.92445839532848
-6.268950192239724
-7.031081423013979
0.4267601408220879
-2.1534439416378413
-1.2276440581447117
-0.8570233192228316
-21.34532163268614
-4.830254686247846
-5.177047257795272
-31.638034270881352
-1.161870242177425
-0.715531846579401
-9.866824458446462
0.1802211432555672
-0.642318459742491
0.045503512346988344
14.349171015687272
0.6165309311809607
0.7825133256771692
10.313789407187121
-5.656945286318291
0.9859092552236239
1.3026226031776424
-1.203958828712196
0.15904521204555683
2.9881218878731293
1.474761884289372
-0.20193744177169673
-6.905761643016878
15.153294865312779
9.229308954119789
4.464207134744333
-2.682217815660279
0.4015471836491918
1.395744918667759
-0.2947149443925428
-0.1566787018809584
2.8983120717831006
5.420621014306194
13.791983610092174
4.62491097425752
-4.618519619374521
1.1261440259578128
1.0935291197804489
0.45974754333691387
-6.244749731711465
-1.413672670912707
-1.0428466643559788
-0.823696343561183
0.18708942311385496
0.171371835259412
2.680709055695
-7.797087847417837
-2.305336248330587
-6.207176594264886
-1.4412902761122333
0.4234932833393557
3.8521473546803335
2.1554195488811807
-2.637358531896955
-8.866687536932654
6.358974462650017
2.0842812219315507
-2.6930636285693677
-1.1471179026096439
-2.526375610177354
-7.977406401909371
13.781378730312847
-3.840985269129632
1.592035362929502
-3.1870888873270955
-1.296007105596179
-9.64353678434095
-0.676888782996497
3.9212402052437945
0.14604094642708232
-8.71918729868369
-0.8615071473558831
-3.259757714788441
5.581622974004397
-3.078436082530674
-4.964410130628879
0.23330818306060097
-7.051123818923439
-7.408314830063662
-1.2944220530798296
-2.762847550134172
1.2571542384216599
1.4902554507244847
-1.179350198689542
0.13520215216381995
-1.798071928588539
3.668877116035369
-11.192099599822127
2.7210508643723603
-4.043242503388985
2.112095670556234
1.8096077162113822
4.589595382149198
-0.72336252411358
-10.612814273602481
18.21814934181013
0.5358529209050995
-0.568861732120049
-0.6214434697074604
-0.3957583850216034
-1.4231061245631946
-0.6714135223008951
-8.29673323102641
2.5693595580630855
-4.181098975765548
-0.4829618616181988
-2.629573914507019
-3.9222719964398145
20.76403952611743
-0.8288083926430991
-5.496331169524483
6.662112797715498
2.664145989630176
-5.603333994378757
-5.378556839247785
-1.7810305414359797
-2.2670697021027717
5.573426069701849
-13.060779342975438
-10.332016164977777
-2.059652054383296
-0.6986172217881665
-12.433920254180856
-1.652963996441234
-0.8651232741361596
-1.8293180423254032
-5.833146401133678
-3.397269948071026
-1.1319652557986082
1.2593988341432565
-3.088748742132711
29.43452168931921
-0.1826307019389751
-4.047350691040992
-0.27394507856764244
-12.764766887428545
-2.075114955944795
-4.026998322468961
-1.2044138794024848
-2.923670413866468
-1.3862951362902076
-0.9875517621836908
11.156923357106557
1.0066297925594234
17.36258006259412
1.4597537297641978
-6.9057726293807855
-1.9523349271263442
-2.9085375339055104
1.9019880024312197
-2.5062423210963183
-3.552101527546578
-6.459161618010235
-3.7788527521015824
-4.21193744038937
-1.877312013613738
13.780441462271666
-7.968843983133603
-1.4625328031393738
-1.2164053863583562
-1.8774239785749203
-4.500702168697144
0.034278148751910806
-2.312185679636635
-6.514809725415155
-14.190744783828992
-6.82980061588247
-3.0582616069998063
-2.527444202472421
-6.175505036074814
-2.5943071724334845
-5.07150093693602
-2.044305452639824
-0.7895337590610494
-6.849288193183683
9.98215347873489
-1.3923805105829028
-0.756979932272807
-1.0652375797957567
-1.0178378370861523
-0.9225882597785292
-3.962292938368176
-0.6169618975386169
-3.528519278039839
0.7725361683534299
0.6853366772435189
-4.485039506135286
-1.1434445955032755
5.84084783742874
-0.5971022209278101
2.077679229484216
-4.292403823849871
-2.7754100441967133
-0.6924756931083401
-1.1982506491600908
-9.374165741396254
-3.9568336119940146
-7.213320650733619
1.704935690780144
-4.62432863620684
-1.8736873123071496
-3.1513289573059495
-2.8896508380653403
-4.173613269476629
0.5472570340071102
-1.7440843596516757
-2.3171635296131643
-5.532118401550557
-1.1651578734341588
-8.067983512961247
-4.402803198002957
-1.2864879101743638
-5.548101234133977
-5.3375905675948765
-4.637834813273451
-2.998364101052613
-5.287105663725969
-5.306678223375841
2.7077672862584437
-6.131913367817338
0.05216814442751746
2.9226563967210484
-1.454897870280537
-7.890799831842935
0.021762551584948893
-1.1237179588053319
-1.8017149202607554
-1.954703280390143
-2.619543518797739
-3.2386686461584846
-4.802935508998804
0.7771233605431449
-8.390118441518094
-1.479290559620875
-0.947094032462671
-18.410744951497005
1.4873437178491067
-2.7732961228266593
-1.4224300036722286
-0.7810160222350148
-13.11635205760615
-0.6013216154670719
8.181576383952336
-1.4801851721856145
-6.998384603580935
-2.6563213040647105
-3.5253866661236577
-2.5859404069703937
20.791904509159973
-0.8861368256718063
-9.299349333394268
-5.017699567881923
-0.03006807450311514
24.01634829867424
-2.827939290607677
-3.433117256199654
-17.529967790910582
-4.440804337014757
-1.887843556040233
-8.509347449456708
-2.175997045158018
0.11012361516122615
-3.8997018105530095
-3.355574156341707
-1.679608430714929
-6.783030459231203
-3.9082592206640188
-7.175995769911857
5.387512690444555
-7.397692061799598
-3.1836125531966726
-0.9501641311146213
-1.8351507163099363
-0.7796829597705653
-2.7778259665161826
-6.9568827214591735
-2.3244544495642128
-1.6295190033250355
-0.9472982288507283
-2.3501551814413655
-2.5498121144676715
-3.7484498800269415
-2.528131103663796
-2.014838098376524
-0.8446623105538855
17.636807482783322
-3.576622371522261
-2.7533534948898617
2.0248563514967657
-2.2639965434475617
-6.046204274923177
-0.6893269909086458
-6.958756432629146
-7.601264879858704
32.131888656435045
-2.157795227506814
-2.0655058255087595
0.1429724914631954
-0.8034221826586019
-0.5906064725765634
-3.65304222272795
15.39580175100604
-3.919576515440963
-0.8378337613909145
0.4778591334313806
-1.6791542760487053
-2.38472873910026
-7.556933434517062
3.4201460937759354
-2.056979342984077
-1.301410622399963
3.5128685211103083
-2.402410674510678
-4.850961675761298
-6.92037416044875
-1.2731504448898658
5.093220067472121
-0.30545386121605966
-2.4822294424414686
-2.4976907226941574
-1.3824295877966495
-2.655225859640281
-8.328198567200266
4.777986952865639E-4
-2.3664701053590265
-7.892090205962187
-2.025844716598825
-1.6980711207137638
-0.28616889901916265
-1.473173055073501
-0.37110985574748445
16.17599275242325
-0.7784941227358971
-6.4677161866540915
-4.6760295192733485
-6.4975566709527595
-1.9594420334981106
-0.8558343595295131
-0.3995047916842357
1.6455057566325757
-5.939626367716989
-0.3305241260207427
-6.125843504827489
-9.866574759831527
-0.73801271843641
-1.418652744821556
-6.562180519472442
-0.780387161025214
2.8747901075220272
5.019936087653088
-4.696323578616158
-1.4921702369853909
3.369303748196311
0.021508740235339153
-6.657450231868448
-4.586304103845455
-2.7494160493633375
-3.250367525751305
-2.9241787752289823
4.42697696682898
-3.6987754648818782
-6.896671283428848
-1.077611615381968
-6.288681930929347
6.603161854582676
-3.4474354112141654
-4.256842668124554
0.24511308365859133
-1.7510604082120744
-0.5790628658952616
3.895938055181949
-0.5867702067237902
0.016575598492887002
-1.6440090655318746
-2.4791298394192083
1.1174382001513767
0.25261682032493604
-2.476281113937202
-2.5503713662616607
61.71296896711352
-2.6982597953271594
-4.993737334581787
-3.602857644268408
-5.561089107740239
0.10598540291674928
-5.1776215378008015
-3.7203714814610134
-1.3006501631476328
-3.0211478752807737
-0.6475529601201361
-1.0910024173891473
-0.2579222011793225
22.199527905573806
-0.4423324998145537
-5.5789427455803855
-0.05368191585733226
-7.480017416709134
0.8381005137184735
-3.5991381238801976
-11.817342155324788
4.66860366567069
1.6297640946535064
-3.6639822668259026
-10.528708300727606
-5.219096770462408
-7.102200905563182
-6.4071583711501825
-1.849821177036183
-1.8646527799534685
-0.8957075168986639
-0.887946580954358
-1.3786304037590205
-2.9046653397425715
0.08584583375209416
-0.7658625184531319
-1.5894416350974216
2.363783580400719
-2.164704785618813
-1.5635587734829646
-2.7975056002068217
-2.6280191061336744
-2.4166321976012757
-1.9424508439182955
4.101300834777995
0.3157625670175605
11.453580336247901
-7.278625785367876
-12.255511976546135
1.2859294584506762
-1.888897238615648
-0.6271453213591858
-4.627909150572191
-1.4274321951141042
1.4113114889147067
0.14690219608050678
-2.046677685230132
-1.4322682375596316
-4.8872583785395864
0.6141371444096583
-3.7572657374178813
-5.031944966743014
-3.0512416286399877
-3.18466217935534
1.2816563899778888
-2.723763766880755
3.922814259122273
-8.362854501824337
-3.424945576166076
-2.7947690470372315
-3.6892177745908326
-1.1962361140616604
-2.541800475308061
0.030876997365297507
-5.537182215331485
-6.676726530990982
0.30136084154263215
-2.2005966174071605
-8.147109240550252
-1.2247816820070314
-4.528795323949048
-4.068880933719994
1.3761238392554092
-5.391591908089048
-0.6720558737268933
-6.18066981463791
-3.5834407454718105
-7.103185775579427
-3.185935656390475
-3.2284999801782144
-7.076194053415947
-7.773108924710008
1.342892126130425
-4.815850264625084
1.5158860260265101
-5.700411884153898
-1.444303838759387
23.397433621834217
-7.120898491151015
-8.070767333482864
-0.020728965801824803
-1.9491248720328809
-0.8079042000909139
-4.330936436477197
-6.1389179831908836
-12.08701830112817
-2.793963546832386
-4.788709417550936
0.506233046245715
-1.6673993133391476
-5.252334630502383
1.592489915129533
-7.828071326990999
-0.23820516148685217
-4.648067020752531
-5.904816848251258
0.47192099722803676
-0.5413798215664548
-4.249684981100777
12.896204591453891
-0.9228513366368049
-1.668302135299439
-4.525284043492159
-1.0312483861758046
-4.932900740539542
-1.052714314118973
-2.105675857799399
-2.439828130992809
-7.264837646956751
8.402535648338828
-10.406075630958584
-3.2187545407429337
-2.757588021448265
-3.516593000184626
-1.2309959048932964
-6.9182228409271005
-0.8720526969918836
-8.131296623754698
2.2562566402952484
0.7547549272467045
-12.948316880719833
0.6226317100571471
-2.0871897309348455
-19.169267289070678
-4.116369353872642
-2.1051125917676785
-0.6798502672693741
-5.454823884616031
-5.08034342450517
-4.092364446753646
-1.0852968449274787
-4.768554246350692
31.06909056594744
1.257140279031756
-4.315142001223618
-0.7144169232385762
-26.145009260942064
-5.287800235172984
-5.2803284647480995
-3.741090498801019
-1.6347219610248753
0.08397545409563188
-0.9161893078552034
14.271261378812756
1.0026610897389958
24.593626878994897
1.9452645415207293
-13.04335212884533
-0.6348011768626564
-6.775650889283026
1.6789673767186457
-5.262722041057609
-4.201829877683774
-5.8604384227426785
0.4972650561270653
-2.8375691409564032
-1.8130418805414756
20.823950692473833
-7.964984644787594
-0.2456265933751326
1.618990604023825
-1.906955105557298
-6.2822341723394075
-1.7285439404734402
-3.0831793538043857
-8.54006128330163
-18.558565748210615
-8.459961212583806
-5.822830442943989
-7.870549887731351
-8.115275804894907
-4.490806142562122
-4.774532134921166
-2.4343534892933123
-0.048711326037748665
-8.695614895181532
13.294468198251659
-1.609371277605606
-1.0716965637954439
-2.7005055979861736
-0.28888264168840194
-3.9388455655782706
-2.803935019610637
-3.4829889883801237
-3.742353349018037
-0.3073003190378498
0.9149326044552114
-6.885387513259832
0.5302224408765585
1.1344189819539467
-0.46379952408239433
-3.174209103398299
-3.08251213148661
-4.990004245991611
2.807174273111848
-5.975159023024105
-8.30503181544046
-4.2380409145936895
-9.454949843086933
-4.9764496980823445
-6.691156456761746
0.23037409463690103
-0.11791960988846878
-1.7500968765596046
-5.396564675438506
-3.6133487931039534
-0.8897997722377172
-3.9914043711036165
-8.504801273280977
0.837385027161269
-9.3643864797074
1.1029013709956894
3.2243006595359964
-3.80022214927116
-10.729121353009365
-1.8390380718711317
-2.0340740635837142
-6.471752753419046
-6.9115217919964556
2.4669052329797756
-5.329961684107466
-2.750946469366225
-1.7705196499601497
-0.6650935927295502
-7.724394083913021
3.093239881359582
-0.18713502375772195
-1.9317220218191715
-2.538128969505229
-2.488734838966938
1.7961864129812024
-9.129317022816494
-1.5774789690037667
-11.104843205831793
1.1250780824488955
-0.7361556220065003
-17.34323584213509
-0.5318625261540474
-4.352472524488533
-1.9578129115400287
-3.057613787423807
-17.493677426124023
-0.3216677703081809
12.401693351597835
-2.094788542788635
-9.016948481891832
-7.928670714209178
