-1.1017560852535577
-2.1116167318922163
2.933136183775798
-3.687954669767376
-1.5945380541781242
0.8104204998210257
-0.4976136056298918
-0.666597352981814
-0.14541398797653018
-1.0791895737892712
-0.13473432581952738
-0.01248619173599828
-5.018979893134085
-3.5365997402747213
-2.9255774016083866
-1.221332616028763
-13.582658646295462
-3.1697040541081765
0.8880590022109813
-1.3423987912577444
-1.0091706259886835
1.0686157406307606
-0.1273760704545836
0.5802569478922107
1.7327276574608481
-1.129677695605658
-3.5972088091099845
-5.5781761247894766
2.630974854619705
-1.5914315550336833
3.6887478504938103
-0.05223080627758476
-1.4132155324029068
1.4785614668498614
-1.935877955425362
0.41756266031894645
-0.2055373377018099
1.0421827448284544
0.49496507108629867
1.5763470086336306
0.9302115482219728
3.7394503343995145
-1.2668443361643849
3.298339005485729
-0.5695421892428496
-1.9988944530416197
-5.973770028915623
-3.8891971420738067
-1.3319394492718448
1.2724285419124741
-1.7593334129224998
0.2698927897723523
-0.8330476289608979
2.864274224053605
-0.4736027366327043
-0.012440888740387804
3.537277821732438
-0.26898112971518723
0.9306623640358137
0.14571635117050663
1.7052238970809197
-1.1195640935743645
-4.425563448223823
-1.5861237608653775
-3.475373539503734
0.357024677296008
-0.33665498010972883
-2.4695878714734434
1.3425090784765
-1.1568754527077314
1.0400427018545664
-0.9522898341376757
2.71987598105399
-0.47571904780364643
-3.659002912440199
-0.9107659578823534
-2.6312459445597254
0.42548573045868565
0.34416562567946846
-1.44212272199345
-1.2947939811833382
-3.672005554563295
2.2138932132943245
0.5020308974691995
-0.08295409473185088
7.293683972667077
0.9555245149381285
0.4367553126399309
-1.4543073480458706
-0.7999553095747926
-0.70246925945688
2.072286631545638
5.736555550464629
3.1758401616801266
-2.5805295900931546
0.9205968976158718
0.8219325907502472
1.939047248857713
-2.7126471569591217
0.5808975875818951
0.7749552650934325
-1.3851701915660162
-1.1261859158843233
-1.3245162171930769
0.5269259392297816
5.531525290380726
0.6027794539614167
0.09258303551226965
-0.34248689013993
-0.010088065207430781
-1.7161171949124017
-8.069989878520884
-3.1699297312343493
-2.8443021002953013
3.118965508677219
0.28538036936214894
-3.783029889081897
-1.1528372474116744
-1.9987162880866742
-2.18770385926177
0.06793801043097245
-4.418372667461068
-0.12056199879578669
1.9988359177125583
3.1569824898032617
-0.422736200748366
-2.0593601483925146
0.02396536062093994
-0.6006458187324292
0.1161063771630059
-5.4861936726661025
0.13429258748109346
-0.9801949164442204
-5.2530253871705845
3.4515629917992934
1.2046076604995466
0.8412641069203557
-8.368240826348552
-0.3559916428207086
-1.5912145012673835
-0.3558934093478456
0.4266559888220251
1.0276394860811462
0.15306517561463473
1.2164533646420363
-8.104387504102986
-1.3488095849112791
0.8108188525431115
-3.0195506504662752
-3.8453169102376847
1.5484462186313728
-1.1919990254621364
-1.8751252325801453
-1.0332468361394094
-1.821082275446642
3.8564837777752965
0.8395045608600126
-1.7417824834464046
-0.9357603079894483
-2.5332157743217554
-9.728013896171712
-1.6499928016763898
1.552076372334602
-0.0219867838025306
3.7566559793207173
-1.8067161995606675
2.407450224202283
-0.8629237834434523
-0.28441767603745205
11.886794714421223
-0.49409936864477694
0.6598818289542782
-2.365149169023682
-1.7984326188176576
0.17305044761094135
9.301809532738321
0.7391573692150862
-0.2005680160861356
-0.2534048191300423
-1.0740138818082396
6.689929650542408
-2.4954885822597026
5.195217124816528
-5.575781655382549
-1.5639975930511985
-2.9539571908998594
2.2812158479608726
-0.5020052775419139
-2.725497902848305
0.42110103192916254
-0.3993876302870788
1.9059871486616633
-3.5483943706989014
1.5924794801771458
-2.5163717552435783
0.06354252872153314
-0.6958005872896921
1.4754889940308828
-0.6292143414128081
1.5675148133915584
-1.3423194339064835
0.047661418171950444
2.7968300394384236
1.2991380359891573
1.341807868387816
-0.13492555179549215
-3.482596402822021
-3.8129521218754387
2.0383747693283234
5.464791583678473
-1.8628808050096162
-1.696673165808639
7.008626979593845
1.822179572865013
2.325259076530292
0.9774819971538599
-0.7550934801455795
2.9489864911537387
0.3773347808925277
-20.52097901709123
-2.095965680678022
1.404535493872486
-3.3265635699838003
0.6705291188022723
0.05288257037850176
-0.06281349200899082
-0.4458339912488926
2.2034824786777736
-0.7267425010136941
-0.529809237538667
-2.772405679712145
5.228862852808577
-2.782099069815079
-1.0833487459999152
-0.09033852862239529
-1.178733663562144
-0.3051263563135058
0.11276261492024113
0.4310733181836564
-1.8175629645027473
-0.14110409098309828
-5.200040574891683
-2.832001707131606
-4.568548339068491
-1.4780415473972155
14.68215247099769
-1.2171863558130107
-1.5823949585042763
-0.47770663384627354
2.442259746087867
-2.396601497300188
-2.591457074222043
-5.581319855831066
-1.923879161624262
-0.5571948389819369
-5.391508895655509
-1.8032121860557164
-1.7815631639181075
-0.2767449048178249
-7.446592351592518
15.40790645613473
-1.0480899790578753
-0.19225103031912835
-0.6205105128874937
-4.416400046659323
1.358252370388027
-2.290039648266234
1.9643083097771474
-0.819701331205565
3.6804919870533337
-1.553330529453156
-2.1041723407505435
0.41146144836851894
14.795534955556342
-11.1196753123811
-0.4223861519395944
1.8266705102712488
-2.727904236636496
0.2949653567824108
6.031041137744619
-3.8797607996336088
6.264216389455381
9.004492501190185
4.38164085157915
5.087314458206864
0.8598414098763301
-2.860625652541576
0.8702491693298811
0.09081736798823666
0.8644165886608564
0.8446127500607012
-2.3146740760245357
1.4401088956083017
-0.8289612831608082
-2.0801123368180083
-0.49096636178259506
0.27585280605570817
1.857781942066939
-0.13390070326847803
-0.4700233931806191
-0.17939818698510474
-0.5892362690891437
0.7619414264148203
1.5675745253377076
-2.546936725416828
-0.674079969097754
5.457224492528335
-3.7498998541234787
-6.817327071535268
0.7817558366200466
-0.019205521748349802
-3.1763743308731485
-2.525115225139876
-0.07550792990192244
-0.5428958138368171
1.994570576600366
0.9537863255328681
-0.6129755798132105
-2.0845797383626046
-0.8189582599831206
0.4379890283124585
-1.1683140584203107
-1.241041001732556
1.9720374043474063
4.91779935267878
-1.4923866716412135
-0.9661745341804837
0.3098671214395196
1.0399957930852943
0.5919081035997579
-2.069380020108081
3.513728641995143
-0.3641748204552367
-1.2069225723356722
-1.1206929342070495
-0.7681406360606409
-5.074179745622826
-4.416380025779673
-1.2603974557111888
2.1601846233730613
-0.8822241466954226
-0.5738184553598886
-9.433905751177175
-2.425085781415461
0.9685708097395402
-1.8956156880445274
-2.090421761282515
-1.6321317183128763
-1.719128211470918
-3.3923688041005255
-2.705600602530024
1.0776944423256545
0.17688761612361323
-0.3561029652816623
-3.0491762170386916
1.3171182903197727
0.24537482069808655
6.805011635790459
-1.7111997474505791
-1.3726482457415765
-0.9092551579209533
2.8783309232943903
1.3723488010967864
0.05924519325437803
-1.3480593196012969
-1.8443864443737032
0.20543601856021315
4.631374489072914
2.3483418034667034
2.2218865343067145
0.4292307786267491
2.29477305339745
-0.43001798424046944
-1.185511009178019
-2.55967264192575
0.4735566863649364
-3.5162691746789574
0.8507168901538514
0.6772673830276864
3.556528076109121
0.8251041740057945
-1.2057160783441552
-1.980903931547118
0.6505191968074153
-6.673661312326449
1.8087713588881908
-2.729238010022738
-1.2390317862921516
-1.7260466822964486
0.8028060811648479
-2.888972827685965
-0.31775435959013704
-5.892115347684727
-0.22190764009441566
0.9987626874207167
8.345430483919468
1.5635240815256608
-2.850558672339533
-0.1512132180210509
7.465499203557715
-5.21412098580273
-0.9140159576975074
-0.9600482841310667
-5.828015241124332
-0.43460729837631645
-0.49142915352724353
-0.7923884178462218
-3.644310320450672
-3.6634091145774814
-0.5736433189114438
3.3202483257306246
0.4798771514949565
11.214511262432113
1.556246182191496
-2.772006932261714
-0.6746429183451779
-5.595165443355501
-2.69238337839681
0.04997708625093719
-1.8029936870221777
-2.075619521128998
-1.7832487521381415
-0.8743607228818606
9.528872907074703
-0.06193348765997991
13.53812148991303
1.5000619596356664
-4.558599753777485
2.9264453697182065
-3.0952726465579583
0.3014258260837134
-3.0049749526784373
-1.0762338226242583
-3.553473731639491
0.4002034682991937
-3.528835861951918
-2.3930952312855394
12.740641322978298
-3.0164609452446673
0.5977878305384021
-1.1578211702379142
-0.1946554728874347
-1.217690276132739
1.1647960436269398
-1.0067912505798078
-3.373891161501949
-5.311112231596869
-3.691248651923329
-1.750165416308283
-0.9225060142400767
-3.5921976375257603
-3.6891061304266795
-2.9273508658785152
-1.735029024360699
0.37592328620346815
-3.4068811075152525
5.890995086991045
-2.13669264249722
-1.0948864243430554
-2.3402200063798095
-0.3067128369759089
-1.8379773388668776
-0.06987599218808287
-1.2965303272378603
-1.4904609958335722
-1.1971987348144457
-1.1110793879657164
-2.8563502639878475
0.20135394174087332
0.07658405396775764
-0.6951798133338701
-1.0362067123274015
-2.4935233024924623
-1.9371745947582681
4.933436920287669
-0.435487860582988
-3.9751669421433258
-1.9031840386420509
-2.2870538304987553
4.880688083771591
-2.2652516149082156
-0.2688391164305622
-0.33370109691639643
-1.517521359323533
-3.4655942574017895
-7.634571382172552
-2.0113080970664656
-0.7739476836949853
-3.528390134309051
0.8120742656938632
-4.105355274034025
-0.9288843880255713
1.187621906034686
-1.954959598650693
-3.842048555859242
-2.9588934621704386
-0.5154670871093826
-4.109931970912354
-3.7706083174802107
1.1991436175109629
-3.208637128193596
-1.0178154568625115
3.8975664470953313
-0.2005018814574115
-3.6412013847208056
1.7290584330864018
-0.4926800163277278
-1.9892951048121492
-0.3632785277474962
-1.564953288668737
-2.9728970555269316
-1.7614343683324765
-1.5219347719429752
-4.584324873093224
-2.2572995413259993
-0.7053674408542551
-7.912268413487874
-1.0578422540618668
-2.391147920894622
-1.596042379410737
-1.2673375500705792
-6.839059110742048
1.15409748539497
3.530757385119196
-0.02710199774686885
-4.654347855607256
-3.438587417286835
-4.162313967706346
-0.2540468284145946
6.232613731727048
0.049400844929004845
-5.20465382121177
-3.2961344632002487
-2.419321270957672
11.506655828730796
0.10225904279028994
-1.5455557579418655
-9.674025871077918
-2.4482202078887476
-1.4209782933777337
-5.635660990746742
-1.7661973336098824
-0.9470306112655847
-1.4079245328230843
-2.174756410835359
-3.178763606136281
-3.998090464520062
-3.207159286636978
-2.945128650974299
4.138237578594204
-8.961157076757921
-0.11134163006314923
-0.9745442252155314
-0.9312673523230789
-0.7082211902288288
-1.5890418548732081
-4.589936859813745
-2.1418152246778766
-0.13812681622672907
3.71881517001359
-0.6095800145770176
-3.0310121293546493
1.036124448567034
1.3841157404640594
-4.076947743581104
0.5448242545179874
11.749908234660671
-3.6122118396732605
-2.9481131208025793
-1.1090648920971826
-1.0205840252197234
-4.448065896968897
-0.7657959587184597
-5.105937771187433
-5.6430933216342165
16.99962896910119
-0.40990823017495404
-0.567951222074949
-1.4695697481622525
0.08605612648541372
-7.169663454720198
-1.1849073306398414
6.875999439454502
-3.4117982512508935
-2.153757666553207
1.7177498888692972
-1.7185931630561786
-4.780956246565882
0.5787817179133884
3.7881713453096673
0.7898570669330685
-3.135258227614494
2.4471791181479774
-1.2787431409485048
-3.455605538369073
-4.793395342857829
-0.5783514232445908
2.7543237557008036
0.04444257565665643
-1.5498679197233054
-1.6398419355545448
-1.3856890161342654
0.5729039702016238
-2.6395372296528827
-0.7301047376558574
-1.893595706026127
-5.287810686022882
-3.7122601227950116
-1.1130297154209479
-4.187226415307238
-2.9879875947894883
-0.3350527268491935
7.3642943478368075
-0.5904074586348097
-5.85788046589534
-3.4595030736410894
-4.228966342121638
1.5519538342772046
1.0358215598867213
-5.717409830461507
-1.4709512146486179
-3.41838666272962
2.138107590579104
-3.1095685583127106
-4.794744145535938
-0.5504856767297216
-3.1424792462824076
-1.8412351103263171
-0.30478175551190834
3.8795906810133567
3.5443769310975726
-2.5172495513972657
0.47335343192010554
2.7854476328859477
-2.3011579736072028
-4.180009306992368
-2.825298470248496
-3.8559997281479563
-1.0677845005174422
-2.961871819975774
4.48435828775746
0.6344628167709175
-4.071962847942897
-2.9944632438948955
-3.4387877980233768
1.2415049780019163
-1.7580057730310297
-4.346480625763741
-1.6801131439574153
-0.9546244345188007
-0.007959336509947386
2.7724004710319776
2.7234966518073986
-0.33361100287468615
-0.7382977319589343
-3.969091684803936
-3.5659962786802453
-2.0100987855479606
-1.7727103151271066
-0.3058942865351975
17.28453393505163
-1.2169929361984584
-0.6430475676870323
-1.6697898509654983
-4.115667428858354
-1.4361790739996416
-0.37216210266758276
-0.17535826233223945
-0.17999447074779246
0.5003178273921063
-1.859315175492561
-2.543388657700881
0.8865949566269884
-7.619949684917811
0.5314134498714779
-4.017564585605852
-1.4731603812117533
-4.686087116431779
-1.7875531576956103
1.684312886482699
-5.566795435917871
-9.022526392797761
2.404277554608885
-2.0445149376208174
-13.615059336201709
-1.5189729754185626
-2.6484016388947476
-4.336081135907653
1.2707587765371418
-0.6016533505643578
-0.8021951177387078
2.158741921893515
-0.9773945220880754
-2.272242477096219
1.4625104018877608
-2.426140366980114
-1.5495905419194815
1.3107156293095354
-1.0419880648965962
-1.1934270699083465
0.36553140573533616
-0.202002120682181
-1.3177129577274618
-0.7958659106142323
5.240234763118386
4.993982030467389
6.420026872635026
-5.2095262760101475
-5.54839300999888
-0.192045111021421
-1.9171739453280643
-2.4548132540830117
-1.9167641457076556
1.2070072385944919
4.890244503259557
0.33617763580558363
-0.8692352017179955
0.11514515324612709
-3.6871539938229927
0.5138584495248152
-2.752415047270707
-2.0628431434686822
-2.271582707614727
-0.4174902191940065
5.055775741133991
-2.739405000602372
1.5404687798567576
-4.205701798703157
-1.4350662029318424
-3.2424763909636933
-2.870859052114531
0.41534537999776044
2.300897713496535
1.1502685714885243
-2.686366838677312
-3.825269484571587
-0.9231470255991334
-1.3184103927158648
-3.7448238235893876
0.33811560215807057
-3.3868543625441863
-3.189247636977315
1.3535031210544848
-2.5604726455606706
0.7533364960652007
-4.008476235428878
-1.765120982354607
-5.439828911393511
-2.031615154064705
0.13338148213599127
-3.476749924396406
-4.428492663893299
0.6609249457972436
-2.4331423454949404
3.4794852763468227
-1.8689034706620002
-2.357041321614954
9.64727186099162
-4.816814386893813
-6.140509175615083
-1.8084210680362567
-1.562162955389897
1.112822091680877
-1.6260288222446284
-3.8351006621021573
-4.0410529237138855
-1.5571285906431984
0.6352906206520097
-3.4139210015330765
1.344912373517295
-3.270426460751415
2.5746792071153584
-3.922764095321902
0.2571074899780327
-1.7782462482536896
-4.81658258115184
3.7977256840887725
-1.0777628752647768
-1.5602265294110753
5.228744397142527
-0.7137853064952122
-1.4783706715389697
-3.1742808602845045
-2.2389800009497614
-3.827925222254631
-0.4856941169114938
-3.0383279566060453
-1.8236232359183648
-5.5372828391715405
7.90302368011409
-6.017485126802056
-2.322274060220057
1.7565982808762712
-1.0364234738930478
-0.3304560082761882
0.1679682633728945
-0.6520814166614405
-4.917633776885192
-1.279708075658953
-3.2927050187113354
-7.49006190492435
-5.143013347492192
0.07359252107330418
-11.224534346521255
-0.5608426887941649
-1.5083124125330467
-0.599153822671267
-3.8717460054772
-3.252370860518494
-2.2282186568864786
0.9866184683531362
0.09242848642065879
19.036027212923923
-2.8885416679852463
-3.635546222101197
-2.9547067924436448
-14.972174254964795
-4.329837509879851
-1.7854115537499684
-2.456560312755824
-2.240110244864511
-0.160914985829273
-0.09240835666451909
11.380217062560646
-0.5529824014213118
11.72443106862145
-0.5248231661561709
-6.27369771365253
-3.5356994963459023
-2.055965888037663
1.5787640751215721
-1.9099073857622106
-2.3503572351289908
-5.4540534923253805
-8.295526588861168
-0.7868241290619398
-2.152962154427848
11.783944298091532
-6.696553810271461
-0.3942106187164533
-1.6831731594881942
0.8748279418213853
-1.7534107435933715
-2.092667601483122
-0.9445724312943506
-5.815848239585354
-13.864224460118168
-6.49900350899095
-3.397439021638453
-4.85745757571116
-5.8772733198083875
-1.861805901525674
-5.814620800017869
0.73522121368653
-1.2184473451038897
-5.400205382047112
10.122182094576665
0.02141522277245371
-1.6467534889984539
-0.39187460073656666
-0.4207665685700478
-2.0902925977697864
-5.93531825812162
-1.7787619756846995
-2.3119796422115484
1.025796173684596
0.27191614124771235
-4.5889219153302125
-0.887259086913977
2.144460632176332
0.12099077484448237
-0.16777346479066688
-0.7126661371379913
-3.071833240359045
-3.4894036806675426
-2.3906862168966363
-9.058443518510828
-1.2319971940116339
-4.192684688243336
4.472725666734734
-3.1852542003777193
-4.169008633504872
-0.5321316587204673
-2.329825316802291
-3.7930349343014087
-4.824624126416332
0.4634594686632674
-0.7597256083541126
-4.608680596043695
-0.7459129565346504
-6.454223608567751
-1.8605529456396992
-2.546677404995487
-3.5466812334419195
-5.2850880513351255
-2.4787293791472695
-2.450394407097347
-2.779577876207687
-4.226782490002905
1.7678233064497757
-3.7938311179915694
-3.7038751770177543
5.342317957733099
-1.3560639397092
-5.9411283719186665
0.9220313583959892
-2.1100618601541052
-1.2451829650886568
-0.7296866882193062
-1.628662812393173
-4.566361022869012
-8.030800188496052
-0.8470505072707037
-8.730636203046279
-1.2467987790255821
-0.719069418652089
-16.512083041635844
0.3029952625095077
-2.9545922719158493
-1.1409200179386285
-2.241879083467199
-11.316707058199306
-2.378819323628265
7.645784270247878
-0.14035919524994642
-4.885967876133113
-3.7223874184220374
-2.575098441892413
-1.149600126453744
16.07025251266913
-2.272670239736386
-5.861601016293437
-5.544167441307615
-2.21767804952331
21.52147868372415
-3.309622277561666
-1.8666664461608595
-15.708778207359998
-1.714371033864054
-2.082549880919237
-6.764102339021098
-2.356363520474206
-1.8810326397885941
-2.2352311106977543
-3.5477063748250655
-5.212769484462729
-6.2045741150399385
-1.8995664810047357
-5.32124827359801
1.5299048984662589
-5.484931971636298
-2.9498188167297434
-2.875570391038706
-0.9829063274207188
-2.7104546220330814
0.8193601661700839
-4.357166200867428
-1.8555049028371124
-2.0801075029452005
-3.168312013583848
-4.617012694036074
-2.714311736372967
-1.1727044389692167
-3.98661120564349
-0.572996768188389
-0.8095254489414466
13.457668773184386
-4.252556607290111
-3.2159036978772932
8.438537797597881
-1.5218051024460775
-4.824266242382773
-0.6301283573046303
-4.953516114892162
-6.2878428073431065
27.23500184667773
-1.3916991359304023
-2.584717800124334
-0.7821465412457993
-1.4448791470587217
-1.1393763938670718
-3.7747861584975833
14.51237324869205
-6.182631729536993
-2.9244152445286695
-2.118511630976188
0.17888740195781164
-10.152425514078486
-9.401649042357313
2.857269018106078
-1.7902972014169927
-1.0683326115845584
2.3393917766104635
-0.6184202718484126
-3.9826889613680967
-4.6023332362602885
-2.7929002092568767
5.7792358342807155
-2.7781519292032684
-1.2595217455536076
-0.9740155366304831
0.43198091448404596
-1.5084930296683028
-6.728485680197293
0.5164800744010692
-1.7764485442858495
-5.20953611804907
-5.571198647418781
0.4335749082385887
-0.08022122957678406
-5.4407467175601285
-0.9911664758782516
14.841169749568046
-1.4080783283981937
-3.423374805967021
-3.4513628268916525
-6.7638187358866615
1.0602549102194847
1.57226147059943
-12.337204842142436
-1.879102314654178
-4.766937690442932
-0.3626136649719497
-5.2914404953653165
-6.950676906144257
0.6395444296237193
-6.13926670899053E-4
-4.5015312694720295
-2.4541105283935125
1.9366704097571328
3.320750380326609
0.28270119515673425
-3.6678109048398735
0.9523251807478119
1.37064918299572
-6.154018531868896
-3.977206582542411
-0.892698751543042
-2.016339467382589
-3.0613262990103474
1.2970154827748688
-3.327567089979558
-6.553685360066308
-3.3627796604150815
-5.421377355226377
10.944448849829024
-1.593128037859028
-4.49640579255386
0.759273746032466
-0.9677252695081955
-3.0709345899453613
3.0196443690740704
-3.6416472375395714
0.44167521840968027
-1.5274249045790123
-4.30061021617244
-0.14873654809712997
-2.3238247420785485
-0.548036841141997
-3.7312600153668356
53.75215102976087
-3.9243864358895886
-3.7489604256411986
-3.267065947424957
-6.38243754749433
0.7465388068899624
-3.255601856312981
-0.9351257020619059
-0.4689255362527852
-0.45430247310080213
-2.093918940668121
-1.560976554727069
0.08774773886641642
24.374053825756466
-6.719837523143551
-3.641916662036169
0.6823038318091779
-6.484824105870074
1.692214228926195
1.6822957331262407
-9.999308857161873
-2.704199517123839
10.209358247295443
-0.7417307331907937
-5.637758740367877
-2.401617556269364
-6.104409201007356
-3.437470412638605
-0.5740243514505512
-1.3604665218182899
-0.9192379546139814
-1.3280314308330505
-0.7502921093348868
-2.905214995249435
-6.951513548864556
0.18051893103350464
-1.7075095171357504
2.9393214549691717
-1.8515963273592593
-0.5692032630767473
-1.6472253723332038
-1.4652822885216024
-1.1373432416297113
0.5542887887190625
0.22318236085260273
0.9932221536105961
10.175360188146401
-6.149611153434101
-10.421577572204017
2.0148444672431243
-1.0675891698129352
-3.982631153493862
-4.936178911097085
-1.4834735746306427
3.720622647753532
-0.027655165817130258
-1.0573895835057336
0.3241012094179921
-5.190081186352643
0.9357465675113743
-2.3492766568411327
-3.236672428124774
-1.2612263221445348
-0.6351493629485946
7.829829560897883
-2.332458537827549
3.1798089462014487
-5.842969234256659
-1.8838171013192193
-0.6643562951219272
-2.8253030880924346
1.436958130643088
0.6701474018380809
0.19086335658650824
-5.35871869266783
-4.199073002487859
-0.7384081405270013
-2.4942903396837344
-5.903106685838842
-0.12184502361560963
-1.3809797797003664
-4.03076119475159
-3.768512240367902
-4.208486137390404
0.4372323844573709
-6.106714529078434
-3.803122904631909
-4.898178521545632
-3.990976021520792
-2.8076310332276218
-6.871058648028301
-6.474000354460689
1.0204959276832364
-3.089524837648587
1.6093813137711273
-2.893173277743366
-1.0317243870497181
20.58544257574826
-5.695882928995873
-6.483079402112322
-1.7642548412771069
-2.4224614156110524
1.612834783609788
-3.8871988816275906
-4.91528410676238
-10.074182287563374
-3.378672648938682
-2.3332725802367182
1.6042152757555366
-0.8536552666041868
-3.7339713663222676
2.1363435670402313
-6.2069798027795
0.055293597012058535
-4.081024404774146
-4.253564553912602
0.1844088719128013
-0.6192063361433187
-2.91112319775016
10.660871421109178
-0.20102021336698558
-1.9640654577185983
-5.001699969866329
0.8152056679954278
-7.214023901449719
-1.1260723320350114
-2.290414469689431
-3.80042534811042
-7.393968284506876
9.216021821071896
-9.384311318330845
-3.0021519170921125
-2.586109093039391
-4.496895312539644
-0.14727401387377514
-1.9739512436859616
-0.3078634887505229
-6.748832187723508
-0.6782691446075035
-2.438225680092995
-4.920172796815501
-0.1470245625873013
1.0566140484150512
-5.921445289830276
-0.6219062632777629
-1.9216828944140172
-0.08237835690542236
-2.8779617104113346
-3.4209258613250775
-0.5170615313950054
0.6413296979345817
0.7706950173078335
7.807114145512897
0.46115420102774196
-2.798747331887408
-0.8669732492086615
-8.978923961434012
-1.4032518994781933
-1.8617095716781609
-1.6301266831889378
-2.308215448257061
-1.4689220642504266
1.0221397899398739
6.901079620097586
1.7024874347508514
9.0917950823276
0.7190151799496901
-3.769305551519097
0.00697289408042906
-2.4979138952815623
2.668664000484355
-0.8163462810280065
-1.2122643620454017
-2.2488056197876016
-0.15397874787124774
-2.4206228437021857
-2.0666916418737533
7.593594627337548
-4.404666865237502
0.44213967217969014
-1.2497800478596763
0.8815985249020096
-1.8240448731134464
1.3892445198195893
-1.884642797648677
-4.117933116390222
-6.49255497726791
-3.3116108890441613
-1.3042531341550938
1.282715210739788
-3.8414368946890973
-3.005657248377524
-2.745873302769945
-1.3064169632041676
-0.46742900453519437
-3.1862401923485577
4.735693592864193
-1.1722377780961353
-0.5881844844960172
-0.4131417431844535
-1.7353168924241285
-1.6863992133398582
-1.5712004600779554
-2.33780389465918
-1.406103824520624
-0.1049690517859445
0.6542395912950933
-1.1346520638750324
0.9766585878558565
1.6969156996655212
-1.6315932103799047
-1.1569736078902517
-0.9133456992140488
-2.117343434287277
2.7305493608084728
-0.09966116175119874
-4.756854144125124
-1.6495105949415603
-2.3546991118412337
2.674106038712879
-1.6001263360218942
-2.3640261795287096
-0.6725293684020175
-1.0109611429007102
-3.337774124478968
-1.8987780151097544
-1.686360654089692
-1.1550593595527334
-4.51280898500118
-0.4530834973582847
-3.9220211087674683
-1.0664883325864756
-0.3401586232010733
-0.26911318097247217
-2.9383553657166206
-1.71592828961022
-0.9748400054856606
-1.598140263168448
-4.9488392866583855
0.5416516492497317
-1.8696497731790012
-0.47290791726665976
3.901306821107147
-0.10847260854766529
-3.779992762760635
2.7893536153257172
-0.4186007419542657
-2.4387277668307337
-1.9580232821057828
-2.210003735585977
-3.930260772034138
-3.4219497523802738
-1.2639576873596658
-6.208880063484689
-0.20804049494309068
-1.2630024833019826
-8.109720018711078
-1.0800105575157186
-3.714909888086675
-2.395157577408005
1.3525077826974186
-5.282405504226948
0.8504936741522326
1.946097257729442
0.5606923572770013
-2.9801533890580356
-3.580474649009056
-3.7299971256722344
-0.5198620702446491
6.596815576453553
-0.0011849775631502665
-4.451480914040033
-3.436939879664198
-2.511497122268966
9.982959110974287
-1.7188265066448567
-2.542569935969598
-10.47878111091299
-0.6725925836825335
-1.1724364934103626
-3.765968012210898
-0.545955964658133
-0.7602246674853951
-1.8807906329276454
-1.996795946953138
-4.970076809881671
-3.847056255592347
-2.699806235691802
-3.9691025287808532
2.685916834748495
-6.5699574851276195
-1.1846570597247417
-1.2362860008276313
-1.154970080741049
0.21785481222107164
-1.3916674016462538
-4.811491691110666
-2.8369249536907013
-1.2688377612438575
-0.8455971919797702
-2.9252974584764564
-3.0185366587245617
0.6536012407590416
2.1323003590662455
-1.5910146084884649
-0.6238082352480078
10.65125814087582
-1.61666199654
-2.454162005918064
2.2653586893525817
-2.1486637684423595
-3.310511816677054
-1.8486892078653752
-3.3108090193070057
-4.8066530097165625
16.824576737110746
-0.6126669327773786
-1.7712671293283475
0.13638688083337777
0.03551320301126114
-2.823591655509517
-2.8579734510304635
7.1114094713469385
-3.3622146963018498
-1.6408087592460026
0.816048267575417
-0.7618099637951401
-1.2004854221644943
0.6028743790590869
2.578779168699305
-0.5268478149002337
-2.373055528572581
0.7120678255031726
-1.0024570406060798
-1.8453592891539998
-4.7509629480619004
-2.0936427818916887
2.828443967837105
-0.4289508984124081
1.0764498415784371
-1.947962222867666
0.16106254769547645
0.8465473607394146
-3.2017157685748736
-1.6332822250078116
-1.163220448856566
-4.079922248584958
-2.7912075270039036
-1.1437478643519803
2.229952167746201
-1.0475568785299263
-1.100038537820901
9.157048621405453
-0.5755925376034494
-3.322504395013477
-2.8251419057048155
-3.920534815742017
1.839303767425562
-0.10226009065470867
-7.381075121433502
-1.6386293739777682
-1.5334196385666976
0.9114984575930634
-2.603626014358495
-3.3708209641166715
0.2912246814202135
-2.0416190738315043
-1.7321347092757586
-1.6970235410959869
1.3618259581278755
0.021662219484734048
1.0894313455007552
0.2860666880481404
1.4852330168951804
0.05858828714479271
-3.6993577036465086
-4.361435656544717
-1.5353729648043997
-0.05650800420898783
-2.8057560719054546
3.1036969038227467
-2.3164442818597695
-2.6897610240056
-2.879367203438529
-2.698876577961663
3.750518578527633
-2.8764958463224284
-2.763414611568242
-2.063403224039061
-1.1758129568309987
-0.3193745074608715
2.1207933460898247
-0.050588157689810904
-0.7269375532088782
-0.8891420616973802
-2.8346786707370013
-2.6887441393031843
-1.4706914098828867
-0.6446198850152826
-3.0008493649468555
22.364117592821508
-2.1262660456698645
1.1472400940011922
-2.907038907208498
-4.762017430415909
-1.1676004004758456
-1.6799448511197963
-1.8374765890609959
-0.05331187484508145
1.258103427347991
-1.3827217961260396
-2.1890762920525333
-0.6456630065102062
5.168738083789255
-3.5286539735063656
-3.3008590128529405
-1.7807722548215066
-5.185227064677704
0.05428184548255437
0.19006599463186435
-6.1522408578593035
-5.991689054080912
5.988961869483494
1.238197195173438
-7.60293152881427
-2.132140273480904
-4.511470320399676
-3.238185897045863
1.220677843936221
0.32715676429811064
-0.9460921655694857
0.5922395045793989
-1.1769006532083253
-2.62997757218333
0.654169377550199
-1.8114215232084812
-0.41260981242397116
2.198846114351483
-1.5504771450358408
-2.1781221601147345
-2.3222791595749417
-1.4275826895616999
-0.9254192588699585
-0.7703866937423325
3.0152268147215056
1.5061367855916468
7.048332824621466
-4.5840346834106995
-5.697671666978489
-0.24454979891625264
-0.9873322029242458
-2.92096606072877
-2.637130334569185
1.4541250060875335
2.208541585288614
0.4063312924446923
-2.1424662300422916
0.20985969857210035
-2.922067517708083
-0.23284443300819238
-3.8313640255003785
-3.3159783837961223
-1.1244980854072781
-0.7506073795719698
3.046009819525684
-1.5444663664168599
1.1875310119631142
-3.86778454014088
-2.0884149318939667
-0.9539382080494667
-2.1948953077918785
1.7505658552492092
0.8297522546650631
-0.14825155089525446
-3.532791513243501
-3.825672229605044
-0.9746835793706533
-2.1550193044575146
-4.245483071894234
1.7542343365705189
-2.067658224847776
-3.8400770746080113
-3.7116643503905866
-3.21956099658214
0.21952027888160516
-2.3172315552622256
-2.1560804938421936
-3.9933797884001416
-3.5023609600056886
0.1757447826546042
-2.8269424130137617
-3.5462109003714053
0.0712758071835756
-2.4305023932637457
1.9272206924413957
-2.6787289812128816
-2.1291264263670864
9.573420580536853
-3.492509923971359
-3.7488659268912925
-0.55193445008415
-1.1259261310601236
-0.18788078073276046
-1.9863973877069958
-2.081750912780951
-5.042751119456422
-1.6545905597553319
1.2553076895221091
-0.8762436740368286
0.9112439080186923
-2.555558933094931
2.223998734754305
-4.632953406458557
-0.4906831596981747
-3.1843060372542493
-3.7860209335394406
2.288620550902835
-1.172295011537753
-0.7254958339477215
5.384467161954371
-1.4365866752246
-0.661554874611428
-1.9104027696933479
-1.1804080009107591
-3.481659759727524
-1.628465079614
-0.5570311158428343
-2.219491458774605
-3.8431982538493434
6.068002562326333
-5.677645023005021
-3.0448130261096753
-1.674664446407624
0.4927707637476057
-1.0222393935189307
0.9764490493943653
0.047740372729773696
-4.612661750667867
-1.0167363762755346
-2.3543217137723853
-7.111754426319548
-0.20061467457391388
-0.023171091613591092
-8.48991217589112
0.39201467068790147
-2.438722610071347
-0.9590081595633827
-6.82202933334116
-4.9272771724199975
0.03968219818567991
4.490333224639472
-0.17599278784591316
17.392514907955068
3.5285306672975043
-3.454197627965369
-0.7762287708012412
-6.499522114298118
-1.3314718289068308
-1.9006502115628077
-1.012678139490443
-3.945569096830272
-1.5406022746888244
-0.2137099799822557
16.981951839820855
0.10697185093062508
20.6636333772988
4.4973316927551155
-5.15558338995461
3.4471369435918997
-2.6255937007924164
0.7056218844513598
-2.018507961851977
-1.0235108965264375
-3.7977886181969778
-1.7901326447108623
-5.2970275105282205
-4.183881463291007
19.057482060436296
-4.467501798948572
-0.013358224562499417
0.37186303952207944
-0.7111073425745391
-2.2720018398626847
-3.830868753091803
-1.9951279466605993
-5.726617102896572
-8.098858657148785
-3.815261585377206
-1.2596685581814007
-3.1049680344214767
-4.702665608669408
-6.52379119382059
-5.6868103213136445
-4.014141525016176
0.008535411937601583
-5.016692569401751
7.366863186838456
-4.339267881001009
-1.012428469422146
-3.018641399609071
-0.08745022019253962
-0.9979162992013911
2.179425947870781
-0.20756585365298216
1.487724567404752
-0.33170291475200286
0.38278924300699946
-3.7023922883307105
-1.3640225735732283
4.14667185156477
-3.7550780824714916
-0.6505777092185224
-2.7923490217561078
-3.860318878256445
8.856081417082958
-0.03486621612126595
-5.333709671051134
-2.0660964514216653
-3.8968045104055964
9.068743278635164
-1.7137591141323203
-0.5728573378639106
-1.7804590329688144
-1.597634176885267
-6.335737220384495
-15.984118997756651
-1.5434364911423892
-0.23541920429350896
-5.886299752483998
0.6402718455522717
-4.535655046669894
-3.0022371924025597
-3.9975945683969054
-3.1049416552741045
-4.056820589464264
-4.0841454974864675
-2.395510461677764
-4.327938357290871
-3.4270687849949755
3.8470772484214484
-4.491066495703599
-1.4320634801426253
8.394950617393947
-0.7580012869023327
-5.505674357267595
1.294059149407265
1.5798082157279636
-4.6934685250369625
0.05057978010467052
-3.552867265680049
-5.765154414271984
-1.45030951289664
-3.242750971176341
-6.862945904732908
-0.568846123362643
-3.343072060676151
-11.79916234283781
-1.2569790538868832
-1.1996150405604815
-1.2059099715806405
-1.8751082227558238
-7.967527677695127
2.399472306509031
3.7442651908588953
-1.0756526957728274
-4.749059416189041
-5.92660189994662
-7.751454672273134
-0.8534335069857466
10.544414261951555
1.6007799117666401
-5.046601685251464
-6.337790630738594
-1.522588123078778
16.196009071033433
0.43959927609503235
-2.3774897414377634
-14.304789178839208
-1.6305418207266797
-3.128513413634193
-8.594704318507253
-2.8581060002166327
-0.4169741365434386
-2.128062162915726
-2.5055325979535596
-1.5118924327608785
-6.137999759661853
-6.073114525603362
-4.489258641303972
6.078541087639731
-14.0102288766741
-0.8375862540697282
0.189011708361109
-0.8905373317703785
-0.5129170609661147
-3.9168895186530075
-5.190726069947953
-4.507929881145984
-2.0236413181664945
6.451210984922779
2.163900864987745
-5.35076858965891
1.3433011906287415
0.42928631974410497
-7.025949306209074
2.694772169352724
19.946901579055787
-4.419799089067364
-2.8749313537205254
-7.618736530671537
-2.4983476835615406
-5.263667212267666
-0.663778541637258
-5.812570497320572
-7.223537995369146
20.79065470462618
-0.541023978502542
-0.9463751853381696
-1.7507683505648413
-0.7069196331784044
-13.487371448593922
-2.6009915338585943
7.838688671082595
-5.377784923644634
-1.7145636301054576
5.42866089007794
-3.9934706086059455
-9.882636886457727
3.080768274613706
2.362603682851215
-0.2832653236760583
-8.039619154555309
5.438279663824965
-1.7843140347530044
-2.448900811858926
-4.8222292536243945
-1.7496977692011133
5.644098019913333
-0.8689212808572083
-1.2793319406092596
-1.8011819303639403
0.8634200274444718
0.06689311354044239
-4.155098012530529
-2.824380730198219
-0.9494161152015748
-4.207230834055597
-2.224187163902995
-1.4981090451631975
-1.1289487071321271
-3.7145707025392802
-0.9850957416592097
9.17727224608668
-1.8800643238206527
-8.205169621077857
-4.920947524415318
-4.126886190654547
2.926618052084654
1.9146182311688351
-3.398076759662846
-1.7184309801019593
-3.0405513510572315
6.254328787896838
-2.88394465194334
-5.286208685032704
1.6908115672416002
-3.053994701037917
-4.348324262239275
-2.0197327437109323
6.965975875407652
6.863293330058566
-1.2327114325349773
1.2900116768439356
3.840947609707816
-2.1978061032207927
-4.895340399509565
-4.050397308464398
-5.071755861937053
-1.7746203302184478
-4.271149446085494
9.104055750532954
0.15142820312330174
-3.2460026253182592
-3.4859657495914687
-5.194214386165435
-2.7881297168732804
-2.19939155761299
-4.929380894469927
-3.0556065452946406
-0.638800141279115
-0.42350146424991086
6.2336529338541435
2.5232027504134855
-0.7065867827121479
-1.849599496170649
-2.4208964632440013
-4.214488106117758
-1.464010576113513
-2.8154477619672535
0.1053349759356808
20.7106233995183
-3.171062941679752
-0.879817549234157
-4.548737957566978
-5.331117971278583
-4.477562916738801
-0.5105691833852862
-1.7036436160308241
-1.6610846377999164
0.17070736810154513
-2.971300120076365
-2.026492469845193
1.6543254515364454
-14.649021980639386
-0.8901292020800533
-5.974587512582625
-3.514731434168782
-4.383136476232005
-1.1255806684361778
1.177226654816718
-7.77447040775947
-16.816054346634083
4.025884108854523
-2.085764602726629
-21.47822136679085
-2.1318911541746117
-4.383051348825332
-7.283419224732596
-0.3825644640734961
-0.8586685852283769
0.03291655927080323
5.857921684065101
-0.6713075950330445
-2.6219696625125537
1.778436100780043
-3.9748436358734756
-0.7183917969185282
3.5980075254260733
-1.1878674031395189
-1.1805692517861432
0.09139710075900577
0.3401393929409818
-1.0543759806132826
-3.8032646012251576
8.355348208312739
6.664517180602487
9.448489865392851
-4.814340444450671
-7.930386256235558
1.0883732067909881
-2.5522294932739653
-5.0502556710166715
-2.234118529371647
2.7796523470600505
8.431072173997855
0.10395223921070672
-2.512467578706947
0.7837360563561123
-2.4814400780180184
0.7835858767365343
-4.896069969890015
-3.698552540006798
-0.8170800424844941
0.3513767104906246
5.43319244992457
-1.2379579074929186
2.315339096870984
-7.616153506321704
-1.9384594737130696
-4.5489064317657695
-3.2201935694628805
-0.009182119953395854
2.2365770231615087
0.20497735772745115
-5.893862872398822
-6.655817876887183
1.3199271680551699
-2.733897257307629
-4.217893536970079
0.016112356225285892
-3.146101875210913
-6.567861266615962
3.6124598383150492
-6.191676848307467
1.6593674247746448
-4.644551993300327
-3.834615807934944
-9.016606819965622
-3.3343141069179785
0.35147372226689705
-2.4619722476529255
-7.125974608303356
-0.13347527646218763
-2.3340540399942977
3.9029494618034266
-3.974465470970383
-2.0666075359231706
12.730795110050295
-8.787461326319578
-7.412150961876576
-2.533980285893131
-3.293715698563646
1.4557663078323875
-1.4383915079274705
-4.83000330283918
-5.148612885085806
-3.994350217585092
1.693707029631199
-4.221207102494894
1.5464006886808803
-5.6563420713237935
2.603560237028983
-4.3295076739134775
2.6715493822621905
-2.1483300872015625
-7.503435408696836
10.55740150176142
-1.7564394101459824
-1.2190856632300986
5.448688925864225
-1.1888222356989604
-1.3550003868608884
-4.136869936608961
-5.201452291150048
-2.3870182507948785
-2.1449988005212095
-2.8429277826516968
-3.110468131975157
-7.581485496753717
15.037090207538244
-5.437395805797908
-4.209232660297156
3.205664884149046
-1.1117616950307168
-2.836184765226312
-0.6324477189447275
-0.16946247560888836
-6.346871150904422
0.5164962490873513
-12.901761141555067
-7.9245569527055055
0.08624105900819753
-1.6411479843648127
-8.19223294321788
0.05649832048887246
-1.7979203120637466
0.6473373702042845
-3.7545151641547205
-2.032856349942075
-0.7755409911788986
-2.324513540040084
-3.436673606523807
22.930748003339534
2.573384297714374
-1.8569990267699261
0.8550330536502951
-12.050405672453676
-0.7647551660829464
-3.7372961280783
1.05179260624929
-0.5713225809872582
-0.4455018951644584
-1.062682923508533
6.140733630231458
1.9879782680136984
13.235417860394396
1.5877865694187525
-4.542994790907658
1.8575123681800527
-1.5468365314249308
-0.14382929807285164
-2.294922307686753
-1.7540844093667185
-3.678810643946414
0.503839855949261
-2.52347778929685
-0.9604245488335544
9.667787699556465
-4.006849698606798
0.14358515232392888
0.060735604948589254
-2.80159996814294
-1.9008754176708185
2.6768834580371785
-2.3924489060909613
-3.6624540399466974
-6.885733659640251
-4.343405580088225
-1.4227554070687902
-1.5737351823135244
-4.359331156216591
-1.6538282713290449
-3.021373408089183
-0.35681198269722647
-0.48751265992940407
-6.468956047276562
9.245207661751882
1.1525769394549246
0.06927359553399255
-1.8658066516738891
0.4227379103817059
-0.031372359499101124
-1.4764792594118334
-0.588195011181735
-1.4311300252968868
0.8187201774641844
-0.4411104613037285
-3.3515754580783237
-0.32504032820240913
-0.7020800299939414
-0.3468215020676144
0.5251053636990738
-3.8365991370699737
-1.6933592511236635
1.5065134298086071
-2.480531264097489
-3.9993903550110774
-2.444022762218392
-3.780837955982345
-3.8362505880611613
-3.290300814302793
2.1427083555014734
-0.716075627493208
-1.0206556725190445
-2.588342451477139
-1.1983899341741124
0.06855569549992692
-2.43184619639368
-3.8167805101294516
2.3555646798680043
-4.7118678208173215
-1.3956790950921567
0.7173840388441437
-4.26806729254073
-3.7115843708058462
-1.449354262251842
-1.7630116703222523
-4.679246951207374
-2.32742447943727
2.2231633870347713
-4.226732057369948
1.1898684648602
-1.6788021437889538
-1.5003834473598527
-4.764916293952067
0.20320809599157255
0.6251766065516826
0.13429161638058712
0.5775846612783444
-0.5297521890360026
4.138464251263576
-1.5735126235632118
1.693969599779947
-4.442956150881899
-2.170526132415747
-0.7881112295759825
-8.402438123418733
0.28172957526717957
-1.7737952795850302
-0.8706189180781437
-0.3074645812711934
-9.255601752748062
-1.337703643624427
8.472019790354109
-2.5524014983057843
-6.0720221883696945
-2.6834933248696764
-2.0870435774045077
-2.097677524427125
12.967162360666066
0.6633374180570529
-5.739453539281642
-2.4575379364596346
-0.7253313300858993
19.242459014240833
-1.0233498433533355
-1.148146794874422
-12.077635392926368
-2.765882544172494
-1.0321987214719468
-4.616529062121279
-2.3880048734726325
-0.6023643764458378
-1.1873798780487348
-1.8538009615878988
-0.6602643962931171
-2.8917733432584294
-2.223575742825494
-4.430590369292808
3.600012824093978
-5.353359630799717
-1.545854457170914
-1.114322917026028
-1.7688260119421557
-1.2408041328085821
-1.3104309996479988
-6.734820491673338
-1.0759575738172102
-1.5431310938025846
-0.3989900285153455
-4.110346164223842
-0.9020546092006883
0.6598103153810383
2.4348096583561096
-1.5678006514401694
-1.7652655657281062
12.199645090692451
-2.236338473187162
-1.54773740268094
2.4912987231005346
-2.5828699717128374
-5.257806250080409
-1.3776642942411037
-4.629592381582504
-4.177021295093656
26.59524840039754
-1.369911776011696
0.08504523593970076
-0.4729859331763519
0.15162020159720282
-2.3901125345378587
-1.5445836496409375
16.720063654538585
-3.0246632782793172
-0.7755347914751757
-0.1679407551821407
-2.1505128915945004
2.2570830254122867
-4.072893791571843
1.0215404399714254
-0.8860160716385559
-1.8367635586744404
2.1936761536351814
-1.7830263954087004
-4.40775318487432
-4.503665714730235
1.0536846481438251
5.7439408406954575
-0.91919059926719
0.07241324223180519
-1.2831476010881313
0.5628899637505957
-0.7159994371141438
-5.780590657835833
-1.432698409931891
-1.0214120719733255
-7.442901271438534
-0.35510352501517073
-0.9164383963755307
-4.775501106194186
2.08616028876146
-0.4110784197590573
13.835693314122675
1.5476586664060008
-6.33012642516537
-3.1090407988368334
-5.250542936757515
-1.7812704884416029
0.7046102161115128
-2.482590816077932
-1.207888833305678
-2.6372734203129657
0.5256845408958166
-3.0908238300036244
-6.0646759242369
-1.4164651903123222
-0.9015931047772061
-5.560253912843724
-1.7757467428476466
4.710928627637557
4.011212993469513
-0.8718982166873096
0.9952453012845085
2.4929863717070075
-0.9361110531016084
-5.112179133163713
-3.4525182372396706
-2.155687487270583
-0.8836688487017357
-1.484048874245264
5.459846487796992
-2.846286664364672
-5.651829429932625
-2.3753094589095465
-3.8919144893113864
7.895139563233741
-1.1205031814335773
-3.5684710379738136
-1.928356044560384
-1.3420886594804138
1.204519911878172
4.714445308796073
1.2082998828485811
3.077544939286187
-0.8956179577849394
-0.5198975606911068
2.6349481567453577
0.6544184978577199
0.13106733256298023
0.6022751583394111
41.285460614978675
-2.199116611504918
-2.467192695398959
-1.6125058325375556
-3.207366264267116
-0.9931457563071656
0.2942592869134452
-2.1024233142741866
-0.757429225339301
-0.9678429991498569
1.7956079655229709
-0.431083287960283
2.5326937512694485
12.450496306941353
2.8016382063239673
-3.764803119654907
1.2380928460171903
-7.278057094419178
1.8383422385086823
-0.5465815372213269
-9.03056896642074
0.5694875293975467
-2.4330111424604497
-1.9969758136352016
-8.196739055521048
-3.4044042737559077
-4.449839571412192
-4.452912037522421
-0.9972303060163342
-1.9435884512132746
0.4790403878953332
0.43497364345054373
-0.6772015991179978
-0.052322399494376864
3.290221554856786
0.3889862418775745
-2.0992122257570323
2.5371294435452674
-0.8634324811805935
-1.8429773051255827
-2.5844027378721903
-2.516461638243543
-0.8497026891421298
-0.5318575638504035
3.786812437407862
3.5859597097324953
11.30943830901747
-5.718541074220307
-11.377855202036857
0.9039908711483593
-2.000935646371888
0.8208113266484051
-4.754074251317834
-2.433681586435242
2.065687227068688
-0.05669915494466261
-1.0243204921186637
-0.019522576491224138
-3.6633378498373044
1.6053836174494458
-1.7674248558163352
-3.4967387419307525
-0.9951611293277867
-1.4374038777752767
1.4049110704733807
-1.5870898961229187
2.7670225560032993
-5.3357289539933435
-1.2803513615508817
-0.25149929043005687
-2.5185662206038817
-1.782011741540123
0.9927931898757634
2.042037547155316
-5.180984487483821
-3.7791732204839983
-1.5220110270954865
-1.9999085702439952
-5.072046312130335
-0.0557163205938856
-1.592041257064533
-1.3985382341203105
1.6793989901895272
-2.7216257251194653
0.10982047520287679
-2.902001215945467
-1.591220871156806
-3.1061471545412194
-1.3658207649345586
1.0563161341317113
-2.210380376604466
-5.3486421154720265
0.49034610033795395
-3.1437500498571125
1.2769148098461693
-4.581903067376817
-2.7707813340307608
17.432930803471052
-4.8836831091011605
-3.9215728218606314
0.0284888328052209
-0.2240808903538313
1.3209571644488334
-3.7092915171848606
-5.249108149870958
-7.011744974967109
-3.428386813930695
-3.054826056968941
0.5668657747487457
-1.791283941905815
-5.882041916270667
0.5809228806047894
-5.710511299370658
-0.3843915215011051
-3.151956059147801
-4.101634560485761
1.8280238416199797
-0.2651899796484991
-2.334108359330431
10.221546048054918
0.06239400841320879
-0.8301205581652856
-3.111296186119934
0.13579218814466848
-5.056633513661768
-0.9589036241488723
-1.9527356297706562
-0.9350185044031462
-6.286252656480345
4.326187053850508
-6.65013998765037
-1.1478901215359203
-2.582342769112287
-1.349762056004118
-0.8042690710744463
0.093631318204668
-1.1956486859937823
-5.391284426346781
-0.16489165725801203
-2.328111294203623
-10.715171873939964
1.2432651215448136
-3.812637125066193
-10.68315084581195
0.457922485227937
-2.956546008132295
-0.967535228174313
-9.105415351771452
-6.1160934625896095
1.187581641949104
6.052565216057263
-2.944414932993591
35.12100738232
6.502570201394487
-1.9961391526135732
-1.123200550811355
-6.3952489615682495
-0.7171216174028473
-3.0785709171270135
-0.8744751017252652
-3.2045140242013885
-2.34880767620157
-1.307509474801211
19.108970921164765
-0.0917012706726915
30.497840642382346
8.192937888165762
-4.355628133891046
3.328324520063824
-2.5664911807125983
-1.6581179089593896
-3.2316580744919814
-1.5443748041615692
-7.8860842827342825
3.413667475007518
-8.228279825074459
-3.17815421130245
23.989033027999586
-8.058088422329542
-0.6357186267944687
-0.8818886779656703
-4.293512354862322
-3.0518419064421183
-2.5928396653535066
-3.078429241075108
-7.771296848630644
-7.596460525870281
-4.615314263112269
-2.8780461071214396
-2.7390627206102276
-5.112728639675384
-8.109735214451844
-6.819380046711706
-4.680452006898508
-1.2066880773788649
-7.1941549285682695
8.200474329652833
-5.240238579228856
-2.521364938631739
-3.8805248690136955
-2.6731010716038117
-0.9716407143609541
5.939870072176788
-0.6235250382079476
2.2173428058584443
-1.2509664871998691
-3.0469334797114165
-4.085620079429832
-1.2486016780878741
2.9777196677474023
-4.079413024602498
-0.5388714218985174
-6.928249748480501
-3.0927900082649837
11.70960055478464
1.5621703811737269
-7.383048092542576
-2.6315845008220893
-7.18955510572297
7.380213171938371
-4.5269472797022265
3.59830453315145
-2.3876760842757156
-2.1198573780433208
-6.842316038456483
-19.55449040570235
-4.300582338215773
-1.0752255119511378
-7.1300419599407805
1.7039797277381108
-7.114490006987986
-3.8649789187100376
-3.590070056568924
-6.679056700188839
-5.598264189187809
-5.126632953586156
-3.75263250083417
-8.33165988869186
-4.150868123568244
3.759707207479623
-6.711121255321565
0.7556012825951063
8.080941619744662
-1.1443263610466954
-8.781067217844573
-4.352953250198798
-0.22899216912873085
-5.822662232102099
-0.8381783967227192
-2.7272028898310494
-2.4634926773057084
3.09136634201189
-0.402418224460902
-5.737687206151103
-3.3288042630535735
-3.1808088577140476
-16.154079692995516
-1.412993644241429
-2.1440039150326053
0.5839388310709662
-0.932316677129344
-9.885432426655457
3.0359172659705496
9.50749026303975
-3.8241402863900134
-9.151234086785193
-5.825146982960672
-7.345787837417329
-2.636865199233752
17.862493219504824
4.534173915664816
-9.288568410179524
-6.68730089619667
0.5610194633979715
25.372899172320814
-0.7415992783455919
-4.46267878654554
-16.781838289478106
-4.2219521097802195
-2.762339271126041
-9.671463980123956
-4.3421283564248565
-1.9801528129636132
-3.4618063510364436
-4.6511791030584355
2.8035690643366276
-6.796951670372693
-8.70494249212693
-4.806881584987031
12.54859677092195
-16.601989924013374
-1.3044858608280216
0.4784212987407673
-3.289713380133144
-1.2711533155097319
-6.203790757989782
-7.853592918220115
-2.239529054418915
-3.182305341756374
8.998261305067798
5.6255003835373625
-4.408628802421704
0.8050199277973079
0.23449585210094828
-10.146432493367582
1.7269299773461257
27.145223533360507
-5.451968433435438
-2.1215797152767886
-14.070999339245972
-4.22651308354471
-8.16467683197277
-1.283149739164714
-6.911277450042425
-9.358601375472624
31.688715905448852
-2.7505178734187514
-2.306696467599321
-1.5252792943259317
-2.52683176304184
-19.12261364639741
-0.6045958243655437
17.381429105981105
-1.1461639614200363
-0.4199412104357223
7.222858464136194
-6.784356864529268
-8.759916963236083
2.161336127257398
4.527854432601419
-1.0869387684053258
-10.136283320617375
9.615431335988905
-2.621146353634499
-5.274848142078967
-8.918969703471827
-0.5048148529980916
6.82004734582288
-0.7865701233209458
-4.2854709338410215
-2.304190187776657
-0.2227405832054891
-2.0732567594567266
-9.336737799514252
-3.669176114914826
-3.213433693655305
-7.821639381853269
-0.4819929929159768
-4.992215421111124
-11.396451063698496
-2.461535592530777
-1.0586225013789465
12.985528331164259
0.3390162118421029
-12.895462843832366
-6.7467759442034545
-5.875282304755388
-0.40590266498155764
-0.4714338508532631
8.08528633083198
0.19342369062706624
-6.101994926946954
9.026426546359293
-4.8108908990459875
-8.86119093416693
-0.9393287008624556
-3.6270913255389394
-7.522123909474229
-1.2709099007239275
8.825275991861153
10.973503314154428
-9.140522752224523
4.6706949040461385
7.564584585912903
-3.411716375025684
-6.3992174090368446
-4.752111261688313
-7.052057627457669
-2.5617212641337113
-3.21556677394787
12.593320123374594
2.3912416461250787
-5.736730453171715
-1.2962727825656195
-7.291115249615369
-8.369632561304968
-1.919401253102204
-5.159115066483616
-4.299020932659548
-1.9092822836586694
3.670281000833474
8.997017232400735
8.721884737834909
1.5823957690728279
-1.2091554992945233
-0.025838364029213686
-3.6392112016665505
0.5346366631460275
-1.7772459734977313
3.1435092358666394
34.95380393660864
-4.5974314924418715
-3.0261420578613767
-4.547044266891785
-3.2414472282393447
-4.9819374600957875
-1.2881802571248135
-5.255206777644278
-2.066829423020919
-3.2538085035203776
-0.8225270791279221
-0.5640849122415798
1.7217571550412034
-20.802711896268043
8.963821777285604
-8.1131174775385
-4.122107195393497
-7.292586070395852
-2.5582782657012886
-1.5756109650986834
-8.966837059745346
-17.999856986190952
-4.402407697691094
-8.081615097913037
-29.185852435712427
-4.649734345493554
-6.616355359557717
-10.192550489768342
-1.9325621678845926
-3.20375608900732
-0.8243216472814807
7.332662245385
-0.9743790243499365
-1.1154640944737655
10.10324619855454
-3.055301508300196
-1.6888837829464942
3.15807831005923
-0.36406216756396753
-1.3511975762470354
-0.4498127692011218
0.12849153224475887
-2.2633190910777587
-3.763931060615765
13.796749004455304
8.206058950715873
12.578846314982323
-8.384191653571698
-9.651689248078176
2.075955552735502
-3.2826365402533093
-1.8738300974264144
-2.638803651388521
0.43306515716252253
10.666710548199832
0.43263857157513863
-4.157057182450504
-0.3300926013586414
-4.302293103252854
0.8734579226857784
-6.841401500138193
-4.071071168578134
-2.8602486646667087
-1.0076167611219824
4.064670332164897
-2.6302173502062622
4.033751571475734
-11.194884283706743
-4.833021385625647
-3.281284093310933
-2.235736783332972
-3.9130581392420574
3.4712915315478554
2.0811122857376985
-7.1508391718278475
-10.264247190858182
3.343393045053953
0.008748743197478707
-7.758330907340114
-1.4939463109191504
-3.930916223589638
-7.554104219560208
11.310356581036356
-5.069623334778882
1.300610765987233
-5.104019836633669
-3.58859874401027
-9.644626779475741
-1.7670292481920908
1.8030545943746699
-4.3149392303911895
-10.196531841572858
-0.9725794618444671
-5.633382125270283
6.110511581873044
-6.919529486126834
-3.4344457103351522
20.36364704873901
-10.882708361537324
-10.120917499204781
0.3754417223608854
-5.100663956541186
0.42661998492590236
-2.0880797356137863
-7.098999379670756
-8.692674514143718
-4.980917445831402
-1.219454890525588
-6.064389936437792
-1.939602474153598
-8.246010267959807
3.0231084968062802
-6.9056297201420485
1.9560781665896931
-5.83487166866744
-11.322860470060018
12.62423022835561
-1.6483797349015885
-3.5179738131424085
11.50587643799442
-2.1439452709999527
-0.7961035969563542
-5.020892756371852
-5.285505964471234
-2.691246351982679
-3.3324782460275593
-2.972869347908849
0.13017096144256723
-9.091212176612226
17.44455230147394
-9.826801389453223
-4.544256622760601
5.14132587974274
-4.281186959913645
-4.346573359943841
-7.876188676182673
-3.390642026381503
-8.230532247560204
2.019493411198124
-15.115465290664273
-7.770335004930179
3.992678969590388
1.2044918069627484
-8.305957287674888
1.1033705533239377
-4.651843519389259
-1.8298681914056567
-10.069017681296538
-6.862344715485649
-0.022737257500112906
5.875724011361181
0.8787819688650251
10.555994515987702
7.081570159955062
-3.1891962202423563
-2.152183742666453
-9.559547253093326
-1.7052025826335078
-1.8436407564893398
-4.027240756515588
-4.498280386484076
-1.9913909146513176
0.800784745783088
19.160356844374213
1.2555920529605626
24.885959983044202
6.856298016394828
-6.842646685746551
4.887165598896341
-4.095558163598854
2.3197836252674953
-3.479651955656542
-1.5744065544908203
-3.075854457776721
5.08900445429835
-8.66234367168802
-4.857683222318336
26.47817971739435
-5.431272902318602
3.217967786361251
1.4095789101733252
-1.9329940421941274
-2.4831864728563695
-5.07138158709601
-3.1690581122586994
-6.177932733469603
-11.186922083194549
-4.305821479184193
-1.1967876969392135
-4.121266481613067
-6.084128306274327
-9.730805847557944
-4.672245626283977
-6.083364625468687
2.835288639221023
-3.3240264480239214
5.1699089591428615
-8.961319478660076
-1.570734735418625
-5.620336344066843
-2.4060590176941186
-2.5631557712393453
6.416459053190839
-2.709668523646889
2.956005619536548
-2.963499086819095
0.6395494138473953
-4.821526423563266
0.7603922437179929
5.78664547921483
-3.3571202518376744
-2.7332267068441984
-1.8830001657975994
-3.7602037726027655
16.63374374849616
1.5844870399265842
-5.101750442829326
-3.152084044069861
-3.9193526753720564
9.32863777263758
-2.634848715500448
-0.3455909468988911
-0.13940936315419655
-0.8126783879034682
-8.037474477956636
-18.99297843049419
-4.5611727692404225
1.7209913235718721
-8.088333617476314
-0.4015354558470509
-5.086836302603115
-0.5726660104911699
-0.7289294051119479
-0.29110351617087027
-4.9753412738305105
-4.63529561898916
-1.643830105067093
-6.015152846748674
-6.322506719213946
3.706870658302992
-4.717249544957042
-2.5025179125352963
10.58407685511608
0.6071222363642055
-5.543493673121644
3.5757582529692447
2.8630089980375306
-7.855733888929168
-0.3383724726866009
-5.510538012528398
-4.7621247126172745
-0.7565023152172535
-4.712887636895912
-7.607345746157924
1.900578689401284
-4.978481481063528
-11.297423193652504
-3.3057066391262744
-1.9974772191883405
-3.1427840186239955
-0.10629166579172751
-6.091568831696475
3.8290696051683577
0.9195040684351653
-0.9362977514459935
-4.982890181923947
-7.7273199756443525
-13.114628576479038
-0.2743329898453705
5.011104242374191
0.15416793686420474
-4.877202705172945
-6.718195216010111
-2.436677962576564
11.075517777358963
3.243542727073923
-4.969874460080754
-15.507483325536363
-1.7824987980848703
-3.2760069545540196
-9.242446969832992
-3.2628803942580795
-1.6932285182314462
-2.7496469511072608
-0.9779974098362586
-4.442244788670558
-7.709770422029842
-7.6804942933379765
-3.2708086149538262
7.399395557420402
-19.040249112174543
-0.7959667818342893
0.6433255667603012
-2.643287422661211
-0.19610717190557686
-6.5298426245889205
-6.920854152054059
-5.7628996581272265
-1.931517390255545
8.675106815027863
1.0102513959596422
-6.218516203877564
3.8680667831276465
-1.9149771152015036
-10.327092089697608
2.3314233415459262
26.64975571036739
-5.166092536927656
-3.200896788047946
-10.237506573268998
-2.469407225652334
-5.555619322791243
-0.9266260585259707
-7.5499758881669745
-8.934067381318979
19.40573101798553
-1.342273617950948
-2.336218892528371
-1.2062250039672833
-1.5478598445963514
-13.685127180919032
-2.527965589209657
5.439168386255085
-7.560483725480159
-2.4968297283896193
8.194378406430834
-4.765295316725878
-8.339585677696963
7.276070106352645
1.4591177545406562
-0.5273859452513127
-14.988695018257278
2.321293158627268
-1.4594175133703173
-3.403423032238116
-9.338587433080113
-1.2647614762340167
3.654943157003357
2.5877822383568376
0.8384517245022614
-4.57106833309543
-2.059418155723515
-0.21716177215761356
-3.1633414531233863
-5.417846460254903
-1.4795073117698196
-5.895140540530839
-1.606696011019408
-2.904780879777467
-1.7039640872549862
-3.857660367562264
-2.7678832113956378
8.647332592683751
-0.23684008925073508
-10.76420359463107
-3.6965860748920214
-3.878188975302664
5.097008853808414
1.6112644785192975
-10.230285976091317
-2.119513513337494
-2.186279200959613
8.685713005822096
-0.8027150513347784
-5.087407306677459
-0.15696165395577788
-8.215807552497484
-2.4663706238306746
-1.2582967680834394
10.061465677658676
6.087104935167315
3.597335832994898
3.7125288559320233
5.646938540920288
-4.765457857529063
-5.598723387449971
-5.105639148705005
-9.042533919285534
-1.6826136404809633
-4.4342995860354995
14.060740671500056
0.47767989922469917
-2.4382973555945133
-7.541100732828706
-3.9357668088915134
-2.8026327650688168
-2.0962813681419323
-5.7557488052418435
-7.255641654613893
0.08944198442269627
0.5454809153268624
6.748598938134882
3.885188707568159
-1.2846763095605342
-3.6031166209990575
-2.722332271238885
-6.610444492364574
-2.1663145145907072
-2.425141817001367
-1.787640130921281
4.2871199700909
-2.4037910864845213
2.4870970162690047
-5.645275114441224
-6.513120469749878
-8.183845670045557
-4.294118560041826
-1.5188844218370716
-3.317303786382093
0.3596551824907094
-1.6369058445373315
-0.8295693449366993
2.426962815536391
-36.35138558076526
-1.76679963595293
-5.837344303440997
-7.592897791272142
-5.545459667859927
-3.8933715923319507
3.624144143270523
-8.400662131883436
-25.838776854068726
7.172045975970666
2.4700671038704067
-29.665514613212117
-2.271520357583618
-4.6633485947494195
-9.911369621957599
1.6550906832902956
-0.15708204205388498
0.018720971308096978
11.38031101209537
0.028120481907452245
-2.544588306492507
2.102022803812568
-5.8877641649780585
0.3808112825705446
2.813623422428326
-0.7969120834647229
-2.4625026906532055
0.6486819187165821
-0.4636037308203244
-0.6114360988234434
-4.9280244968572395
12.073595580984362
7.269474415107993
9.6212694232331
-6.527145369671069
-8.645138073746534
1.3524995886626299
-0.08372469859864945
-4.538875129262124
-0.9321435323941468
5.339742631000267
14.80860609990707
2.2550465477612813
-3.082385610508973
-0.750213496637417
-3.4059975822989497
0.11640564402271478
-7.642547273743718
-3.8331968771988065
-1.4188576364716614
1.8900655318106967
7.818363656580424
-2.988782613818014
1.8495351124513306
-7.553832359348255
-3.3769622888308186
-5.750972805352468
-3.6779915809790924
2.1201487824425977
4.565662863007443
-0.155461458041105
-6.195191929617929
-9.460887676368438
-1.0236878331976342
-4.016793690469935
-4.817296400689213
2.3152590787517116
-3.4228338800228255
-9.743218509628456
2.4097253559862803
-6.650739797421782
3.877511845957738
-4.2668263650262865
-2.3838551771695204
-11.774356572786381
-4.810368613424093
0.21139643449692194
-2.4086976116299215
-8.576423204501898
-0.5785579904773185
-4.063463279869952
3.2808957763135207
-3.062580450945608
-6.27306585269994
8.788467647303136
-10.182038506384396
-8.622932383187997
-3.1844836813463915
-1.9453934316057135
0.24782763565251326
-0.7106886804647606
-3.7780727285065443
-5.750071686421947
-2.9358994187843352
8.310123185409896
-9.88101623479189
2.4287853990757275
-5.441614240781922
4.757004520285912
-4.571161580453293
1.6997954243355407
-2.7085765710081855
-12.300344527616526
12.621314715294405
-1.9304511104368272
-2.341913237829153
3.597004415727679
-1.259180064889052
-1.1175465438396774
-4.740287093589179
-8.350748006090711
-4.396245735947065
-2.488141615498741
-1.3393825367851828
-4.151775563198794
-8.04368663148963
20.966150095704016
-5.949459350383984
-5.815905003879446
2.903529012200513
0.24693076995847218
-4.208573381507524
3.3903923967780063
0.20836001128444567
-6.831972527692678
-0.8149466104915034
-17.211425527599687
-12.642982076913862
0.21347732810196526
-1.9130076967366345
-13.920893585965306
-1.2817451601120737
-2.4430451182841963
-0.7567256403731638
-7.9641191569763885
-7.213262610298153
-1.401924815710887
1.6379623005153874
-0.23207605855077934
22.633409387548937
3.5895154789120154
-4.363898666135218
-0.37627484202280076
-18.17298739985106
-3.824436305545141
-4.038192441018105
-3.162645354543884
-2.200173132059845
-1.834199570813167
-0.14129148893838184
16.06276220027777
1.6986333640390594
24.661331858599674
4.517671504248684
-10.509048194422949
2.5720960687330368
-4.284080488694977
2.323408953965151
-4.0962995675021885
-1.5819013230117531
-5.437297621939963
1.7762609367346325
-5.847567076568864
-3.9887765942200746
22.286757420686687
-6.138103403868583
1.0199872210760221
0.5832010660426862
-1.7699589770685606
-3.48497309208296
-3.6274121687555883
-2.5015172001266195
-7.395212848822019
-12.803079298083272
-7.217572056281411
-2.636059370906455
-6.542966746166232
-6.746086640618037
-6.163075720957397
-5.217760094442104
-2.8417797297403165
1.7851450347343076
-6.059915001547368
10.494263899758495
-4.0137704917155395
-0.926570150755318
-4.71109264038205
-1.516276972693195
-2.7435392115484807
2.0394010350122356
-2.3265631333904255
-1.5239139426773636
-1.9857236851496172
-0.21125643875884706
-5.949878963087324
-0.3079903921726483
2.0756056244877135
-1.7775119336935614
-3.034175084690147
-2.822107718757315
-3.5637774755412868
10.199106188103734
-3.825557635775793
-7.787791925559318
-4.243233789538614
-7.3946888805556705
1.1536537781173317
-4.667373464677848
0.7999743396281492
-0.9758711367022534
-2.2787277747553856
-7.476239397415486
-9.931763083366423
-2.7087293686516616
-2.7333228733447728
-8.193672837923692
0.8933788019615173
-7.51726565048351
0.6798408530390239
-1.5953947611619481
-2.7897623705198393
-6.877019904630089
-3.43377957409478
-2.365131503411021
-7.764880558413366
-4.171832258951355
2.2072079532268405
-6.515049254275077
-1.2979605135225087
2.319406810618082
0.08588321742934166
-7.258100058177793
2.715304049189468
1.3499166908984985
-3.9368160207002565
-1.1195327849807792
-3.842174407219001
1.6464243113514032
-4.351560309983666
-4.238356628921941
-8.182484733480461
1.1856087230392227
-2.161941745613512
-14.4519608205164
-2.9984482287616534
-2.6431962907598545
-2.725963209662167
-1.867063939904984
-12.080677030346054
0.5041716652990846
8.573660459576349
-1.0957121065656223
-8.12516295619527
-6.650138901488449
-9.564969074811453
-2.5647179729930945
12.723572222836117
-1.6189753747325948
-9.034852292864553
-7.044327281806708
-4.403237387335925
23.397787483381038
0.7535401866664918
-3.5924486879466517
-22.958697702832072
-4.593616707027579
-3.680919861014119
-8.641808360397961
-1.647572883121662
-0.35521772008475433
-4.898912444595294
-1.924746710566413
-6.926374060603698
-8.69400003710522
-6.495344196616131
-6.833120301138033
6.287143366637103
-15.749891380144467
-0.7855062532710053
-0.06016214187907684
-2.7512022153963174
-3.075997692163253
-3.027727149485786
-7.577638969915114
-4.806162272850902
-1.4336246094234069
4.367160797886707
-4.113896482372031
-4.715589517969505
6.1081877729099245
-1.1238454924150745
-6.131781494688059
-0.6154135391510938
25.215960686316922
-6.50485161987363
-3.2176910836858066
-0.9116802209887412
-3.5673996029251827
-8.866318946556072
-4.3382988961065045
-8.22732715507598
-8.601584800148217
32.916368328307485
-0.906512892124966
-2.177267527685868
-1.5865890461272296
-0.7347408098376133
-9.161409019655705
-2.894635179461532
17.859611146140256
-10.56269876297612
-1.9343739054303213
3.5220742034753254
-3.216980873836412
-2.7059425797984735
-0.6024689252725197
1.9215044942945405
0.19970380656375816
-7.825689120808713
4.023482147179174
-1.7774808422830874
-7.175493250389848
-6.212012552369921
-1.1907401773204032
6.80905394307675
-1.1781028027056675
0.2739720266964302
-3.4522188472570696
-1.8493328761072116
0.009458398569677229
-4.502566596700528
-2.1433881877129215
-2.188311192989078
-11.07314105172064
-2.5626368549457483
-0.54623761386158
-3.79051706842594
-1.7084990648339282
-2.536640890908084
15.068594417827736
0.6382635664449626
-10.1445054645776
-2.6354203080463523
-7.166375574809322
-1.258357379262069
0.5707543998860017
-17.547483004274753
-4.477878632690462
-4.680939684808529
4.357842274494659
-2.866365869335109
-7.64580755021247
-1.2811868222593972
-5.846277766879537
-6.850859835041181
-2.3534580991267937
7.783802578605284
3.2004378454157134
1.0549237963690052
1.2200250214145305
3.6857139575033604
-3.8988319027457545
-7.195744639699243
-3.7077724529995897
-7.383724798564303
-2.410924789343727
-4.9945441294516355
11.270859540139039
-4.739263193575105
-6.914175224899683
-8.693957211720116
-7.143267215207176
8.662390813994747
-2.244786503226953
-6.463102380701912
-5.896516088127386
1.263849828479997
1.6395485698429968
7.40157266949053
0.28007922490569187
-0.8267583059967893
-2.570797042504495
-4.166837353192563
-3.0063107733594525
-2.296394708556546
-2.517233016845275
-2.341862274852359
36.286229981506594
-3.2281526086133554
1.7076301535683818
-4.986178301202171
-8.888688380291299
-5.226555659496995
-4.176049259993817
-3.425927397636029
-2.7658971798577627
-0.384985918066243
0.11574030488910893
-3.7597432687764343
3.2643950498499876
-9.931793787443057
-2.553276229513372
-6.199482278724858
-2.1494017516560464
-10.737352641840852
-1.9245881839790315
3.385316783328263
-12.712700489956715
-15.684570864917072
4.699737815749253
1.218793242377932
-22.65664971491694
-4.207260432010017
-6.716169027313557
-10.085327997365068
0.9881069880301709
-1.4675725545291898
-0.08253000344912181
5.87383682842283
1.1123784094074864
-3.334718134128802
2.65298435677807
-3.098847140511029
-1.4118435545861048
1.5165082806989119
-0.6146263362017225
-4.127689055273762
1.5755638416667386
-2.0065966601280047
-0.28315543818156014
-1.6921793168244432
9.873692722083485
8.10938815771469
16.6681861826256
-8.74900972442852
-15.862159650767412
1.4410885315415245
-2.657257850733602
-6.374868714042463
-6.366985113661981
2.9919339243908802
11.068331510751522
-0.09765979788062405
-3.468331798245595
-1.1876432242693082
-7.296252408587211
0.343946729516316
-5.78096674762504
-4.6993731885862235
-3.162945204175073
0.6890551256462494
9.457990157750599
-4.380349717722184
3.009937258701081
-8.87219556198613
-1.9344883025664743
-4.064894184415186
-2.491472829058332
2.1953684849359343
4.36243862793625
0.7895174088414847
-8.396839387016996
-8.61935818588575
-5.6294530252340635
-5.587187893447787
-6.883143008372608
1.4238691165510942
-4.689900239712329
-6.752032555269122
1.4594495082952428
-7.156289020641607
2.698168927356466
-6.129929935917539
-3.92843972534451
-9.516572140416567
-3.686008922478991
-0.1814554828848964
-4.1485830761216045
-8.012796773567995
0.07322858990679088
-2.23239869206457
1.726939828062047
-4.385025254470556
-4.381468082055548
19.59236053755022
-11.157023237006504
-9.40848293267557
-4.263258753615953
-1.50851322380515
0.5584685026214353
-3.0835296173549054
-6.278848703191188
-10.435553103408472
-4.727817177421119
4.919101410513537
-3.694816169668369
-0.8573378987696819
-8.342974344403626
2.3947657155657067
-8.644502351609255
0.9186018083139347
-6.0736745070364355
-11.761293905026967
7.547745652103819
-1.282681447435449
-3.6010547593140814
10.330257199900746
-2.149023310810389
-2.1369395414855377
-6.78628070531995
-5.234166635383929
-10.61971899964016
-0.13389081011020978
-5.356572317474038
-3.226098693708284
-8.509390201339512
15.41436790875161
-11.677709586993297
-4.383230155990767
-1.2795389983735912
-0.03347617045365383
-2.286878944883264
4.646901355339055
0.40576286621354823
-12.53991436057486
-0.8134148641040456
-11.285900276196207
-3.69988591678685
0.4669017670146173
0.02327711836360991
-4.57188583191674
2.472991797261263
-0.22003350864409574
-0.10328098867124243
-2.36361804874307
-0.5373432329470571
2.0792423671665325
2.4303015937631556
0.12217905249641385
13.15659462656991
1.7513672543329168
-1.7596811139542907
0.9291520841400265
0.37109685090119804
0.7094052989057231
-1.0194170202613022
0.20921658873618593
-0.7100896912430102
-0.11116086041095483
0.9927096177778094
6.580577205181856
1.038059752834115
8.613131769860862
2.513859773945054
-1.754064313495203
0.10111967618160726
0.16350750570068856
0.39402752586185275
-0.12618541179521212
0.9218134839221882
-1.2197278971324677
1.0237168339578357
-3.036697592935216
-0.8201256219000399
4.595971804678886
-4.347889596339799
0.5627495439059067
-0.2403267513349884
-0.5474633948295277
-0.2990054106248005
3.4356210678509833
-0.8404221179245119
-1.8981861548101744
-3.4342214646543914
-0.6436967988969985
1.0833364235610012
0.9256350253819254
-1.7924392607155326
-2.1050432331000235
-1.6568742832319383
-2.901334672812101
0.9378198194233177
-3.812278378308235
4.010083617839343
-1.5735122185537949
1.0952205240792938
-1.5669883734407817
-1.9552905470893007
-0.09523136275745919
-1.23677714922146
0.8677184485834214
1.020714259226868
-0.42044990542790656
1.5271292689647418
-1.8683637305215122
1.2690632766098828
2.9701132437656046
-2.280418458900979
2.4692239274053063
-3.617430740243796
-2.3851139783398945
2.4625685207856023
0.36807923983183893
-3.2397733228379506
-2.323337629597194
-2.323099021880637
3.6264552963181105
-0.2869525869834608
-0.3474682147349131
-1.1072303900989937
-1.088961083453352
-1.6984092949327072
2.5732281046276
-2.5192159302546844
0.8781452632343291
-2.9729489389934542
0.8055431750285444
-3.5851829050847566
-2.01150450477395
-1.0771852710687153
-2.046692236836385
-0.7545399504802477
-2.5445298377069463
-2.816581758881988
-3.4158173464300354
-1.8671691050917447
0.4180344110036976
-3.2576269775436364
1.1807140110145258
3.470579874482398
0.3065900932710848
-3.665275322429836
0.30277044841948314
0.21239190100630512
-2.145677342945342
-0.8012157600288208
-0.8205369405354737
-2.2294070365434853
-1.342640408734834
0.13522934578782098
-3.5693885660715554
-0.5368459329659502
-1.7004625833111824
-7.132953279123402
0.7153537596265204
-1.1083904166211913
1.287279810134827
2.4590118790058435
-3.1763169763900945
0.3451589223683341
3.9285153871834444
-1.6486511072805001
-3.005915368987954
-1.6920889568883928
-1.8744813965727887
-0.10985213363330647
9.858656831752274
2.709499189501386
-3.5671756308372036
-3.0723625018850167
2.9123165810448
8.801146449432485
-1.20098767568908
-1.2025396111127626
-4.387393878237581
-0.28288292403650045
1.8830479039280732
-4.6415427217551875
-1.9022126315446013
0.3948254765793613
-0.2746734321770914
-1.7139163542798979
0.8866290996254658
-1.8945718217697503
-3.134009914104736
-1.2706881016453613
4.520026126778033
-4.372252082630835
-1.0643919611156587
-0.10616502212887548
-0.8211211027734012
1.8609102485577853
-2.824402538748439
-4.71673435975523
-0.3023193902785468
-1.498675535099822
1.7065835526497768
2.740962132044232
-0.8600132457864993
-1.145526551661078
-1.5579659753482344
-4.50018369930008
1.2480563340496353
7.615124885490147
-2.0587096673636927
-0.31866068336387376
-2.8123773862988304
-0.5277025532536836
-2.4465986416569794
1.296698929073372
-1.4958067472860146
-2.612103373942997
11.698056971718827
-0.8279149568074782
-1.4214241861033843
0.061997739005374565
1.382582181017601
2.7661751812972986
-1.2918412293629782
5.564907437892232
0.23068021132955938
0.8800667274789079
2.0778639904482654
-1.6266630703968223
0.7684542876322195
-0.49040888532463445
2.477600570794755
-0.8827506014537677
-0.9591630095382454
3.1770580379378783
-1.3728035637834328
-0.17863500794843162
-3.83571749240114
0.9690518815537513
2.910108696014202
1.5541337590796491
-0.8623046526728714
-0.5201508896768086
1.1192361876892905
-0.023777143367030688
-4.117296234877781
-0.7811587251958427
-0.8702653930254297
-0.9821371250453954
0.11100095408039155
-2.1472798303136096
-2.913180820311579
0.3918697892133853
1.1977351026252083
5.975466302489764
0.8330092371876695
-4.192367585913301
-2.5550888569098436
-3.104237410592905
-0.05629538622506026
0.018365501122867264
2.8338055799806687
2.0253569089878534
-3.866155312111708
2.1761593152518435
-1.8880519351074696
-3.717338032185288
-0.1733020568402075
-1.7751040003928569
-3.5618992854749183
0.1182301644458052
2.0576062089150153
5.041698061995753
-3.7783270429492264
2.140387768805113
3.4711954783175836
0.18742981508255924
-1.79150722800099
-2.3192134038530727
-0.497954183174106
1.5189254319017933
-0.9088557990760159
1.110327513104631
1.7019322590520836
-1.4572445714078166
0.2786656436610387
-0.11623943935977586
-2.6699442735134475
-2.2549717148295483
-2.7184346205088343
-0.2745597654562195
-1.0737931608739273
1.7960507263790901
3.1716723786065297
2.1478241270026293
0.3791355763423211
-0.859266991961836
2.318723423675393
-0.19385847188726937
1.4746370197173821
-0.5857390144520052
1.7469904821016675
20.123402506349763
-1.7976920733720272
0.0615789480610238
-2.4549119182387913
-1.7329020821508774
-1.6531751227884428
-2.3130836695688295
-2.3764752063334784
-1.0757702013880566
-1.386193136554779
0.10636474472248672
1.1684551517355215
0.4108340887977211
5.6231620071909125
4.922460964797203
-2.0515940643987975
-1.962579955898096
-1.624086255877031
-0.422855947193574
-1.8103703275603795
-3.6955171404697262
1.5262936366107942
-2.283070669300429
-2.6145845963531897
-6.277748928388218
-1.868765114471656
-1.7457812102493793
-2.3219814847879507
0.18541354031344742
-0.9658486040938364
0.03258277997466873
1.3503807759961408
-2.6891972089066094
0.9490785593754036
6.527955656261867
-1.682779415986804
0.13569977075041117
1.335020877213099
-0.30168265013573065
0.011143121737925123
-1.0062919303699993
-0.5917773596987381
-0.2751140324018227
-2.059505869227917
3.4315076124115156
1.7437724971734971
2.7327482449276554
-2.835664139060356
-1.606593055866033
1.6786791622253303
0.6231023748302443
1.2953360650618393
0.6957622048019307
-0.5219849265050482
-0.2772572144649804
1.346593079144727
-1.838840636428969
1.360762259733129
-1.1844309340543586
0.4725152178427206
-2.897857774560102
-0.2987766155605365
-0.6006187150949732
-1.300009881536812
-2.6868185868969534
-1.5269699776574956
1.9358712333939878
-4.813705146838194
-2.4617260454708427
-1.6594689337291348
-1.448090628969064
0.3121751369135133
-1.372112194234441
2.3243011195505323
-1.4685553596358236
-2.5913498803625417
3.693631787431116
1.8061817488382752
-2.5531488377565337
0.4992530237814512
-0.5875698408656261
-2.8399026167344803
4.01459144233409
-2.6797221030786362
-1.636260814566404
-1.589534290011222
-1.5115101805334792
-2.7746323693702752
0.32646864638714357
2.0942907538554194
-2.7817334269399145
-5.185022466243312
0.46238261563174593
-2.102228755894808
0.6475184617356919
-2.2218005090447894
-1.3067969092281395
9.428027511285185
-4.168319839457499
-3.234698664356385
1.5748979097203963
-0.25031345054474075
1.1562370868421423
-0.9050678125111612
-1.4404360991713114
-4.39322538348455
-2.324461412653215
-2.876454434581066
-1.8373948145713082
-0.8938722404383708
-3.111725243818477
0.15327017248757877
-2.895253472544484
-0.5445803547916265
-1.2564143268706682
-3.7396367421893064
3.0111471999812953
0.6481491457712737
-0.3917883785277293
6.581142604914921
-0.8933050171711631
-1.1204651624469995
-1.541841528115857
-1.430917226529083
-0.05079882037141357
-2.674375377149246
-0.03881282230169707
0.23333361267536298
-2.31266954031405
3.5404693636640356
-2.5494768774797065
-2.1777391593529614
0.41717692783618027
2.0324641586547556
-1.4531551045957092
-3.788755625902358
-0.9229994016565458
-1.5726298857905223
3.0798704564690373
3.8086792663895386
-4.949952832467478
4.441443686162612
-0.443950533258681
-1.4065327146460833
2.65502687695115
-2.345985464962944
0.7197275161185214
-7.728357771563559
-5.236883877908434
1.8290014133446004
6.743889094965967
0.925004637272555
9.19514372269282
8.702022409212452
-0.9082912930069658
-0.9847106271404868
3.5176350882289524
1.0984068419733233
0.01633059309927831
0.04249061719466574
-2.3468211610880485
-1.4550148557639635
0.45141396242237425
16.09202355105652
-0.2646898580697903
21.949587494349903
8.679524352634155
-0.0775122161835933
5.579731233095916
-0.4116748290161173
0.5386258714164462
-1.2170144271259664
0.8975034366726827
-2.136853950881748
6.36755403653356
-7.92096971447807
-4.894796047070414
20.81293639186257
-3.29700025915792
1.2849199475433604
0.2738761882820646
-2.2402854779089343
0.715021122116936
-1.191684852254637
-1.9982838799575486
-4.237345761235462
0.27568430332250027
-0.20393705391931186
0.0672208604460341
-0.5732596792875039
-2.048191356797301
-8.755501913818826
-4.990819354924141
-7.324443575276461
2.8838857931020585
-1.7207186757358495
0.7244504001558458
-7.699021087535816
-1.1226255981600222
-4.236143169078176
-2.8611409478543224
-0.4691395985070416
8.355799844993514
0.21647540052338082
6.199059350859155
-2.8597636941728695
-0.30227806086918996
-0.7144691935792049
0.23909973675681703
4.84249264244447
-4.384603797982774
-1.0164903162018386
-3.4551130945530892
-2.2309966739304516
15.941038804954395
3.39532821276568
-1.4486834253091523
-1.0826100217036905
-0.48183687921809676
12.411212842933649
-0.13613406246017315
2.221179088902079
-0.24353965933410324
-1.0958264609184445
-5.593795330465002
-13.136305969505374
-5.562674852144536
2.6641154605737727
-2.9470951791997924
0.747393382000228
-1.5087988110608648
-1.911058699166314
-1.9434220045219748
-0.4525354602116466
-1.038726764741966
-4.2568038959727055
-1.751057775542848
-5.06642401069432
-3.2066303219440195
2.0497837531310013
-3.682706517437847
1.3850651081117198
10.687121678988309
1.4658421120222214
-4.129693776346045
-0.5307093980560935
2.507325934770223
-6.452998854085944
0.8325997338101483
-4.071119086547028
-4.379870826090693
6.07649041505935
-3.7943372506115676
-2.071590391180437
-0.6958484783803014
-3.7353052449788917
-5.219025519605087
-2.6143495641453343
0.6700056448906578
0.8228285992031015
0.420926857718671
0.46514029137771823
4.912550488432575
0.21403217878667435
-0.6117115197988104
-2.5303123578862774
-5.342154888949588
-8.081231466844596
2.3797374629105272
0.6032251110552668
5.254893784326477
-2.742516134225734
-4.271354441682499
2.335264040682595
4.643966770220503
1.8778820086605637
-4.193016589626492
-5.103112528073202
-0.3967274632472895
-0.26033845964577995
-5.058875318837025
-2.1423941175064707
-0.4455851334338544
-0.9684918795457161
-1.349647560300013
3.309282674682266
-4.976652799337609
-6.97362653510204
-0.04122003026337011
11.015476037016208
-16.631511002667065
0.7888383168076036
2.4317400807352008
-2.105504942982435
1.6796398058495345
-6.757336573276612
-4.508616025972307
-5.069367370348859
-1.17632140574049
11.663010282210344
9.278395976452558
-3.812385339479802
2.3990746662999123
2.066165061214134
-11.069281381889141
5.9770520589280185
19.71370835530999
-3.667647590483473
-0.09659244187379885
-20.349891890724088
-2.724228964653964
-5.12523721424387
1.1692957660906729
-4.5064876322044025
-7.184551702705622
6.69262020846355
-0.767500503130421
-0.346740760048779
0.4526908746777948
0.5475914661192328
-14.791497710330193
-0.4510079247461584
-0.8333310112760972
0.5433835613274857
1.3635268949468047
10.475555273486234
-4.518176464053899
-4.145023932917035
10.740997229230656
2.7323663470045574
1.5212424296633484
-10.539813244852128
5.710811635991826
-1.2584245321847027
-1.048928903264752
-5.5915703866274855
-0.7335878461375471
1.2288803564385344
3.7099071714941734
1.020893256565089
-3.444680351550646
0.8743085246528363
0.32027515470556855
-3.147725633341934
-4.854568346023246
-0.8937017575600134
-2.4939016537322143
1.0151605703020414
-3.42843851101909
-4.174041001470781
1.2594088721402026
-0.4154136710598867
0.26614563410195674
-0.16545930183749802
-9.952118941237687
-3.7746042600300354
-0.0014740692457470032
3.543954609644562
2.701640377723423
4.721410693664588
1.4720699157615051
-1.589209969987519
10.614130023493317
-1.2279491301973293
-3.4296613297957363
3.0659429518888563
-6.014250530134684
-3.3799370121507972
-1.0707377483843943
9.695504352405079
8.816548709664353
-2.042242751899715
6.303278597472562
7.3920130588373
-5.066101929660864
-0.429009033456877
-3.8290222930373283
-7.000879078714671
-0.38621072600805867
-1.7509959393483416
11.8445692612874
4.220377283873519
0.7045112274262515
-2.1275801020570646
-1.3557944311437304
-13.291266936114857
-0.8996960449508529
-3.365962384465924
-5.244343179921725
-0.03328233986378334
3.635284648301629
5.882025677604334
6.803756002054516
-0.011468096274051542
-2.2072039513166235
1.2217951264203708
-7.031579649545007
-0.26729487561317405
-2.6526365722842296
3.9197573364511187
-15.321086710782263
-1.1163188240190978
5.1284817288351645
-4.803140404830277
0.2701409650568947
-7.812771200870761
0.942816548394769
-2.0840404303326974
-2.450115029480803
-0.012510576037478165
-1.224812820564624
-0.488000855165944
3.504697098490595
-43.65995545961934
6.889867914573598
-5.7350359069146455
-8.465012072413765
-0.2358263810437585
-3.2397900035491056
-0.7425126681800757
-1.616839975853473
-21.87638321350259
-2.083783113475419
-3.194457002382994
-27.087219807643017
-1.0803830631345535
-0.8695662504549271
-8.82382700882526
1.1057579859420557
-0.28983935696373364
0.07896412453476052
12.63456860764786
0.1316566967139604
0.7798096942524251
8.709374737784378
-5.821450156316494
0.7390087013744988
1.184194652483305
-1.3944962002897587
-0.7716655243665116
1.4861298656763324
0.6883200343428255
-0.5205757814072967
-6.07326191109366
12.382044012998444
8.368261885499999
4.362452256753351
-2.2986763493679288
-0.6606059720631207
1.3881108172379484
-0.6342590058003018
-0.7128162256357143
2.082246684516724
5.348029537678969
11.250329806474511
3.51113462287007
-4.097216786097512
0.5099719276056278
0.055757457978730045
0.605082063516778
-6.012184094152676
-1.2601281719155701
-1.114549018351203
0.8887772577976462
2.0268254587828034
0.20092647493050805
2.596793170572977
-7.15143450458465
-2.440427785390701
-5.5444447671054355
-1.8701541460270052
1.5190497244866386
3.5009919225728403
2.043904878003337
-2.538904812344246
-8.096025798219818
3.936262067108921
1.5993463171911988
-2.743282517555616
-0.5424295358086159
-2.2867476421257833
-7.10880150654627
10.291191531182273
-3.5549315115784568
1.2550575081773865
-3.0937282568320077
-1.3471580741881846
-8.612192189724007
-0.9093599907755133
4.406550537752722
-0.5762583493451627
-8.013609638063572
-0.5725503442034761
-3.449094408162129
4.84038562397573
-2.529627802915396
-5.111090614144916
1.646266845934163
-6.39378764194952
-6.784321135637303
-1.1045247036226733
-2.034537209766373
1.2892408980011343
0.8810516445878145
-1.1643885685979798
-0.9579942576816994
-1.6324807732916966
3.766009583664672
-10.432503084832184
3.0901464747966747
-3.7800113564932043
1.7794475534359928
0.5312914507147369
3.7282152264126145
-0.041036432577502814
-9.559618680633212
14.855142882574468
0.27178272690638733
-0.5165380212508417
0.2562582737865449
-0.13662698792050668
-1.472252256110339
-0.7673003594023791
-7.180307904669134
1.468262896413207
-3.6446682290484085
0.004331502586099128
-2.1288324349965118
-3.604542536899521
17.242010371440774
-1.606881804733893
-5.006943057278624
5.664490195429736
2.1302412208979256
-4.948482583251062
-1.350041523064596
-1.1434517523041268
-2.191031514015318
3.299993132971656
-11.970271123431813
-9.170713983606472
-1.8904381912844939
-1.2254813730778387
-11.497021731975419
-2.095929452876339
-0.6617016124997203
-1.0220151737997785
-5.190036831939081
-2.955650180929991
-1.1316291907108782
0.24598467502273522
-2.4396838762375794
27.851582763824684
-0.06359754605674145
-3.385766109085442
0.2115964060062631
-12.586994938938837
-1.4759726034726088
-3.475095020716339
-0.7005516376329193
-2.572948759544042
-1.2801580403022825
-0.4726962072635612
9.333084558874383
1.6747846979469627
15.294857430698428
1.354582888130844
-6.34961908896904
-2.0534949540637752
-1.8989199256322247
2.2324038704655194
-2.001168255472464
-2.8455475079657564
-5.697015089409911
-3.276789317316274
-3.708092860319388
-1.5353269253196562
11.908841550664771
-7.117929246260884
-1.6499412799381303
-0.9755967259290537
-2.0656484987168224
-3.853955815372639
0.017563362538388583
-2.27671952313097
-5.967004717168301
-13.332969533026155
-6.287007666062631
-2.795839213978015
-2.2525956214584677
-5.731653886269556
-2.0113657428879645
-4.479403148662661
-1.9021293274285846
-1.2873066263337678
-6.420536002587965
9.94272347591569
-0.9242502811501981
-0.524298110218957
-1.037156917764337
-0.9662710002970955
-0.6127789618464101
-4.284425004898004
-0.4016468140212562
-3.1611952835686434
0.7284671750431
0.7696295742261209
-4.306563622308433
-0.8944089039519815
3.439003316289592
-0.3600836257075605
2.352421181856462
-4.078058780067392
-2.4153770619928543
-0.7874012926681949
-1.5965160775357916
-8.66436063231523
-3.940470475262438
-6.686980502143417
-0.08387584741169578
-3.748123399155974
-1.5639077035948514
-2.868605239236837
-2.16715172638202
-3.629253352438483
0.9505780383188611
-1.4733134904393366
-1.965115112618364
-5.067666240004913
-0.7293746566984429
-7.57821770818057
-3.889849537629941
-1.2699471170745351
-5.139734579767235
-4.602907837478757
-4.169257594348139
-2.7289732287359754
-4.921395244465272
-4.933098106156359
2.93917865750869
-5.699470439191266
0.2705008053690771
1.4802463593017976
-1.574118560882135
-6.893327193185973
0.17647929219879285
-1.05195902005813
-1.389883530165634
-1.524227389542349
-2.163857622473135
-2.0168524020595373
-4.341079612879438
1.0857410090209407
-7.126402506435359
-0.8544549882726221
-0.5630936945335786
-16.49718451241008
1.482959729100062
-2.87905893725468
-1.6673804811175663
-0.4023673313752269
-12.43745878958607
-1.0984790912392925
8.439645970724797
-1.0910007766054912
-6.197040578537177
-2.3448169090091255
-2.8148499311003143
-1.9307142131387287
19.80313407619811
-0.41530797217262533
-8.33745647782626
-4.38635238859916
0.42386051934486396
22.973884349467962
-2.601335855939797
-3.098430547180976
-16.22399394162886
-3.679351288413868
-1.7013885106678666
-7.710450840500115
-1.925204922774359
0.18542198496119355
-3.16583982517947
-3.091944293594448
-1.5690127506646379
-6.136261698353788
-3.505037366229621
-6.477065568017136
4.8957473591610485
-6.307482259648004
-3.2254743337084117
-0.8547453544975598
-1.8241110856705098
-0.345639219402652
-2.5088594068791674
-6.878243908139342
-1.9194811885684937
-1.5705171325063922
-1.6750081464256403
-3.261191785991288
-2.0802615375766718
-2.437687437803333
-1.7258563884099587
-1.4304760485459318
-1.1095331901655485
15.602468672894073
-3.077362835113798
-1.8058595573544962
3.9096913817532872
-2.02391109709193
-5.664233590464029
-0.29273971004363186
-6.427468932442513
-6.791801478098579
30.88539001284434
-1.7360431618842418
-1.8003813017823769
-0.1159643704023761
-0.7302619167380433
0.21117797232701596
-3.428389867939931
15.502702808974519
-3.413698960711549
-0.44490554309399744
0.176700140803411
-1.376067970760357
-1.1329357286104846
-7.745495676775982
2.809208215054457
-1.4135424058485897
-0.9780214417881872
2.85936998027944
-2.326916265474935
-4.041161297000406
-6.569853687719737
-0.6865817981283369
5.253133984371931
-0.914717089111989
-1.7898813025866385
-2.271842250847122
-0.5830162260981192
-2.385066020651236
-7.592085137219732
0.13930207398121847
-1.622715670943529
-7.291396770988764
-1.077374632193798
-1.4351003731500298
-0.32360996226632155
-1.3150572155140305
-0.35887237807469413
15.826041387561162
-0.8704844651689972
-5.876029020939009
-4.002799075493712
-5.819748665720849
-2.91725602516459
-0.5398825668535391
-0.7930379372444869
1.1620952340066546
-4.90949332396142
-0.7051248767451337
-5.74380902211462
-9.053488810153743
-1.1917420938024859
-1.0710677576540266
-6.195111102454755
-0.6628375345741407
2.48908779121036
4.425716075559798
-2.8192513987723
-0.843642016725535
3.1888944702948003
0.16185941048411528
-5.984619396579143
-4.30786352248485
-2.520640280557727
-2.8600217483747334
-2.6117337899459816
4.071200025463033
-3.5550116034279644
-6.547710197733175
-0.8063082182149024
-5.781894604190361
8.1862513658211
-3.387557874041003
-3.811197486997045
0.43711200720498605
-2.325410826676884
-0.4853377659347853
4.006081012586144
-0.343337474340769
0.7026527174725443
-1.4214417954846552
-2.0188216143019804
1.6479491501398837
0.42695351766893447
-2.258714027577131
-1.8328071677557316
60.18175698484608
-2.4815992616002522
-3.9975731527039082
-3.1903848786229743
-4.9323141897676965
0.4097816641994254
-4.01311657565066
-2.8616118113631446
-1.1834283833483301
-2.2830845075083404
-0.18468160830608152
-0.967456209674197
0.2537196936326802
24.816509909183765
-0.5849064518334601
-5.070621966909141
0.13495991744132335
-6.82572823953335
0.7907979922365601
-2.8008610561282343
-11.229677707151238
4.256611421313372
0.6713477956215229
-2.7769640202942663
-8.621607910361979
-4.942747708547528
-6.372599377123637
-5.888445287643102
-1.426391932139834
-1.0476127760823624
-0.3639604992556478
-0.8155112141182883
-0.9062282051135943
-2.027365575502188
0.2689810409312995
-0.33975021025837093
-1.3818630317910294
2.3166909316162987
-1.9746591192776057
-1.2486876883669629
-3.0797369266127963
-2.7438780096666213
-2.114068198840063
-1.6039871871478792
3.595879636723174
0.05214946945540142
11.479801767650029
-6.137211236081718
-11.986559929011014
1.7354795234493412
-1.5230276859885756
-0.04954791509809826
-4.5336189828450255
-1.2903853651681043
0.8675212724130825
-0.0130416117962159
-1.7138114289285629
-0.9766335460091476
-4.647922407454224
1.1339990864122689
-3.219576281541859
-4.496506961086799
-2.373948476815279
-2.405428490914243
0.8582837849299901
-1.869477440123252
4.1294569679623105
-7.622770787571174
-3.3276320634911514
-2.398082072032013
-3.4573632327821184
-1.000068611160709
-2.4292731219407115
0.49682222002955756
-5.121932077588334
-6.061974530829328
-0.6387694234114653
-1.9582465001227334
-7.489250151951715
-0.9893190443255392
-3.643639052222336
-3.457248216436903
0.7371931706362651
-4.882670629899264
-1.3854470584689489
-5.7144894769848475
-3.2529362380157396
-6.318803094594817
-2.2388867873583465
-2.1173966664043706
-6.4236618008859745
-6.910911994728852
1.786089389607897
-4.513722253805361
1.1550470672682314
-5.079284415124239
-1.3790430386761692
22.75686219634729
-6.3974955986273265
-7.200555935770793
0.07570047845153215
-1.6927082424103974
-0.3644114841530189
-4.307735977301304
-5.818562684507219
-11.414816007355224
-2.565968481509227
-5.188588458331056
0.4999713884591036
-1.6739363159110936
-4.9207291843195
1.4557127353691783
-7.554524515698391
-0.07185284880824051
-3.7351325199475567
-5.3265579210602105
-0.18922133414206782
-0.4328484500338219
-3.4024186718611547
12.814858807365109
-0.44299443366152835
-1.5931050503728512
-3.967095193821799
-0.6931670051986037
-5.054337446124139
-0.8223334735216644
-1.3294130124117236
-1.4457004398784887
-6.607033505586142
6.590271552098055
-9.619393991185548
-2.7734106765369244
-2.814907056704467
-2.963013927981997
-1.1414889595265805
-4.33319352836625
-0.6825298026565373
-7.200173047485369
1.3739242816565105
0.8704424849131112
-10.704027335684929
0.6049136542870563
-1.9178723973469547
-16.836902284408723
-3.4730751196927447
-1.9125643369475787
-0.2685721935007055
-4.886422851792784
-4.5528396003525105
-3.441328163765909
-1.3805175086390578
-3.1219159586780414
28.74762874977532
1.7163014471136244
-3.6472253604654
-0.26827133746796833
-23.535194593410004
-4.3054378912153926
-3.917687345481963
-2.673319497035475
-1.4421113598920319
-0.32350076768692254
-0.6989810570303865
12.994521115039815
1.5648524107633068
22.231606688040266
2.4425151926117787
-11.481597475446229
-0.63865745548641
-4.868624610150425
1.970941916945581
-3.852557760002558
-3.1587279448909498
-5.126881516276846
0.5631985598367371
-2.5308094815288418
-1.5658485292341993
18.98330952860242
-6.922772469830312
0.07738509701478599
1.2549396396300103
-1.543442737030842
-4.89184014893785
-2.4407207517728664
-2.758318937727071
-7.760930766341138
-16.614668328725624
-7.6269939337993975
-5.082629166123752
-6.778424987231475
-7.424728541159365
-4.115362329414266
-4.260493235515787
-2.312022017653172
-0.4897162202894529
-7.92459782927437
12.825756133405626
-1.4478769426745928
-0.8473644124531774
-2.4063469290790795
-0.2844728424665223
-2.893134519389831
-2.7861042579400497
-2.5334604701818155
-2.648755879785881
0.2993486680150664
0.6127483160030223
-6.203311464862142
0.7803312587715484
0.030204658108140686
-0.35313939207582
-2.1408155954685193
-2.807424825419688
-4.636038006778074
2.917378685560671
-4.946546742939843
-7.44637493860441
-3.8528914857278527
-8.215151711894427
-5.320944835100834
-4.990063399751143
0.2392767155456012
0.054826951598652446
-1.0926688161979603
-4.917962609762246
-4.365553036243901
-0.7843219629188762
-2.630199950534907
-7.514948079702919
1.3382750609975873
-8.592497123386254
1.0692071142950488
2.7486076501963805
-3.5059309150219455
-9.427347213614444
-1.5841264588678319
-1.9368118471488045
-5.93600790768715
-6.272627367209625
3.1801587851094113
-4.775538121927024
-2.3009955812645515
-1.322024715901436
-0.8201349919660634
-6.532259652212289
2.6426274918782946
-0.22576698758824126
-1.70400708612238
-1.7489224406738644
-2.223757878274987
2.3568907012953564
-7.257475140013073
-0.960337403942142
-9.284481176275236
1.562898813571026
-0.7116600391880459
-15.363501908507265
-0.4319775262994596
-4.04289189292747
-2.1159816532499405
-2.604577845362003
