0.9563815975516052
0.42250165937430145
-2.43435650282538
-0.7485611864410929
0.02311560406748576
0.8667000254538854
0.891861249500124
0.030154073946356306
0.36226840086776513
-0.9353412110998036
-0.3980401869223958
-1.795043681934105
-1.5222433354667593
-1.9505980773054263
3.5006285031221864
0.1445383326989069
0.4323435971864171
-2.5566180421341853
0.6789979688180753
0.11498400567255382
-1.4993609833929193
-0.28220126384135585
-1.4366491407219166
0.9223054631735356
1.6425316572065114
0.5513415168133846
0.055617100091425155
0.210247793286703
0.48477049527811805
0.05073642614030606
1.1089692474227049
-0.18682325730395474
0.31792251954291545
0.26703306041342506
-1.694330615314443
0.578681639248437
-0.5027030515616475
-0.4701392312445491
-0.030449451551841724
-1.2035114188621
0.7242461507537336
0.10063904096826504
0.013477050680139244
0.8557579103849706
-0.2923631094504703
-0.7434146089745147
-0.10029601908502313
-0.859586870059251
1.2792630098505977
0.27334542332666245
-2.2526407462332974
-0.40069470718092987
-0.7193593696190511
0.7763386853021955
2.344381249837374
0.7190768642279703
-0.8974367846134118
-0.6538566501698763
-0.105941902864885
0.8313058845306917
-4.7768848768805
-2.7993471837356085
2.767872285167356
7.263807241543876
-2.9196961359671887
-0.8308384235605085
1.788372528327643
-0.6328204699072054
0.7246716065389592
-1.8959382857110587
0.8809364186943744
0.7595939665255305
0.08862253011745327
0.9125297048998048
-1.1470949972908389
0.11542348087371167
0.42954926059717463
-0.08565289447340807
0.9429404692022997
-1.677326277132042
-2.7075311863144513
-0.3370781073358699
-3.5663659915759083
4.146331596209744
0.6209354397319742
0.12859393095087432
0.662561704018623
-0.5061250646334992
1.6493904997983497
-1.234660557017364
0.4553329105663534
-0.15974969224243551
-1.4335648528694853
0.25157907025731063
0.7112241415729568
0.019711040829837472
1.3735036511982146
-0.7284962632626374
1.0406024105646052
-0.8541384529946996
1.0515341813465786
0.6639722037508906
0.7705695002839852
1.0407128218190749
-0.2733028122802043
-0.16563528061177343
1.0945944880089817
0.35681876278459324
0.9437416792571149
-1.0407068614818253
1.366663097200749
-0.26133291408343384
0.24763168979771105
-0.7694650908762443
-1.0822385684501659
-4.05163125005706
0.5376854300218639
-0.26304530776411744
-0.2711205971054616
2.3714899634185285
1.8607212955449235
0.33032173661202785
-0.1104392034144707
-0.8139056441802256
-0.9103221986896011
-4.715578563461785
1.7662577492746319
1.8761653407386594
1.2639921116313062
-0.4771644813682336
-1.4540579670044993
0.8006589416879952
-1.0990217157101605
1.2147943262919945
-0.8935105371771139
0.02415824674550448
-0.06875314266313483
-1.1028615556299741
2.868338449875303
0.21978004531561524
-2.5942463542198375
2.295936688159481
0.411044630493158
1.4183452164512982
-1.6064496015219696
1.0193785337701544
0.9107285218500606
-1.4240726114950801
0.7841529902129587
-0.12671049893608388
1.3811815424835578
-0.19800926888016718
-0.44294800715714544
-2.0570183551472634
0.23911824787806837
0.08657978948173083
-0.15445480199931066
-1.7312155119784254
0.1014634313117739
0.5568899609987912
1.2077757336456982
0.934459117148066
-0.2535014237413044
0.7303832465125892
-0.1390131836231058
0.9672469248269596
-0.23410739734796812
-0.7824400422817784
-1.228523946723523
-0.8885127800424573
-1.243200240160543
-0.8175450817543327
0.879624579171024
1.3108696394607549
-2.4266948136774538
0.8167143784588492
-0.47536450264595703
-0.09127708504549022
-0.25586888998990787
-0.6832625037671919
0.969098996210777
0.1921908951971706
0.4607573457811863
0.7028745049888088
-0.04197275378200109
-3.6460872652638536
1.993235782852439
0.9577563089617515
-0.9447045663464279
1.3123422344507303
1.1573194575272512
0.8225662168485012
-0.7568548704146709
-0.8575873804737338
-0.7848530781799167
-0.02394280401936294
0.11368689854798714
-0.7083056054458071
0.0691072763166475
1.65958346921638
0.5457574437967364
2.049485301483702
-0.2834349927347315
-2.0659927900268653
-1.388834813726265
0.26175999604953926
-0.2723097191430282
-0.6638826742395576
-0.6240052346410188
1.3923646848228473
0.8261620891796836
0.40498785330492343
-1.2752457421639172
-0.13701456683975327
0.6541931600212001
-0.40323352656393824
-0.4789733757149959
0.7309967808421005
3.306619114893001
-2.025957214447459
0.2972745659151754
0.6995641828070291
0.012992846265803715
0.4842731807296113
0.6748527215488371
0.6795956806307977
0.2987080154894647
-0.3671769521755584
0.5783417163080445
-0.4039961192238735
-0.9808074235743954
2.001579508635834
-1.6135953877397977
2.9853962088589476
-2.6310167112923204
0.28224338566729645
0.5592005002863298
-0.4616636979824547
0.9880982778632648
-0.9445558957641511
0.5532094872534449
0.5157301958602089
-0.4505545958432394
0.3388883371594998
0.8092227132089813
-0.45014005138616314
-0.05306376112368848
-1.3088666793114025
1.0552139575311088
0.19929915891605
0.4462120514298715
0.19248788531086955
-0.38390587073366295
0.6456344089624675
-0.34779493649816345
1.4096162286302272
-0.09348196521015122
0.4918828483034006
0.7041501663751307
-0.33287105125840427
0.58390310679704
0.11172959154824048
-0.3992740123275909
-0.42153462706688766
-1.1955455393654308
0.57326119834559
0.15906903920357413
0.09687062592739935
-0.27166739829783804
0.29904179833469424
-1.12616776085247
2.3916907953930044
0.027778745804608134
-2.0806979151057305
0.8318058495877795
0.6221261616299829
0.44628675237771553
-0.6703365696003108
-0.4067362187412733
0.18552805010259957
0.6692063302933903
-0.37174790478883774
0.6437538310325878
-1.133198507773128
-0.41975381120126126
1.2969909185783621
-0.1352796020323658
0.708119947089469
0.7615606622047145
-0.3416554609498959
-0.23502031866083387
0.7990249741797399
0.3951364775311712
0.6718055475693611
-1.0807850311910463
0.02750997861926784
-0.4296901518655897
-0.4229465432125591
0.10115504974066107
0.6573788424668058
-0.3221612897314861
-0.1020596957569785
-0.440620798585786
-0.8670267059743271
-0.6005758997254569
-0.8546765130558268
0.7547608643368453
-1.333222419751562
0.8918101510709019
-0.8966180255740154
-1.4315556418190825
2.1011053373385766
-0.15210343142929042
0.7159592600298782
-0.9988224929534548
-0.3171564549649134
1.2335435900180496
-0.7921815031611015
1.1077924448502674
-0.015087612465999585
-0.30813345375562234
1.0203552005685512
-0.9436453103393901
1.2831958181355019
-0.4480773017790397
1.0839297460529997
-0.03659444719451341
-0.9976565489099778
0.508571556652413
0.22596487194373072
1.1413922206549996
-0.1089277538769219
-0.008617310386719977
-1.8827567230268207
-0.023859515211586534
0.14789007702175672
0.04647170542277191
-0.5440356784916628
0.7991780931854932
0.655762154469024
1.351077669739154
0.06347333149078686
-0.3074119139043864
-0.2382615950068425
0.7280546235902005
-4.17351354789203
-0.44164764131062234
-0.8997253776015534
-0.2178092014029102
6.896312639669616
0.27804852894625065
-0.5758415533739749
-0.2794524927684105
-0.6429569160776611
-0.38192587559461744
-1.2453802480102287
-0.05920303413676387
-1.2922020805867038
2.2444467629708686
-0.37594693856128836
1.0393421578368418
0.4724663258218731
0.050881542819531854
-0.7748815982491577
0.8614908835438985
0.1655357596511846
-0.12366142876263486
-0.3538153624841998
-0.0038012935126866096
-0.870201292465609
-1.197091940585389
2.0513625881262345
-0.6440629315916674
-0.6764099065643455
-1.8753840973034548
-1.3713348253508644
-0.23959228056607038
-1.9101337403830587
0.7654512102056811
2.4317978581271973
0.8022528979015108
0.9399008548297567
-0.30816916827128865
0.4132827896781538
-1.103176191015193
0.23610094055345462
0.7264668678116319
-0.13625901961329862
0.34436765547065035
0.8279732402154742
0.27204853819913044
0.4335192021953228
-1.4619677777786073
-0.4530513974885295
0.20556659047540013
-2.671303999546869
-0.6739709160827152
-2.5154396907633814
0.819740942278608
4.383203719517971
1.1964635028276782
0.2806521251854478
-1.7156672423127957
-0.8912501691764769
0.7512687708497214
-0.7549002467605682
1.0569797425024197
0.2684284329833462
1.3298090213379468
-3.1646530463757596
0.2822234330707322
0.1811081530130132
-0.516795663589981
-1.6902616189018644
-0.6135214360923917
0.8034617649511799
1.1698959666449709
-0.3250278629959955
-0.6787768232881056
-1.570388648966067
1.2699327818298412
0.2998983360647141
0.4456985949490641
0.9904007212100137
-0.25107147757364934
0.5297471883172631
1.5316696692293634
0.934390971112302
1.2159391963438666
-4.014793802295767
0.4381073434912621
-0.1870254602995286
-0.08643127714408612
-0.5639019026992602
-0.47630755529934155
-0.2390420167765547
-0.7351691868812434
-1.98714110129791
0.03809617643349099
0.9924737887621683
0.6435395540477875
0.7035702832344056
-0.5488880422706194
0.725621680226033
0.3090293107591058
1.179419407700717
1.448597182741872
-0.0852160750941433
0.7465103528415402
-1.460626431016792
0.5379972393768215
0.36770874850171276
-0.7276278895478504
-0.43173252924684913
-0.22955837431895668
1.159730943118323
0.8514952411099946
0.4501645122517775
-1.3909070887274153
-1.2912119949628253
-0.1389666347741659
1.0720962684489792
0.9166111994011142
1.7864600309138632
-2.0848306568224664
1.0607696798890718
0.7084313691703055
-0.21655138381533712
-1.8659921703908293
-0.06261714437887604
0.5099081545793286
-0.02407619519629168
-1.0848802631421177
0.8736815771151353
-0.4245620796568334
0.695135038368655
0.04519103756653289
-0.10575368500668561
-0.654736731704508
-0.9028975384905146
0.6674061525297674
0.36325774076846024
0.08296322398338005
-0.7806758932297463
-0.3125327759380434
0.6105456691111684
-0.41047990907474596
-0.5540786757802937
-0.42826038722202703
0.2598608288821989
-0.012218229958208978
0.8921151464920274
-0.4003349523298855
0.6984659334026101
-0.9588895836165197
0.49332121121896017
0.37189170729850024
-0.8491295560746043
0.08360068196942075
0.43095841874757185
0.792261948092753
0.45290690339272605
-0.268888975501562
-0.3053186683214722
-0.0801650101496132
-0.9458924300099991
0.13087800598181465
0.033004411872559244
2.7214198836070693
-1.8884123809302542
-3.561667425433613
-0.6447449747885032
-2.672826374635493
1.0091487254823726
5.522779677457005
-0.20564384880535647
-0.3920370384891523
-0.31737927197218485
0.0013000319050879283
-0.7928363481675536
1.2687996473410332
0.3125440971189298
-1.0833470815070123
-1.208567002598219
-0.8846874012512235
1.8921165730843295
0.5113646423441487
0.835026367188897
-3.131047116569009
-0.02765322639114432
0.46388415508667896
-0.24533196041948052
0.4221970198548579
-0.22962837853859033
-0.11445994225063048
0.20496176594373375
-0.9371286086042986
-0.4028916547828197
-0.26933018758109484
-1.085614054291866
0.32039520908722935
0.958132026654044
-0.8137719387486102
-0.6425813651544954
-0.34653862665550983
0.44429509650222637
-0.09814677144800081
0.0408831923742245
0.39270398989492267
-1.228827833182696
0.024111926775665777
2.494505171105863
0.7572162980328582
2.2388271210752513
-6.548285917389974
-0.8269516207001185
1.6604306967683284
-1.480504791133267
3.279034276156183
-0.384817025152279
0.018703206198850134
0.4796637257659609
-0.362661723273647
0.9822139259907322
-0.5166281112123009
0.960754626080581
1.2496054565903416
-1.0386285737108238
1.434179375363508
-1.9254638876964358
1.2784761447647597
0.1531082295888866
-0.9054451674483731
-2.3543767258745087
-0.5496074255760672
0.5735406078499765
-0.14480438961281344
0.16988378862373582
-0.37391671681532546
-1.0979633927768508
1.7982181193286402
1.9920865495947964
-0.9962053180135687
0.06919239640254343
-3.947725776142079
0.4596070403672733
0.7762371150294919
0.499711354241422
0.8202923322994373
0.5659886487364502
-1.2405547899467944
0.6215008426578145
-1.1519145230056174
-0.7777252326614464
-0.6282144098710709
-1.339004167050144
-0.5559497255432176
0.961021817908628
1.9336683450455285
-0.6589147038098773
0.07239048039855131
0.20936034088167013
-0.5730886012928338
-0.3752492745166529
-0.9504590942621141
0.1879255125935853
0.9695166046688027
-1.7645701701594125
0.714732043697567
0.22594265971477903
-1.7823087553537318
0.48437036821901014
0.2955915793142678
0.9494844334995836
0.7665036008516349
0.5742181929047009
-0.2807932640583181
1.0157634935773205
1.170582539142641
-2.2501557899193925
0.5267892493543155
0.1664627410258497
-0.20145159721639058
-0.36636793930867095
-1.0845699867949896
0.8682928363664245
-0.09998958025088599
-1.5531689587293942
-0.8215145423143102
0.142760716631699
0.27798531118202574
-0.4339340294614568
-0.44288485999801147
1.015777325121839
0.18080705398363056
0.5676590137262333
-0.22987020034642502
-0.6892219376073494
1.1700218915917369
-0.7178946904249961
0.8252702625275361
0.12576811188957787
-1.0127151169571522
0.8105605705474028
0.5453755218019256
-1.9570424901888082
-3.670156242161221
0.6238156232367248
3.541983061554365
1.6513121723258417
-0.8046752953788343
0.06712342573751771
-1.8383523946507474
3.4571142175600533
-0.22601264433142917
0.8909257505184679
0.454964679948826
-2.1357655732938827
-1.021725679716664
0.28153024374067975
0.43141445020564123
-0.20443807412631726
-0.526832710036648
-0.19322111775774292
-1.439549947857282
-0.602548784863249
-0.14643185558955574
-1.9982548390421635
2.492346622950152
0.6726667831950023
-1.4463737610866243
-1.7260491199517196
2.2668082232365947
1.2415304824111335
-0.48109283916459195
0.7191731071290031
1.6390377700627559
-0.7862437070085341
-1.8434458513363658
0.6750703071585864
0.9470734079001805
0.49173030965220277
0.46481700885121113
0.393033886372586
-0.17951989449095232
0.1631225728917025
-0.704367748191202
-3.2904216854387327
2.805687669958137
0.33748647167757007
1.2536171898236053
-0.04166067659947752
-1.0677362302571114
-0.18336043937384108
0.6584992564257255
-0.18705058243592082
-0.4086800150743963
-0.6168495703226036
1.213196435912486
0.1407164766116764
1.1086829613812885
0.45414579931562665
-0.2948833805802477
0.07827139784841326
-1.0331585998802248
0.45316061232037314
0.08512176207065805
-0.17015538482922182
-0.6109552002570768
-0.21458978397132158
1.0257478250532006
0.7233024817859282
0.5745363759523434
1.2106060675972994
-0.237668994456133
0.5244364355132429
-0.2744373488733221
-1.5081103500835458
-0.7318563006472303
-0.3302892644263563
0.4103091602453174
0.2836752467181275
-0.24570808087444918
-0.8985983031625747
-0.3614504018097514
-2.255978565668662
-0.4872295357192299
-1.5603826870716606
4.677719837362198
-1.1617201465766607
0.7216938788358086
0.08520289565411573
-0.2703230869308403
0.47436107357384233
-1.019852744741711
0.1273663341085886
-1.2683169491844883
-0.9461268535103979
-0.8627339825747926
-0.5540239910877675
0.171715168609369
0.39979525279760064
-1.6826456721234024
0.017507099280483863
-0.34027312924870656
-1.9352651681725725
0.7401667349722225
-0.6057890717485411
2.1131232797543578
0.05766124151184898
1.777501433448087
-1.1055960049857383
-0.5289139626493454
0.25037393293626553
-0.580810105908593
-0.30186509319187993
0.7194594740050114
-0.25782491522988954
-0.03295800307001627
-0.03436086816313796
-0.1361849806350965
0.6716417801445614
0.144256390267982
0.6469064941808945
-0.7588294520922388
-0.17644750084435673
0.038366603873038176
-0.5034669405917349
0.2706630443460727
0.49720801859099006
0.2425744493431685
0.3195762502657871
-0.88278618544387
0.4233775033996684
-0.00947526199452175
0.8123194586159566
-0.4819163718938709
-0.05423714987246119
-0.9125155607420458
0.1747107206743464
-0.029467443442913105
0.7139800181529182
-1.0324737625486167
-0.7992501992756756
0.9517674964034623
0.3041573851027671
-0.3712865509705622
-0.014840581782914072
0.8816516083436956
-1.002505514881463
0.2021181833925804
0.07366784055697695
-0.19429263492695598
0.04948304122966132
0.5004365340387297
-2.126266346376585
2.6833244267757643
-0.7391577316582966
0.2213884146462466
0.6549885193096123
-3.7498696242118186
-0.33002841170005376
-2.014068273972365
3.996806289956703
1.157286345430359
0.05649967890922435
-0.6107314921708659
-0.4677922438767345
0.3656619869576949
-1.3429719863297005
3.756479494398769
1.5899523538578269
1.0973148293892347
-2.751047624248472
-3.1788531512303964
0.1916533399900048
0.47088556099762946
0.307662273149858
2.4774990027649846
-3.154774307931473
1.5996303837360408
0.12496080810142396
0.2769285877864963
-0.6435754910952813
-0.09034119014614717
-1.3766974303849528
-0.31038058630359805
-2.484903611476565
0.7024781379273598
1.6120871533030696
-3.9367223835578167
1.327815377019861
1.56342863761297
-0.31819872802472676
0.936931767749094
0.7503692954110097
0.19318638398818674
-0.09581783102970862
0.28371832206449044
-0.5716563376381119
0.9802941589924624
1.203408292868418
-1.2438327843195685
0.4670323845964415
-0.32130178033349077
8.302570299103225
-2.5317617116231586
1.596476653947889
-5.400258099968619
-0.749822755886828
0.17275872543713985
-0.15482934048755637
-0.3396246795796923
-0.2687007106875848
-0.37516937290194435
0.5628271583989384
-0.001391190764874357
-0.610548253587504
0.18325932278963344
0.41781516179686373
-0.3026752275941841
0.05827083116037148
-2.1380485531622484
0.9884500059610797
1.2723166686659544
0.6911245676641079
0.17415064800173052
-0.321337248648624
1.00997391324226
-0.19999609500687665
1.2811476639644666
0.26277529797796373
-0.20336220532847096
-0.03504579391055735
-0.9011842387973616
-0.915912144949606
-1.3132516211435414
5.463350688585137
-0.3865886611857878
-3.952676241941049
1.0073827583708381
-0.03912784865735218
0.35574224103318886
-0.3192237829283355
-0.6005641706493821
0.6546987032882774
0.7623370749382569
0.5117925102456484
0.5885080406708683
-0.47807462385893373
-0.10702734782565285
-0.7039260713335121
1.2813110948546884
1.076827824919628
0.613356888050609
0.524067837146902
0.40962959379766956
0.18480455712657096
0.7413242665634632
-0.7625578015906379
4.416997226990388
-1.1552396852702507
-1.1853405781376434
-0.8045041316727493
-1.253896260732443
-0.1717571595248173
0.3379673088956534
-0.3808213131601952
0.3879459443022858
-0.729245712951386
0.32688612349263846
-0.4789638798087203
3.007698525885991
0.7612645357476134
-5.3239068879428055
-0.8060577943646342
-0.794867301040384
-1.3924520106312932
2.9898597846024355
-0.873731213886552
-0.6279505500592785
0.4937599861451913
-0.7117999015947148
1.9600412977111574
-1.4233339939042473
-1.578955932732013
1.4604467808289219
-1.2645577273984707
0.9096128529999378
0.2589382569366347
0.6257020655685475
-0.32762743758364216
-0.16686338197464523
-0.7257235298502472
-0.15213939245414104
2.2446876757773406
1.6888932824803846
0.7956603027951826
-0.3937018141668989
-4.936043577122931
-1.1606869644731337
1.3212201774408232
-0.9861500976115983
-0.38787054649356184
-0.13430274678086768
-1.4960184486437078
-1.2289921641731907
0.11766365222603897
2.1699784436150567
0.5905557612884973
1.259095450200285
-0.37281257080725916
0.5615122031061311
0.1612717064739515
-1.2418886750565383
-0.2673930410633166
0.40073753222535263
0.5499358289258942
0.7755903672174547
-1.512832884390781
-1.679350282913953
0.023511135080445087
0.6833312511991715
3.7614191128353096
0.17243925869444268
1.0241255734981107
0.3098426128528371
-0.43763919343427643
-0.850702496702398
0.6845444749042262
1.2759354429175058
-0.297783125544437
-1.3769110422145734
0.43822529106051455
1.2235718647536518
0.6306812217364441
1.0379046953975222
-0.4438462281822007
0.12133869545665824
0.447790201824297
0.4340958560775596
0.4235804323826305
-0.24626204513752092
-0.15627877958998332
-1.6470957084344076
1.2158114670419167
0.8209580053325465
0.7227769508016259
0.1494487931350859
-0.07192254103728352
-1.159307709410596
0.009708644114772272
-0.5056402298389635
0.9410798176275968
1.0878309404910351
1.4270610338658825
0.8236604469215092
0.008229837943396707
-0.6558505799880026
-3.2169253182517314
-0.2783069634162334
-0.6415619905392929
-0.5561908746226912
0.13236668398408774
-0.8042466150646295
1.0960087903921627
0.39873518870212526
-0.9243245894978029
0.9161768169365987
0.24356960224657453
0.1879429645241722
0.10403190492761569
0.17850019339537013
-0.03458434106781789
-1.3721852905039669
1.6005596593991236
1.2000751228417228
-0.008097505778047787
-1.1108078414561642
-0.5492630124417536
0.3099672551837299
-0.056930420399471354
-0.012049893756609042
0.10828590414102414
0.054068068830642114
0.7921357606202877
0.6964585338791147
-1.510916514704179
-0.6667392120238526
0.2716208341132308
0.10321292838632164
-0.9182418423977503
-3.00806283787136
0.055139525331983824
2.206595059230142
0.25362060561719785
1.2575145771453755
-0.9480891140614385
1.3387982400549105
-2.103078107626797
0.8928378908303561
0.14328259343313693
0.29517757662038085
-0.5455226264405799
-0.03743440027966424
0.004347809278354488
-1.5552616752789257
-1.3852526281275321
-3.398092996964329
2.9125715183952043
-0.19859599831890581
0.19524391805643135
0.9008795608143161
0.9382802396184434
-1.4459963917664818
-0.5971303900183484
0.012116002260366427
-0.6353456223496005
0.3404949978613961
-0.20706461746237007
0.7121566783871919
-1.1789463715117534
2.063236788471162
-1.3704984161927507
-0.7987092973772105
-0.03854333020150126
0.5186576694139773
0.6918849973093438
1.4210162137652003
-4.043866449244894
0.9769701082364848
-0.7372666538230261
-0.9036243776348233
-0.7783845685988577
0.3722686611184718
1.7689848504474672
0.9923401717489114
0.48265323038170393
-0.8201783565345858
-0.5580532268192825
0.8635272478528934
1.217721596454332
-1.4419035025906595
0.14083414303679465
0.9864370591798298
-1.7806165689333049
-1.0744719514635703
-2.0103129635594614
-0.8507927349554453
5.799663622166917
0.18377439747345461
-0.036809674684807184
-1.8305926331592293
-0.3941638338821017
0.45200398914251744
-5.639310836608138
-1.7318606868692556
-4.50057635715726
9.960051350553414
0.7962662627932678
-2.3675252211678357
-0.4588961655887391
-1.9061129155815724
2.1270331300176335
1.077819242406795
1.7909289933310963
1.2968442332601293
-0.7360682956642649
-1.3291882168989901
-0.4851872391614218
-1.800962929814467
1.1923287897033468
-1.3980430685129024
0.9569512605307026
0.4707215014271455
0.17319914231039293
0.14930794378456394
-0.7472067727170881
-1.22056628177791
-0.7906572260608191
1.2716723208107703
1.049965334245458
-0.893325466323956
-0.7722485949180358
-0.06887763521085395
-1.023783404261191
-0.3287434617087892
-0.35472560162860006
0.9138140101095445
1.6705320058747615
0.8748517624858484
0.36902768652281237
0.1377949480847206
0.9474604833162296
0.35861090146225916
0.6968556474981341
0.29468694349739993
-0.9580471233125911
-1.5786337505845423
0.6740712973640351
-0.12844339395152218
-0.11337421718639376
-0.27657853984115444
0.40193832794604895
-0.26519701058375295
-1.4011043221553594
2.4486653445250535
0.39316290606154325
0.17902725896091753
-1.8363162449975319
-2.494815974091766
0.2798119352198956
-0.9271259687009915
2.6813510024769136
0.21674346788808593
4.760326611729219
2.040841467941964
-0.7072612660554765
-5.279387778434976
-0.7035274419578464
-0.3399093047568865
0.8264188705359204
-0.41967400805466815
1.8105896948358315
-1.738691358073334
-0.683427923283605
0.8460118073418887
-0.49990818225335204
1.7451023478941214
0.5386005975059209
0.7927561939857363
-0.09738967958045176
0.31089102362964205
0.5179431209803134
0.7561803468977051
0.6215486449183623
1.0206374087150365
-1.2059652792451376
0.8351682047039449
0.34835088806816195
0.26899443924029226
0.8973935355057973
-0.3265858673445879
0.05301980609002575
-0.22525770547594134
0.27523104784553487
-0.9700939747411306
-0.5381292124051031
0.6268890680419249
0.5871732849830125
0.3615014361500334
0.17531697742109945
-0.8250238752211476
0.21007943395311604
0.29501267185229824
0.39618042152287825
0.2478387008406811
-0.1650712964053178
0.5872499683252399
-0.18038317150410355
-0.7246557825942305
2.559359760734783
0.8644297338914121
-0.142404543483012
-1.422328004480019
-0.817793664215452
-0.2536169591654553
-1.2729507340488166
1.9176274100270552
0.32069520036292454
0.10288369286206413
0.34363468697902416
-1.0730367711688507
0.7803545172717281
0.5700945058583727
-1.0263070224745068
-1.2734824648916978
-1.2636248887695685
2.4422818898531586
-0.6215903132061844
0.4024655099506764
-0.23764945996287548
-1.0355708433057653
0.39092372089246097
0.21137820948368696
7.081423631645034
-0.22765891231857982
2.773215377161378
-6.790980119631357
-2.306904108244715
0.21926972275726322
0.994805683156838
0.0693845752647758
0.2966827642108479
0.21192208170243645
0.24367677858556044
-0.16206895285329379
-0.5993309589723259
0.4030824433928975
-0.5570242853112084
0.3881858389973006
-0.7389643909650112
-0.1427686035096832
0.5937767830151782
0.3591902330083363
-1.5602035009762052
0.004131890782931485
0.36959116022110616
1.2625501941298651
-0.15188163768691304
-0.744965379922736
-0.59349413133981
0.9750544987813506
2.3074783931280227
-2.7877470707861343
-0.2853106486839426
0.08437867192986853
-0.8686650542841846
-0.005123733865578898
-0.5450829755086104
-0.6974477642383379
-1.2921989415021777
0.9191102494599559
3.2758592109976106
-3.0357124321323514
0.8184680115776594
0.21392373381212976
-0.29958556213125
1.4035425365302572
-2.130172022572318
0.10642805773853509
0.30995073956650004
-0.17392413856272426
-0.07240251403916151
-0.6239084732491343
-0.7443371796417283
0.7110408766591486
-1.1183474505957134
2.2094771758040412
-1.2440871406492997
0.29571047103049164
-0.14352762953381046
-0.22547242559109323
0.10020091165091834
-1.6166014458654954
-0.4956785075485798
1.200673304568211
-0.7907586993243343
1.6396315146066092
0.002077429424834129
-0.03646143960945147
-0.3287455640739984
-0.35014207456934676
-0.6051051703282836
-0.8520900599180626
0.12197867956157052
0.4639358100263698
-0.2808205604947607
2.3443763951884473
-1.8957374977509478
0.8689638845317952
-10.607444862699095
7.054050551192661
2.3910666199173867
0.1721559106503849
-0.20354651429491066
-0.2906511870966567
-0.7866103570072958
-0.4256774007201431
-0.42162153999597685
2.059782295381745
2.752623338200894
0.23290853797646935
-0.511375533232127
-4.442209811536367
0.7071552598681377
0.046100994336415235
0.05668347358898604
0.20947490711581374
-0.515267252664552
-0.12943666826219974
0.2719683123559466
-1.4100623739002367
1.554937639350982
-0.501768720591338
0.6421671667222159
-0.6787494086045766
0.1242328238875097
0.21053315458956806
-0.23613408960328627
1.0017434940626904
0.04604040927661981
-0.44276599262069727
1.117076467851179
-2.475531927965853
1.8029352375000833
0.18668780335165247
-0.14110993176465106
-0.5310890267668879
-0.2829337586348823
0.22119969455800165
0.1596560164578611
-0.10257490350466533
0.41451410747242906
0.24259832475829554
1.1319976806726992
0.37626502739212564
-1.501681882301813
-2.4565930419035555
-0.15557464988376205
0.20904866960623583
2.1871122643672978
0.22599948037966647
0.3049059415674203
-2.764498668010864
-0.13523990419456097
-0.09416531650175693
-1.253753920378199
1.0704577026612223
1.5893087582071759
0.7588132945785152
0.9322461610820003
-0.7509475304764298
-0.10211066448390582
-1.0096608602256962
9.364329338575313
-11.040629452407886
0.7342437245285397
-0.3443958557954055
1.9216577938563464
-2.8122951031612917
-0.3064488790391847
-0.8934183618949142
4.322327046348618
-2.3789559639874303
0.7778873209367789
0.05576105133049728
-0.37044812258689364
-0.3836268813325058
-0.36778857780421736
-0.05730172879823214
1.1468001722561416
-0.4854158751148706
-0.25307375569102675
-0.7629282904391331
0.16384380814249716
0.5179972132963306
-2.207177159857533
1.134743982397047
1.1953224418737098
1.383279490066042
-0.47797106222800717
-0.5298931012445466
0.017303407990679462
-1.1044254419514958
2.3779105842380215
2.4017832630922706
-0.5543716202819483
-3.245798841742601
0.04826770967075441
-0.12341410619220149
0.43425219880132565
-1.966352764131061
1.1748766817968033
0.500243407510252
-1.65088728799855
-0.3556578108365227
-0.23823648477065332
1.8557172413325214
-1.3304161314255845
1.0493667751762574
-3.7771583453282758
-1.5255285545241315
-5.972722612203231
7.983842675168691
3.2189182599407973
0.0052010885081697576
0.9783531186817263
-2.8995394063993274
0.22261940290664264
3.4825110220809594
-2.2619633541819546
-1.218979189754863
-1.091990387910977
-0.30702646806854167
0.41767974393825186
0.25925447692262954
-0.29204327641442174
-0.5247991453663255
-0.18263194788021594
0.9497843931423904
0.974499441324042
-0.5208237853743802
0.6061488119612292
-0.4388785878495063
1.1211304949659797
-0.25734470491678185
-0.2692845775460201
0.37875086624122334
0.4818969833441512
0.9702033776003316
-0.674382614351422
-0.19551098016165205
-0.35092302099563843
-1.025064674339699
1.2977906475084457
0.6780669075237542
-0.7590213355740842
-0.5924548347727084
-0.1898000602588389
1.3379933337032723
0.9885195990689457
-1.5061666974919365
-0.3034349257692473
-0.6032390667697832
-0.6492716669778656
1.495756903868444
-1.5404055631622708
0.016143220734602337
0.03859761667676513
-0.6578708233135877
-0.10551882855368819
0.2463958663116795
1.2021161522305597
-2.727358699845394
1.1575982650765901
0.965061732309547
-0.686542765009598
0.5643502677618187
-0.4622663719289455
-0.8110285182916892
1.4312515715447585
2.002575662424804
4.150360065637197
-5.211394980553094
0.23784358825670035
0.32509184311664563
-0.7598523185691394
-0.45213802380809054
-0.5362771268646
0.2381793558331944
0.43260608251690236
-0.5121874674131395
-0.5818403067038853
0.11133054859755943
-0.35289906344910493
-0.6016041529900811
-1.255952857430537
0.4052539161234155
1.1163075290786668
0.23791776532673004
0.4953444346302222
0.2092845441628549
0.19862122948742764
-0.6904254139088086
-0.40043199074985064
0.4009159747666538
-1.8091812075047904
0.6413059884706338
0.7861303554912988
-1.0760355597683395
0.6943414068806151
-0.6356668468895976
-0.841178162225155
-0.24773742749931393
-0.17788071285566884
0.6852252044373075
-0.16091809937286758
0.627968460641954
0.723065198919867
1.8294212979094895
0.6763596046075899
-0.4127891249865779
-0.9546538524728463
0.10443259813330345
0.8305250803710057
-0.1328961168817203
0.32532645878825983
-0.33520116978387643
-0.5325690160599179
-2.0303198280508643
2.1130948865769494
0.15484842552869219
0.9323548299677892
-1.7841956739999796
-0.7717128069798534
0.5664212434644491
0.8725018584675325
0.3038051795390309
-1.9978797742323804
0.6851797618339267
1.1142741390749393
2.3635277042858673
-1.8035316682014846
-3.918729383211886
1.1118449475774166
0.2659813107396818
-1.926446558407425
0.492369615238629
0.12042763253759524
-0.9058385981346824
-0.10656598443067794
-2.6610319264650153
2.10265872872182
1.8816180196033037
0.6898477222366307
0.2807693786634901
-1.0938280505800488
-0.28723714376767223
-0.27841654512052677
-0.004240412621972372
0.2003914074918182
-1.2273776180826188
-0.03440190875110397
0.17124070251853604
-0.34437687670130246
0.18954512383693045
-1.1365868494828568
1.4472256424956227
-1.2265414753907098
-0.5961263051014906
0.1998556665161931
-1.0880270816735622
1.2165430814426228
0.4894542470520487
0.6098132867864245
0.333452787830596
-0.679249175283578
-0.7967562768754303
0.6645520964733134
-1.0044818915454008
2.741791153663655
0.6282878887371114
-0.17976334806772148
-0.4539496221363713
-0.5494886667908666
0.8089202155256829
-0.807706561855683
-0.5868736892736953
0.28502775474225545
0.6031790351988092
-0.021314567812010916
0.011004184243226519
-0.512604875123504
-0.5594215460410589
0.40124639272716606
-0.008178544143911191
-1.3022155476579693
0.20057576250174897
-0.623861186567602
-0.4049996333093849
0.6269486598879358
-1.1975014083052375
1.017133966504018
0.2936103118009177
0.688258303860055
0.07001310558803947
-0.9831310794600067
0.5106249168761108
-0.605126022854461
0.32664794609824616
0.020510943222340275
-0.42483812240574126
-0.03820268138942296
-1.3028729238607302
0.49395858233318574
0.16554597369696428
-0.7813486372721147
0.06799674369004813
-0.27444942123630794
0.927155122092257
0.7079638486860571
-1.2349838000376814
0.13372730082174167
0.77355387278296
2.1985621885822018
0.17774086384498197
-0.06125067608889047
-0.47058277511064656
-0.02728262782661833
1.792728219956139
-0.9384873701888339
2.3497432134630074
-2.8804822697161323
1.025751613214987
0.5675224387949428
0.1792249898091113
-2.0041058993934677
-0.2334948504099255
0.19199945621500264
0.8071337565074307
0.5601043761120881
-0.22793555925676814
1.2308357995324142
0.723434348411707
0.9583913788803602
0.09898060742473029
-0.5455207555454896
-0.7931074231360603
-1.01053943799196
0.4125978311977227
0.512063483266093
-0.0850525923674452
-0.4931153582298983
0.3877032023316555
0.5507534093254274
-0.2247780676274092
0.09055206908212678
0.29896251896152315
-0.8127977718593812
-0.0972614372364216
0.3616069087700742
-0.48042449618637256
0.03468514854016665
-0.573300512240093
1.5609387276408926
-0.3571950040335549
0.33857899658915114
-1.2822925182125668
0.5132907896534786
0.6740663373152723
1.1629576732058904
0.9318453030282569
-1.279814125649984
-1.8996202782979232
0.4243000194434847
0.19728735781180612
-1.0379643644525967
0.7920591833835037
-0.6431921073590607
0.31673119653737314
0.0678357115614563
-0.7022483677714414
0.3189786740807668
-0.09563826378520618
0.7957632866120354
-0.2246128073317324
-0.4904534629991672
0.1038552481482158
-0.477961841885956
-3.237301672951584
-0.7368178750013733
-2.733511101557753
3.0331256548805983
3.2640294420012985
-1.2848638415639284
-0.9430356879172456
-1.9166495771651202
2.5846908164790987
0.09829557066666017
0.6449082898724158
0.46872079749348716
-1.2556672503837503
-0.5651447328174001
-0.013009232960796317
1.4441215570741979
0.244684971140945
0.09038945749885602
-1.7639493364842564
0.22997973184803291
0.9047398245871265
0.340326761590017
-1.5189989712941343
-0.712345045772019
-0.20553493341018267
0.8953401785438121
-0.13813539600736313
0.13269135575265956
0.6165381380090168
-1.0712575858547393
-3.4052405976475377
0.8488432799057436
-0.6819660662204393
4.024586205431287
-1.6397833052627946
0.7106713567153399
0.3009396844981541
-0.11172631379400286
0.9124140289020659
-0.42901394408653704
-0.5688738442249659
-0.11192765712176049
0.828975699372639
-1.5324937427086447
0.6860961052407413
0.49966237621026555
0.3180147894704774
-0.3007485316372197
0.44311524286560083
-0.5586577846988617
0.03534754853369144
0.045274819360855235
-0.5034493874513685
0.10379394399687704
-0.716495261388058
0.8507648455249517
-0.4529348051261746
-0.4764194719622047
0.40989219156865997
-1.1213228203185783
0.7350681347421028
0.8118147146521731
-1.0299662559750753
1.0053579039849871
-1.0193566882967153
0.7177834822740524
0.22548720181486545
0.1947357344044623
2.314224704553477
-3.423187944334058
0.46097340471079173
1.3729490306337166
0.09305000729579357
0.07811204855543548
-2.375290109281493
1.3672731081988483
0.4490021406095694
-0.21683497262648574
-0.4367190406284291
-1.1103995156529483
0.676675208106089
-0.18490149004292772
-1.1831693978241375
-0.40512939856329727
-0.17445028040322738
0.3557084540183476
0.5247847044001345
-0.28205003641557835
-0.3499397306231575
-0.3941473315105155
-0.5607869415881429
0.4225868174530298
0.6025804322545926
1.81406147856654
0.15828361931458154
1.4847140620235855
0.6267013104832285
-0.5384310869627814
-1.1171629008106638
0.6459398098478134
0.7007865354968462
0.7979593825196595
0.3146078627181536
0.7580488751337486
1.0389626113367096
-0.45484383783884574
-2.220085062415967
2.7954691382635186
0.5839574886893127
-2.004450552206258
0.7440435681529207
-0.16354945875776658
-0.7146532378047141
0.17511290124225992
-0.7420906631499905
0.8357547576366162
0.010513065678523895
-0.673316059509411
-0.39312129405004503
-1.5752967392727395
-0.46116470602445137
-0.7022643150347289
-0.4494727001012801
0.8175993244026726
-0.4623235248888069
1.0923037349691467
-0.22944643380751986
-0.5255067995194004
0.28462935862120103
-1.663303991362134
1.0127986431905316
0.5234453193682815
-0.8808772930163761
-0.08759120788337516
0.21625208861131526
-0.17329829078063413
0.4029146970789427
-0.6693168993793609
0.5830187194345289
0.8520661961220589
0.3859780758548947
0.21405372516898738
-0.6834331671976566
0.046097437934340325
0.4041977179979
-0.21090885457356548
0.8167453419069478
-2.0253420016360977
-0.601284400172629
-0.7325202304677522
0.5275438132629657
0.2439093050741631
-0.18446845894240216
0.06443065213932218
0.36656049474647634
0.8755399487249843
1.8711430758775112
0.7620458161274197
-3.4656961642410233
0.011333136102034692
0.35413417622420845
-0.9162224281059919
0.23714311817472009
-0.3913320026244524
-0.8966874478873489
1.4331943347459943
-0.4022068314851771
-0.9278435971175177
-0.2367524326483091
0.4924989842641832
0.6608448506600196
0.1768914819649146
-0.5809229622210705
-0.014196546100154884
0.7689618934348592
-0.04015071506203135
0.039072012870854766
-1.0691209671206563
-1.142227634560798
1.478821367714745
-0.5748892054861666
0.6332854073892485
-2.0255132914949914
-0.1605036523154279
0.6479648232865053
0.14891547882608377
0.9867788608348678
-0.8978338583457802
0.4197199043868855
0.2954213717432967
1.1055091244695445
-0.01189122196863086
-1.3758896402205465
0.4309292397460174
0.3174898294021765
0.9842816305924119
-0.425047318335099
-0.4868580784529582
0.6503086527059444
0.34056663517857505
-2.3420356841698102
2.5397211525089394
-0.4472959910456694
1.4157342434851607
-0.2711654592907124
0.07608790656192127
0.8253623350193321
0.5791366958903554
0.5818948732551154
-0.16845364253703957
1.2374338060954035
0.9534899575982301
-0.8775843007215289
-0.47377418587064435
-0.22796877799250362
-0.1628841920491482
-1.435734354672692
1.0769273350563116
1.1127117148417234
-1.8632977333456766
1.3455071589681336
1.0485223977509426
-0.8329522865996026
-0.6413714929592811
-0.026256473538325605
0.07674094901701205
0.07677445674522299
-0.19939776944629403
0.4346041548958335
0.2993694052685165
0.7802800222457124
0.6993123778761221
-0.49559573041959737
1.704270863053177
0.44386519278329667
0.270699650927522
-1.0794579874579162
-0.33604664370753207
0.10980509285682902
-0.5254477166340654
-1.5676134061276321
-0.5584119506650771
-1.936346854015882
3.066632282944952
1.544768947747744
0.7527681572103758
0.11215772230036919
0.1752914826342386
-0.9537428982069756
-0.1510444088724053
0.9726170320108308
0.07746392735571249
-1.3816353329132125
0.3669404058684255
0.6987673086226431
0.35375151256781656
-0.13495103662510027
0.23459727369314348
3.168075333668278
-3.378561939259419
0.6570785827888646
0.1416874599833931
-0.7768844007765103
-0.11309813316012048
-0.6099701287062824
-3.5078822639203833
1.6261359734429595
-0.2739523458971487
-0.9135778549701637
3.3015317743528865
-0.15152684203965733
0.42521065038075484
-2.3956460092392886
-0.09855602511814837
-0.36843536901165036
0.5264092651427718
-0.0709813116862579
-0.11038025361600738
0.11855573528378381
-0.8485444561526684
-1.1180143454377456
-0.08996108820196819
-1.249046943089147
1.4234828147103717
0.43236871690267176
1.2494488307460303
1.4449904978545542
0.3396944822337015
0.08620277511399801
-2.669194290205803
0.2400896249689215
-0.5888895158744514
-0.3081704980944433
-0.6931664923776288
0.3097128391896831
5.887594819856795
1.744498139195572
0.8200169808554715
-5.800049778851533
-0.8361692981996837
1.2715030778496204
0.06696664936758476
-0.033152520142132526
-3.2451822837791817
-0.2546837873032992
0.37597414662514456
-0.08306131307828035
-2.1721733303923827
0.6914607895117867
0.017452488450556147
-2.0666407535476465
1.240904999104097
0.37625395035905995
2.457976483501294
0.7940484340367506
0.6069687844897839
-1.685757610089656
0.6455777041889429
2.131446971113592
-2.0001807553414754
