1.1106089288688976
-3.160042579349542
1.592389785919554
-0.042657083275962404
-0.009383137969914215
0.9392008902162844
0.21862024790522294
-0.4314986407511335
0.5163647800323069
0.9825678736891039
-0.37497938741440495
-0.30319783336837897
-3.4380739408847694
-2.0990916364874894
-2.0561173455705752
-0.6591259940566996
-5.867131708834591
-1.0868846046121912
1.6252231088381253
0.7688816379051303
-0.8626915488834718
0.29369435538802496
-0.7092882318767255
0.9293985577982867
0.9882967757123616
-1.2464537427089883
-1.6748416518401505
-1.9418598478174878
1.9155647869034973
0.9207103939759846
2.29970005541252
2.0067488416183994
-0.1455917270857171
1.1314198528327302
-1.1583297588304713
0.018881363686029058
-0.170782222521788
0.2770578719411054
0.8389714122727192
1.3516636254346346
-0.1964907323800896
2.6244422269322203
0.1678794089597142
4.071966375427808
0.07716681102577636
-1.0511692963067871
-0.7190636354918369
-2.342530543283921
-0.20264147388953938
5.219461734271256
-0.7529039250933974
0.10346199034474664
-0.7579157948858299
2.528168283257512
-0.4769561018923985
0.5234557292646859
1.7878207252782627
-0.6382449650427734
0.22331740369261266
0.5387661036321342
1.4707400751310256
0.8140849374311576
-2.6430516621022395
0.4311053804247888
-0.7751164109625419
1.2370485391926118
-1.0010183569923765
-1.1722888522935924
0.42815735091617524
-0.21287236774307866
0.5517149429689456
0.8523049742509028
2.0922417548742254
-0.14897177003845954
-3.0203368955233914
2.314144020134304
-1.6462698471645263
1.1434846544572197
1.7776716537787045
-0.012703703884362061
0.8564360628216848
-2.3651479781432614
1.5836893378236725
0.563306493228233
0.21950660654395007
6.61113379779974
0.4531848596873252
1.6194533821760508
-0.003269083813780681
-0.12185484995100047
-0.14707963935222806
0.6010321342175723
5.098597857683382
2.025460922712266
-0.6789427603104531
0.42743833954396737
0.14346441615306715
1.9777907092439146
-1.3110559031986468
1.2303151168536768
0.9205760447193233
-1.1706967169215923
1.8218239223087629
-1.558422158888026
0.7282368811023536
2.123270496496488
0.36665094564228573
-0.0838568494653668
0.37930443635007643
0.17691136064471302
-1.866916074160629
-2.863971897271323
-1.0306873214890147
-0.065605293027042
3.030488936619194
-0.35101319195731145
-2.0013532099972093
-0.3052457831974768
-0.95100747709662
-0.3192548402498642
0.47057713447351607
-1.4320256028326495
0.04972737075234622
1.466541352267562
1.9718748449674643
0.5217887865483805
-0.9078771479941867
1.631570291230378
0.51508639024116
0.6562807592869668
-2.0475497548503756
1.7987636004444654
-0.6807855681458249
-1.9477939682425327
1.5669874324282542
0.6849377582798495
0.7346875614913313
-2.5635406608348528
0.5823560564239121
0.11579189114548703
0.10147397332003774
0.0906370816746636
1.7429606679434386
1.0863015952444335
0.8097345083252706
-2.350919610908902
-0.6936572065643962
0.6324646447703453
-0.9448687158940539
-1.745122742217655
1.7111841325611121
-0.5998575729560418
-1.2124492198422863
-0.19399115602465383
-0.4889132314227392
2.866764311665258
1.6443073966316826
-1.1748860720530638
-0.6625188720546943
-1.0438585329417902
-3.785991378700467
-1.0714962526069582
-0.6155985303345368
0.6864514565030172
2.772678533033969
0.6803421948457848
1.32407029292354
-0.5236518001026059
1.9120102908402454
5.055514083575165
-0.41670711527003873
1.4489043755342712
0.48196668522538727
-0.591357084431403
0.3346583803110002
3.54643116458038
-0.06582094531765773
-0.05566403862297357
0.22642955994706057
-0.62113032121711
5.23805035038118
-1.583065603954538
2.5516070916679556
-1.7158968215697514
-0.07480611776444968
-0.8578711191613109
1.6584471534170215
-1.611158075347237
-1.2612519018560229
1.2445234264400444
-1.0696788914367943
1.9416024011128592
-1.7667211737554804
2.0399792356553776
-0.8349817639438971
1.0255288158798364
-0.13091905910588345
0.8369880380274509
-0.03636204100614298
0.5893244412429282
-0.8312018778764301
1.269247705169094
1.7650969516215116
0.6821916900356795
1.3890977913016358
1.2746992324542343
-0.3792588562845603
0.24357263992842335
1.2023788842013934
4.391490021166157
-2.367083782093322
-0.40793451286549787
3.5662520365844403
1.5142420671315744
2.2955507180326804
-0.05821880782839146
1.4113036391702087
2.102334245034827
1.4878946916973432
-6.34197787557076
-0.24435971661396624
1.45271141108417
-1.1448695799186641
0.5347129656305788
0.7077484604008046
0.4712703661238965
0.24707367935995014
2.0162022560434503
-0.10715084782922611
-0.11130137085680736
-0.10631700886442591
3.3933181093905804
-0.9385633747207343
0.6051422608383535
-0.13366826929693623
1.2449869857504536
0.4452921282307571
0.8309358416247514
0.823454572456683
-1.080673194158757
-0.37950377527788787
-2.4552985605853834
-0.8220401917582131
-1.4839196930325294
-0.10936229042518579
6.763573014691836
-0.6661262461239104
-0.6566924714611766
-0.15799738160403082
2.78812964624548
-1.9589148718973475
-2.01101018272828
-3.4706175317987724
-0.9856524467725695
-0.30897966742572336
-0.6580027802248289
-1.0127133692105332
0.5071530561724564
-0.519808717712967
-4.8829143813951115
6.950897112864539
-0.6064090189415092
-1.1464026565381686
-0.5721095531737147
-1.380944860410419
1.044683036832104
-0.7708220246141159
0.8049768220332199
-0.313133836509644
2.116653203761447
-1.1448412397254402
0.08823338250704577
0.9998655786731768
9.323960761375092
-6.29627262138761
-0.3881123853365285
1.4471037053224494
0.9402102146452247
0.7482149368582202
3.4677596146603107
-0.45837705658359196
7.506812898787771
4.918932989299101
1.974469169526453
4.251354065697587
0.810033923765807
-1.4699871973160916
1.2684515883938883
-0.6974392736019457
1.3338504253964942
1.530746111848182
-0.6323155313220898
0.9560733645919922
0.7923049477232389
-1.6883500698173495
1.014871395284011
1.5982291127224448
2.850285461758853
-0.03470485427198016
1.903871855374602
0.23979627754234453
0.4237680754217732
0.7219648081700739
0.7657718510558397
-1.4692254639420452
-1.501594942637194
2.1815866467500094
-1.1551213213655847
-1.9500120775206256
1.356319574882356
0.7675740742101719
0.009328651583519858
-0.1128518102282395
-0.1812169254586256
-0.5072249518965338
2.3945320294111823
0.43193539213300486
0.401986238143505
0.4363012162647792
0.11455264290771762
0.8551117111126216
-0.2096001679583575
0.5608678641709508
0.8661383337015912
-0.04234716353031643
0.6005347871840907
-0.08229418812718987
0.19388349709781288
0.8872313470572512
0.5825231414633004
-1.3378336402103423
1.8121627415699355
-1.5954938738906257
0.025232197349505693
-0.06043035308110796
-0.3042928452776923
0.07700903465868922
-0.2968622775551384
-0.18464216825422972
0.44600000922400473
0.5972536087061522
-0.36918781194417105
-4.561928416688149
-1.490811993430094
0.07360021804259315
-1.1101267332520732
-1.4187237353690842
-1.0297804476639276
0.944038105198025
-1.842906183959611
-2.2524398200731324
0.9823622150554777
0.6064673593463334
-0.15682243401401802
-2.451449947678497
1.085906562311122
0.7751050838425185
3.7608594718699404
-0.9027673144183923
-1.0324800924105064
0.053089989659468664
1.0407351538653313
1.9392066545391218
1.499616405537186
-0.48391113079885145
0.3114086332762083
0.5122397218709116
1.9791215602594483
1.972190948328641
1.3530002077394292
1.0821556846122948
2.276876461187247
2.0695980015713955
-0.04434568148826017
-0.755355487541865
1.2941391659683423
-1.409254804304854
1.4467673855475227
1.8496827538491776
2.628239338945964
1.7604758106415885
-0.5891727039216323
0.21484310575187415
0.6540927172938634
-1.9350136706372036
0.7690432740464767
-0.946369712691882
0.4998873022736868
-0.9541773272475221
1.0417965886836067
-0.052628617400760185
-0.18449293379422918
-3.2866508051106837
-2.0855059293239115
0.503734468055978
4.227768813819017
0.1930309100109217
0.13108140454105502
1.131603560732407
8.683742934393338
-1.7828648468755146
-0.9011640001146525
-0.7181778920463967
-2.2786799931584434
0.37861990242791965
-0.13503706803987664
0.5654793827250237
-2.649747877631329
-2.76514163112946
-0.082677835506867
1.450262720211037
0.8033969277199238
7.390414406471413
1.608955925276277
-1.7079491880303481
-0.10460699190809307
-1.6523536266682513
-1.0878690484436064
1.2544553578867916
-0.04492776201622932
-1.717740321384549
-1.4238836227533131
-0.43788755645995664
6.73862988978604
0.41168562036730544
9.012921401567311
1.6625430818583429
-2.0485647076052165
1.7582284703296247
-0.584632223411336
0.3238913089583457
-0.8749921505912066
0.3729893323360762
-2.357420714625595
0.1555666441148958
-2.9322255131463417
-1.9213349773632928
8.974096133073049
-1.442027174925138
0.7092865613679099
-1.0258262792445996
-0.07980617191611934
0.658715655541952
1.8491320565243612
-0.5556396467506757
-2.1286244187677066
-2.5051867622407
-2.4053851648519986
-0.5875219139953473
2.220002221619568
-2.488728620798426
-2.944256422746391
-2.1036037403793473
-1.5308536082841742
0.5977444726356517
-2.245678277948121
4.755340559536195
-1.7211830616445938
-0.9903196601643514
-1.8435388627765057
-0.3443695111257121
-0.046777698556893725
-0.3737176087543261
0.4930722834069618
-0.22129737125606624
0.017003212615633763
-0.757376854844845
-1.783500799965726
0.4702379762347369
-2.2837769464324125
-0.45496047096730013
0.425382934642776
-2.0798014009316343
-1.3551902776209253
4.357414601197937
1.1978642031316111
-2.6694466173675204
-1.376633858226227
-0.4424399332783439
4.0791618699415135
0.676485027985253
-0.3467714143655751
-0.09361928238958822
-0.5942494993021856
-2.611229656414845
-7.684126297241503
-1.805526883505899
0.37282544748406443
-2.016184518000397
1.4811212707721315
-2.9363017856630838
-1.014929653287701
0.9983659376220003
-1.5696633222708927
-1.7638615665243211
-2.526749368763438
-0.3773776047197762
-3.2105070715565924
-2.858301490918593
1.8169704666013096
-2.3555523085875985
-1.3620740775359754
3.890981590764791
0.1538694022257784
-1.7812380619813564
0.5268232893574213
-0.44376374743973995
-1.5091219969759504
0.9222227768874498
-1.0751805298151988
-2.009399240442563
0.9684396734769473
-0.27385394328855306
-1.7785057526135817
-1.6024937138589592
-0.5992338446029206
-4.902496703337334
-0.5961079126376101
-2.1262573791831816
-1.127206105981219
-0.26352091696322727
-4.153147868559628
0.6546094205487893
2.79506351609279
0.16952478727693007
-2.4604765736198333
-2.3365236196697117
-2.4133062292460017
1.1434296714275973
4.6854504683468345
1.3055309391502914
-2.306488785385469
-2.3627524450380166
0.08981596571903708
8.205508334663385
-0.030540538440665097
-1.1797650436945777
-4.493735084330326
-0.3103876087715132
0.007209604710672319
-4.312346707755232
-1.4472695164242708
-0.014981113385293749
0.5128410626131316
-1.8823713646200393
-1.0628947623683618
-2.876682673164435
-2.4264914108158195
-0.6927118879367038
3.789179428018622
-6.9838290974793935
0.04894603235299843
-0.8758645273881256
-0.3583037326475181
0.6959431643133137
-1.349601653066389
-3.639370211569548
-1.5328426691694241
0.2546792872606046
2.9227192184454096
0.5726630827987842
-2.2748662361450442
0.08139837876239392
1.4536565299063142
-3.4609848666470096
1.7335672203091628
7.384686200576106
-2.768953811880683
-0.6487500689384805
-0.24425527822438123
-0.5855209925953757
-3.227644964343122
1.5741601889082306
-3.757066754839686
-4.376958280934779
10.590954749327794
-0.19577296245871406
-0.35323181358063815
-1.1972723531800415
0.42057686596991345
-4.395422333472927
-0.6167949950224925
4.050322200329728
-1.1508444278533658
-1.5037763738985972
1.8844145843658728
-1.3718446809692915
-4.14878356303393
0.9161318792721954
2.8220876390980103
0.9829850425571891
-3.6522528950742217
1.4675732510964323
-0.7656059265334905
-0.735794372070277
-3.632407321088428
0.15389442207666323
2.3687143547594287
0.6918471528474366
-1.5426218276335135
-1.150436835271145
-0.06586764795977705
0.1506122184690622
-1.718304606864842
-0.4487840579370958
0.03445293928098169
-1.728213021921929
-1.0830406596384563
-1.0086475315378618
-4.028520724693497
-2.9775671887980093
0.21896433048775513
4.7563752208088275
-0.1745840526105688
-4.442850006710397
-2.9170457719728793
-1.6726507301591402
1.1745507585695267
2.2235596547598035
-0.45210066450226655
-0.724623701452804
-1.5465481016273082
2.2850863569038804
-2.5077035590414827
-2.9418606156627067
-0.8964220522080247
-2.246589231011482
-0.7895383307545184
0.09965715286988883
2.4952450277635476
3.308251001805946
-1.1571896136262658
0.7985789630785698
2.944983079262759
-1.9253214551315156
-1.8028937171602673
-2.0894428176296334
-2.8790155897719214
0.8874323082183849
-2.1883864742279115
2.937165766053923
1.7071281767341886
-2.3561423118957556
-1.3451470202058458
-1.752424701254645
0.11208271234190641
-1.4537599829014873
-3.2607315949562583
-1.0770965038985039
-0.9627548361479616
-0.19511283943518046
2.9336216601710916
1.760807647834251
0.4520072542622344
-0.40985051975255804
-1.2424121460725022
-2.6713796787777446
-0.1643123679518705
-1.6148573863048414
0.23251559482396508
10.284980248992118
-0.5948061457857993
-0.1796699421096645
-1.0948640188064034
-1.804318996723435
-1.0890128247626798
1.621369703609635
0.7578008568976478
0.28561501255132654
0.32677787567162025
-0.6621517586445578
-0.9525231621754003
1.6125967433388877
-4.5329987405144205
1.3522911986860655
-3.114955508745761
-1.3210674605111319
-1.4062621637266206
-0.6036043404945346
1.3679539701817265
-2.7556649804279654
-7.833926454471214
1.4024417553103683
-1.3246361854808162
-10.211365880003592
-1.024259252291529
-0.9225166813114053
-3.0680065012649225
1.3056181596965148
0.7479680594343746
0.46400602254645185
2.8635461821497503
-1.265589845853357
-0.452581256841597
0.8808266221266586
-1.0060112789458677
-1.111324071701867
1.8096859841777078
-0.9484556596208058
0.9379330779756847
0.08748066529648793
0.16041060670975738
-0.35764958573984296
-0.6975071308330616
3.9225879877185656
3.3142675483523534
3.696258481039832
-1.8012480061218346
-2.226936526722163
0.6766447498380374
-0.615185618529489
-0.5483140898070478
-0.5411541130781903
1.436913934484076
3.373046242875685
0.13202708966432153
-0.6149943610240473
1.1567434249535973
-2.057124434724061
1.5232520138676944
-1.9396515565553312
-0.6794981914384209
-0.2607079109467486
-0.4673729989461169
2.2815769670430925
-0.418873133422764
2.1185670059990147
-3.084497881738268
-1.1823735594223197
-2.806456166381605
-2.2735858405809157
0.012743293527121259
0.8495234313280343
2.1598592010172695
-1.450205637040589
-2.591975820701703
0.7502514915947984
0.6262919194673048
-1.9040710131967704
7.09400217567555E-4
-1.2096613987909963
-2.3955824541880992
1.4495038799854887
-1.4667987541703713
-0.5392326344008018
-3.0240775452952446
-1.0420901705171053
-4.053616039170821
0.49958949200917235
0.034029264551468
-2.94077396304219
-3.212911337481389
1.5238190772390265
-1.8851701082400487
2.650620301463744
-0.5132809916343402
-1.8674376765833582
6.224913408793664
-3.29976701184708
-4.7756264284764764
-1.3315047830919162
0.001997986036208153
2.033971873580611
-0.6965346550452083
-2.6881194863843874
-1.840505367562133
-0.9007390576602397
-0.6510517400208062
-3.1515340883667093
1.685327074646773
-2.0893763137006793
2.6287070045045633
-1.903187498490293
0.8873255808200463
0.8866164679501782
-3.2875546722042563
3.0104138979611297
-0.23846207641650793
0.3024406067270365
3.862776807180794
0.625939871956656
-1.0067517013109781
-1.2347043070492643
-1.6808520761264585
-1.5308759253219328
-0.5034830791213987
-0.9934095575027176
-0.7172588105527359
-4.097427718203286
5.30151172171966
-3.179157370628461
-1.7128891327575595
2.4111861394279415
-0.7964910226341185
-0.13884059784620426
-0.2413117819133315
-0.5129587377697166
-1.7142585509396402
-1.3433617465268435
-2.731577842206395
-3.5203443242521195
-3.6518189063876925
-1.490993559980785
-6.534119127993764
0.09318339614830957
-1.3876284945935038
1.147030999292452
-3.1745228713249745
-2.4364222649310334
-1.059961192379197
0.584880139127815
-0.5825796620574152
15.619811684119385
-0.67418928094922
-1.902102896670575
-1.6562250517888852
-8.594383044435938
-1.836890240072638
-0.5247351200039452
0.07212438065661184
-1.8063586077386615
0.09892013044536307
-0.3044793324319135
10.00233590865699
-0.5177276605608031
10.028962015829446
1.2624206061372027
-3.2116303526971817
-1.7604026082549993
0.8740549933652135
0.6731083769897719
0.09926854742727571
-0.8786553297141189
-4.640683483723472
-7.315082683596848
-0.8599141521581515
-2.01791748356883
10.213282821386818
-4.601793666900687
-0.8082995604857738
-0.5470633617231638
0.2632647551915985
0.26684530197397976
-1.744373099087719
-0.11206361469290879
-4.338652091233289
-7.145948975606513
-4.316675068940493
-2.1574555337597414
-3.069044675336436
-4.527066291676045
-1.8692112782355548
-4.789965661118195
0.6607351184235926
-0.6476133153616294
-4.0340130320481515
8.186762384075953
-0.3527751701131043
-1.6837733607349155
-0.34865857092731684
-0.21204308813722988
0.20434808342940652
-3.166676792328819
0.696023937693401
0.494348850258047
1.9320106540763562
-0.1034048024407303
-3.46075957574104
-0.9077222957771383
-0.6638743246303634
-0.20967680334050148
1.677201004481938
-0.7170006448808345
-2.349492439348493
-1.708856980637451
-0.5489271819741214
-6.833794554190073
-0.2834152798352234
-1.7591966642175652
4.466121934526886
-0.8775926428430251
-1.948583476929119
-0.23594503320149782
-0.4900082685119557
-3.2270201589006122
-3.2995910885543505
0.36016174239835363
0.46678719741507174
-2.588318967308332
0.835677937890186
-4.986570015669878
-1.6879691929617575
-1.8175878839057051
-3.1803378125879953
-2.937466363615877
-2.1574789431197625
-2.342901797730166
-2.52569328137239
-2.01238628665643
2.4874535738102224
-2.8481695103813767
-2.8723885972256245
5.710383822573414
-1.203466357906171
-4.012910735901386
-0.9796374567128499
-1.897139421326397
-1.3641863845847644
1.0155027685755622
-1.0829507633265283
-2.2737290534047974
-2.3886294587103154
0.7772730109366129
-4.230267803935471
-1.1037933743427626
-0.8344124500722171
-11.171259551712271
0.6726991192956107
-1.0848927687904053
-0.11264625250491099
-1.3547287692586036
-7.2691544447093115
-1.2758311344717312
6.742802496484964
-0.3165784851398333
-2.8988640463749022
-2.952570599676985
-0.777864041221436
-0.37366708364827383
12.356903521217712
0.11919092589800526
-2.5542605622237957
-4.497335264983042
-0.29523037327103474
17.122566921283184
-2.5766078154205774
-1.550564385656956
-10.032075164934197
-0.1384222508117394
-1.1419936263490733
-5.1917322204074265
-2.1516058528336375
-0.9183725040833531
-0.3886231178674457
-3.137561704828671
-1.071853971687075
-4.947534994334565
-2.045880641841715
-2.1906504945527754
2.7222925545943535
-5.075553661363158
-1.8876938129873282
-1.840067926832068
-0.23759805603183182
-1.3826698854808492
0.060980396363062093
-2.777625287786027
-1.3587009326330461
-1.789504008389919
-0.9337664454647773
-1.0981267436705808
-2.0109823468801387
-0.7539868714440726
-2.9142890902809695
-0.771230483815242
0.9100092916572324
10.914157390438856
-3.3830632678477124
-0.6039684614277939
3.5036901907689706
-1.1495963671212348
-3.7927768019858865
1.8242672261442696
-3.5085271515367085
-5.11333627460469
19.654746147057022
-1.6969631964212377
-1.9314777113382378
-0.9363700252150828
-1.0372433476905214
-2.4741098253417535
-2.4491340517369093
11.616693827326008
-3.2413764181381604
-1.3762881764426793
-0.029661649979615984
-0.09124576229241423
-8.387295921131566
-6.978719635654359
1.5419840599412904
-1.2331558684662283
-0.9306607801645888
2.1157344143468224
-0.8880580262723055
-2.03953874778494
-2.7593906850031282
-1.6395947719767934
5.291398928550279
-2.2668625263436954
-0.5898395997155744
-0.5484176198535381
1.778175432065135
-1.4495590878137243
-5.470458614097338
0.5938781251592578
0.30241390268757157
-2.2555781528249663
-1.9250874145747041
0.08363010574325806
-1.9569485263790654
-4.996039128360374
0.025872308389767843
10.55156553149831
-0.1913890239555266
-3.111367055669548
-2.9551545078078334
-3.3207508150330636
0.04725689777419472
2.858508206358693
-4.088202663607016
-1.4049668010024425
-2.392183209979372
1.5872435746808706
-4.357032681551624
-4.5632337477796945
0.08591100611772944
0.7887653410850867
-3.6173430862005356
-1.888284686954571
3.1156424606464985
4.60357291967974
0.7053363602893618
-1.5939006266893734
2.0807569904774676
1.0334768073589153
-2.764877089479297
-2.373804693359867
-0.8768505309466805
-1.202668030025797
-2.08161028360699
1.9021865046969448
-1.0162539782744628
-4.306267862426863
-1.545380104426203
-3.857854129517116
5.967017528312818
-0.5094177518676414
-3.3051812359198993
0.5012066054989311
-0.6122393484779663
-1.567229834517675
3.576895405081805
-1.5582080338856392
1.630919006124402
-0.752739125608227
-0.6854803119165697
0.44975545358181895
0.26273396275340527
-0.4228813720897028
-1.7790432755895496
37.10184228168008
-3.180794477256188
-2.1628955728290147
-2.8512385987390174
-3.0062523546302113
0.19580129127389634
-0.866491814667576
-0.06724476905862424
0.05346061561058841
-0.8539129312707427
0.004807643736868803
-0.1490934930496703
1.4863898832807234
15.010010676600686
-3.344479192650477
-2.912745913529639
0.6686463810188441
-2.329438451807102
2.58543242562869
1.3552692655963807
-6.1278063037589625
-1.5963558090840413
4.009689346113204
-1.2040013359587012
-5.764235303234275
-1.8028017510376348
-3.591729943865183
-2.966872956330988
-1.173932208951043
-0.009170168828048993
0.567267209165314
0.9847728335988462
-0.26923835643796373
-0.49956507831745206
-4.596174778396982
1.3207013766266618
-0.4455157530750941
3.1369890381313223
-1.2650560313084147
1.763098685126951
-0.5965599409021981
-0.44308819231989965
-0.005116439014423702
0.12215056383615837
1.586715924655775
0.3320078006254617
8.009328288469758
-2.4454646164223672
-6.205837892138121
3.011826553353001
-0.23827387664053118
-1.064056146045093
-2.7358624797691413
-1.401408152491189
4.4451568866553375
0.5514917435315433
-1.0393487332957256
1.5641140704173675
-2.3717872209862096
2.041861402966164
-1.20859987014876
-1.6305925785269269
0.9193951111343737
-0.337309887173653
2.6740788073710506
0.154958067699239
3.783359299978688
-4.771579694904453
-1.4989586707590583
-0.48147775613745086
-1.5423583836742523
-0.21726402570289763
0.6247894247602136
1.5420294721215269
-3.9429426497184807
-3.283150704049067
1.5829476885085123
-0.3124401184285603
-3.6415979629920803
-1.0608560500460735
0.8524318148594634
-3.483024892644203
-0.045134904160557376
-2.922746514566923
-0.0899447622381508
-4.778383640350877
-2.7012208504086868
-3.8623179633462454
-0.910602661538898
-1.7681771776358208
-4.662144095359295
-5.2094398169751726
1.6622494162519617
-2.083138603987168
1.2222583142556473
-1.843594443495776
-0.42110280215313706
15.450584601105978
-4.267523722799701
-4.949960687414108
-1.3541657105127654
-2.20686011764834
2.5804137555181557
-2.4538186483573905
-3.66079380397782
-6.2885151414170855
-2.7918783831385667
-2.39626063882858
0.7760937652997656
-0.5377092559033549
-2.752034833563162
1.963916757875891
-2.908367314609639
1.4458374583676037
-1.5995601786646816
-3.4742731161699165
2.3807632650831474
-0.021576643518113937
-0.6542338416322617
8.465682262086531
0.9849361253795555
-1.4255898726323333
-2.554210070784126
0.4864333810077444
-4.118368898607991
-1.5434288155159486
-0.7543736201010599
-1.4593214184556842
-5.768442028569296
8.356026887925454
-5.280642138686242
-2.44421573965375
-0.5393194339934159
-3.6432703037508807
-0.7035540547991541
-1.7249261013902155
-0.980560583926735
-3.0855056435270054
-0.11770639312748125
-3.1992143023333006
-2.241170734413199
0.4675377576990338
0.4901556459684475
-2.630555756050556
0.3403282703450032
-1.6799189104595091
1.0895682604843167
-2.17818021468415
-2.642787723344116
0.5409459745527997
0.2582750133232505
0.7152957404623287
6.442546222605251
1.313230284075587
-1.6843730082144275
-0.035832674714385726
-4.038874699135404
0.31646301430433177
-0.5888767691930513
0.08352528699963054
-1.950594863183092
-1.345044031505488
0.9831915490076616
5.339075419768989
1.7230942434745116
6.817177858164739
1.642817363681092
-1.0698303822798225
0.3540672997758643
-0.11065604690571737
2.0468663165053504
0.9551518817773217
0.05106277394131883
-1.685529156278671
0.30765209774348756
-2.231128994065836
-1.7721827655373634
5.307521082931286
-3.2762803808954684
0.12873924908034354
-1.486983501516282
0.5139112361646122
-0.2759925206505331
1.9734665888645198
-1.401339154170118
-3.0177586702243118
-2.47003112302408
-1.867599384195234
-0.3813707977334112
3.39861200336189
-2.810680119938325
-2.6399449474765095
-2.13696734877404
-1.3475871722404589
-0.13388204452714242
-2.3507340525838223
3.4217444527529097
-1.0595772425343823
-0.7517401862172948
-0.12373768375059746
-1.7943230007596749
0.15767787950460596
-0.7080442974832823
-0.46070597391837403
0.5247201281243554
0.7983019727261464
0.4508338810015723
-0.1406601518927575
0.9501221082118143
-0.2847825887606046
-1.7138144799824249
0.6061842322768912
-0.9929677583120886
-1.5985104329584363
2.9564178671593857
1.504105283995141
-3.463053658926441
-1.1160717494326562
-0.8231642061892025
2.6860708229057613
0.36980749545180136
-1.4129966284077784
-0.7845189349921282
-0.2820759966859771
-2.7013179242514544
-1.4266108237707535
-1.7389994284114998
-0.13577851113490144
-3.1200510014181764
0.36722571763542167
-3.0350767155280574
-1.44442241016935
-0.07057073898010277
-0.4411730056349934
-1.0663765862420858
-1.5725452366321586
-1.093265240505711
-1.1885584441375991
-3.7228082864070347
1.0549775464038047
-1.311510571381667
0.013636975124978228
4.413630464214426
-0.048126231014705576
-2.6016192422186384
0.850147827665332
-0.8086075739851841
-2.2281819890999928
-0.9346539985558738
-1.7437283841147775
-2.237074688267236
0.24680274027686322
0.018107814318003162
-3.304891184304632
-0.4302786004568101
-1.339741885671254
-5.176943750039
-0.7874090416342732
-3.0475042181881355
-1.465653639411291
1.873688067833414
-2.6517143179376874
1.0532767868092185
1.500251218021711
0.1629122141379585
-1.5034638746312612
-2.619338671172712
-2.1270151787814116
0.6259350547546286
5.510983433885705
1.9645637446930482
-2.2907073193315193
-2.6876430341274666
0.13945741835267791
7.391651668186446
-1.3394900589054781
-2.313137162307291
-5.632891436096165
0.7095528500542784
-0.01211367396613664
-2.726332621595454
-0.4782620030557184
-0.04646025103624036
-0.5143161862554451
-1.9349230870751968
-1.5376768486394776
-2.874843455107997
-2.435536116470232
-1.9142585464597153
3.3233333979659054
-5.513765456027328
-0.795910685537215
-0.7660859006086085
-0.5860440222679457
1.4135579680523975
-1.72260261359059
-4.050401058863934
-2.2137009710157414
-1.0085597327265643
-0.600813731230035
-0.17463906320224196
-2.3047095797697907
-0.20455006831306477
2.9375807354717542
-1.623461520512114
0.7278104313271259
7.913949564964214
-0.953745295555589
-0.5897753551639441
-0.10422740206891544
-1.8658298693008266
-2.4157574679219964
0.4146778852735795
-2.0899393548653706
-3.946230528300988
11.468327495645953
-0.7428952808007915
-1.4602766875099389
0.11027280017355598
0.4000707280448981
-3.0680275075389334
-2.087560279698796
5.026941431379734
-0.6567072316246083
-0.6515624087239406
1.7542783714283143
-0.8404779343114874
-0.4954133517735705
1.4870538634450492
2.194805726533114
-0.5101191070165265
-2.454799788295791
0.8409732946741532
-1.0242734244471832
0.054456648490998634
-3.7161460059997
-1.4085343290683612
2.40915562022467
0.2639457050594869
1.0228433704724404
-1.468882725486595
1.2876465561887667
0.7663929480342954
-2.772099427118888
-1.4784100377704918
0.3631390705188081
-1.3833668764250564
-0.13511826593211398
-1.392477349303851
0.6336701776976452
-0.943293651247851
-0.39179542854485055
6.3915595732335175
0.05444069566907806
-2.7190814498845386
-2.771476161818367
-1.7380847197299747
1.5408954491392637
0.845886419331721
0.005798046455292381
-0.5594573088872821
-0.3508055189163545
1.830495935751343
-2.2437186899799846
-2.036603057023226
-0.5316920321163634
-1.2995814983808522
-1.3147170559685835
-1.2256476332193507
1.1156298614541975
0.8852476192211012
0.8037381377836337
1.3739867561826271
2.195558249185408
0.14705510296566965
-1.4522033708216562
-3.5676243463736483
-0.9129489510832222
0.7219393340042229
-2.0652916403593466
2.490941684553975
-0.5527119260592683
-1.0457557831287416
-0.876043786158194
-1.3375390529618592
0.2355517362377425
-2.423566424493014
-1.7883490353751426
-1.7382642635197274
-0.762352725427354
0.6071042608102345
2.4326238466281893
0.801459692689261
0.21796921357467672
-0.5172266465451832
-0.40617913759221475
-2.0324774204736684
0.580140823655921
-0.595661986348348
-1.5661169908669166
14.544087564337275
-1.6174170988276686
1.3386893765767185
-2.518670880371703
-2.2892809224502195
-1.1456941079582932
0.19781951643609955
-1.2607391271042863
0.3770668231192759
0.19383920490980028
-0.14491767277234593
-0.690544093028778
0.07881723553000995
3.569597519159822
-0.9732965290147809
-2.7681589519443808
-1.6809962928214515
-2.139652984749748
0.8675136732533884
-0.3438898386729817
-3.374161397776523
-5.315085373336698
2.761594638342403
0.533867294488146
-6.344023284931419
-1.8477060010353707
-2.914443905950557
-2.499006258345712
1.011054089790837
1.1667080503181966
0.07926815969379622
1.6721553770378121
-1.032679564759017
-0.9608283690836827
1.6377580409857386
-0.8545849896679886
-0.21680807433087335
2.638627869641211
-1.328358508713253
-0.10642928529583563
-2.216539346167646
-0.8575813038634509
-0.27116977447947277
-0.9783416381107278
3.0280840829501527
0.6187828274514933
4.758778786180138
-1.7862240963196474
-2.3107582212585496
0.42679039552090764
0.13548358610466518
-0.7367886023174164
-1.0205205915271007
1.4444671042788837
1.6414138243619076
0.4362980810491037
-2.1491959953292734
1.1512426639202231
-1.064498436173803
0.668171448096587
-3.091357575781134
-2.1738329272943866
0.5644954487177919
-0.9778975583997367
-0.3873768822506352
0.4977642581720607
1.7676707541234895
-3.201900353088375
-2.009974344457006
-0.6534972674928335
-1.4973874985304496
0.7818187011447498
-0.15510912369770274
0.8827010831354586
-2.4580350914253235
-2.9673301447533524
1.6357832358630398
0.3425926800410094
-2.823681656709655
0.8511918771729973
-0.4023057011939432
-3.227321907386465
-1.4868906462599938
-2.1974183600490282
-0.9143700931458524
-1.3972958797484407
-1.431044877274661
-2.9475926137115307
-1.170520393535162
0.6232021198803736
-1.9493261516079252
-2.770183258580758
0.6352503561213395
-1.9688061771769085
1.703836501558932
-2.074496106459992
-1.6990650591747865
6.571562068867068
-2.315983376212672
-2.720611733990692
0.05297685972609218
-0.5054276553046653
0.4846177051451485
-1.001215335522744
-1.1742936325215596
-2.901365799512834
-1.209033403858006
-0.22622615419993158
-1.154490456982137
1.1166490829884066
-1.7575189479533508
2.052765604883081
-2.632198039686846
0.2822456213446635
-1.1307557535499535
-2.7474667811731
2.8717692932408925
-0.9885708932432
0.6371485281754352
4.324541171400029
-1.015796646151379
-0.20146744018349477
-0.015542593456971046
-0.9368409086465769
-0.6804940017152268
-2.013328871000976
1.1616889434424469
-0.10684403992784956
-2.7075205283008223
4.563020017873817
-3.020767707256676
-2.5805642610982544
-0.12352040783832957
0.47458320945176363
-1.215331571659481
0.08735119752716465
-0.5614829212417296
-1.7986126061392775
-1.0699755946821876
-2.5515017332395704
-4.379717588941645
-0.00636536037708632
0.0055145068792445805
-5.835189998035543
0.438012431222266
-1.8793215302936628
0.156735448510858
-5.404574814725602
-3.7915616388941586
0.17418553463670106
2.9486187875602847
0.42848137706637424
14.823586542941154
2.7742403654026537
-2.285102079243097
-0.46201444180192686
-4.029824177329873
0.0274504660987775
-0.5617172864520676
-0.044577224128502145
-3.3036147092877783
-1.5054626517285734
0.58645370808244
12.757222554137918
0.8453266070830698
14.961242475277611
3.899399094265493
-2.8034674091660134
1.8383637946982705
-0.5797098461967453
0.8378997879041395
-0.364011093871482
0.3667693495604748
-2.4016360361211984
-1.721474674509356
-4.19872002679293
-3.364140639005729
13.758659890804214
-3.135541315128616
-0.5369382313700128
-0.12236946233445237
-0.7572847525891999
-0.759354189323683
-2.8253820376839496
-1.86159155188905
-4.462041148533793
-6.470577163879817
-2.674331068611665
-0.47260062705269995
-1.2875816530975994
-3.6008995041557723
-5.125894243261735
-4.735231024600194
-3.7585158559892013
0.10327089522330261
-4.144717666978422
6.6148784689341085
-3.2136045524660437
-0.8218544109305875
-2.5160209797438955
-0.25682320964340655
0.05421851299428962
0.6103010344830947
0.8628115804663945
2.1291289809854534
0.8509916404925797
1.0452185384526702
-2.817162947354654
-0.604888064933692
-0.13680301106709147
-3.2275046398075546
0.36167811241754716
-2.4689575837240745
-3.1591276635052257
7.231651124183195
0.39776224248429387
-4.179664365721198
-1.9586602730334222
-2.6664751552854313
7.831567294713594
0.5341629756294041
-0.7804882287512805
-1.755916664904032
-0.9918967055804087
-5.064149251164265
-15.327454375403562
-1.1201636165677562
0.6346894454298971
-4.701303787731777
1.1380310692512718
-3.602322315731211
-2.9510054418112044
-3.563433300364941
-2.928460379333161
-2.0412035181067743
-3.428885254834348
-2.226673314381325
-3.2868673574436555
-2.8948764563856404
4.147718291639723
-3.725380151016528
-1.3047568647900039
6.667019614403989
-0.17033731881704203
-3.713918489821954
0.37314448205668127
0.6496435033337798
-3.6921770976998274
0.9007797116013736
-2.6951402172990124
-3.878509322043514
0.055674138576369846
-2.451527875944632
-4.360852356079086
-0.8277640022762687
-2.8331704794924244
-9.008655253593272
-1.0791296225736113
-1.861332165270904
-0.811983698759465
-1.1351369861111482
-6.204156332176942
1.4616195449092704
3.717303582986036
-1.1765343986871513
-2.7901330249329477
-4.640325675213748
-5.778989697280139
0.3504199165072745
10.039691727006135
2.3497071458391883
-2.8436687805984096
-5.157678232133169
0.6326133214001209
13.820493645841454
0.4518071048223374
-1.810254659290316
-9.598363074874019
0.4442113931341971
-1.796315964579504
-7.1307697063858315
-2.510974560321275
-0.37170372594586737
-0.3689142092615108
-2.3094220030956465
0.18299196504967374
-4.776713287959779
-4.896565625012305
-2.826701903356092
4.939061595457505
-11.083457327193276
-1.1767386913005873
0.10898395286229165
-0.584015617983312
0.6448344198666798
-3.3154243019333514
-5.065547815396801
-3.4585151085718153
-1.7339265863702393
3.9350279547941143
1.9602698488350783
-4.219935066976711
0.6836600973375112
1.1485378172145237
-5.979069853869942
2.943844605659665
14.444907795960686
-3.4011779935568036
-1.5679135357461595
-3.953101282179824
-2.0048267670006106
-4.11594581555996
0.8580003206939791
-4.372609813721727
-5.675658283547054
16.302389517874534
0.13281785908286806
-0.6741662254285153
-1.828328659665945
-0.4645908942052317
-10.420601439768014
-2.2324490330093267
6.514080979904461
-3.079481680924048
-1.3647896074703314
4.3846347368687075
-3.3874675920538313
-8.617705950815322
2.1792785863186546
1.5544850113669821
0.6118916764869883
-7.803971842220391
4.347139829362392
-1.7787144792333018
0.21319099654196674
-4.173280492216914
-1.0195122799883793
5.343312597557439
0.002600339128460895
-1.1009614087823254
-1.1246859935697875
2.022196441100175
0.4368120599894517
-3.3647681813197945
-2.436992344237047
0.4791294802410376
-1.3558590397925638
-0.3291308546265698
-1.1592518216825203
-2.2327062526392814
-3.3057192161367728
-0.8130123515686898
7.623716681861307
-1.3994599537674148
-6.528921884562504
-4.2038469610606874
-2.4700566680266673
2.1459178301749398
2.625596356669616
-0.04477119040119963
-1.1178537353555353
-1.527861325894165
5.193271646146876
-2.4833177580722046
-3.8869856052519616
0.4936944895119827
-2.056308848868551
-3.706817249951215
-1.6185421594443974
4.610320592025885
5.824816813963747
-0.7129000574067361
1.086281104189582
3.393346199029311
-1.545260650223541
-3.1950595747996875
-3.7345152400823998
-3.758135754824976
-0.5635497836667227
-3.501502496491509
6.7378159203346035
1.1169098852543107
-2.0165475727551736
-1.6553474018059018
-3.5953057835648186
-1.7734703164415886
-2.306097722224915
-3.7773625430753635
-2.0515493546218515
-0.44586033987692625
-0.6595452360067565
6.117157541701789
1.4628428986969846
0.34763343870994157
-1.6108263290910159
-1.5406347185956997
-3.157373902109256
-0.38542181575611456
-2.528375023205936
0.7749946360602489
19.561146324960077
-2.659679894997248
-0.4470187135316351
-3.706649412756295
-3.4450200252609915
-3.5510763314763256
1.8439795626337603
-0.016145935176076966
-1.2530255145593145
-0.5939471768885584
-1.7286301096371992
-0.9715880225888582
2.077212898464842
-5.498550651021391
-0.3856727185570038
-4.96726762674812
-3.113614302941121
-2.054469275994946
0.2103384670908251
1.260545697527447
-5.784602239202673
-16.479919366202033
3.1690200025794044
-1.841317608443728
-16.42045889514297
-1.737491914876009
-2.9279078871740274
-5.7127152398941625
0.1866277839468134
0.18578365448473202
1.0367911450760108
5.458662804976713
-0.4839684442453027
-1.0398062654983988
1.8459831837297715
-3.0644934720884245
-1.4888326464014237
3.8141100120050453
-1.1017971944190033
0.2386249292213957
-1.0082237192269061
0.21374150882596166
-0.2242892427311262
-3.266991275864108
6.030945775480731
5.084402550851635
7.292787150574281
-1.786001944193655
-5.723374198435506
1.7201780015366437
-1.297421798157201
-3.6173494458868105
-1.4346389483624638
2.708273098638182
5.80673490236092
-0.8073622100178663
-2.033096142782693
1.646062225363823
-1.5969637976829767
1.729676360722388
-3.9533648497790175
-2.4483822276802183
0.771007047288615
0.5515821469309731
3.7663415998567147
0.6510018604606135
2.7319728248325825
-6.347788038309052
-1.9244203642246964
-3.702646284764404
-2.8831404050932288
0.0025358418335975647
0.7614783605831643
1.050522066027883
-4.779601898652834
-5.172108452553939
1.6442606753029578
-1.348021952449864
-2.8234918818396957
-0.20016811645462446
-1.3508341335234508
-5.247705476472903
2.622013309403612
-4.9752792062472695
-0.014063451944405699
-3.665543170554485
-3.16755764389851
-7.147130682096534
-1.2655641215793154
0.6218728602846828
-2.105172510267656
-5.69185346438972
0.6288712917564551
-1.9894237438977027
2.9499757629617016
-2.8241093135391786
-1.7795357652592003
10.888370391170394
-7.088939347731634
-5.829515462009124
-1.8687304914016254
-1.3612027141070537
2.1214095778743687
-1.029512812664331
-3.9338029231523
-3.9215641261641623
-3.412882202254938
-0.5587284164021906
-3.451728593738165
2.2456491802449814
-4.656980531705861
2.137680809729814
-3.4582848848370897
2.6968122059320305
0.39897312895857545
-5.657903489451628
8.255830405807657
-1.8254005071481754
0.14159760823835313
5.040934854349835
-1.0977309198167027
-0.9751407972178926
-2.4355018659059064
-4.072512007500879
-0.8566433007030729
-1.9927983722078944
-0.8594464604511075
-0.7330096499395966
-6.181964493468451
10.576185238296139
-3.499275260625804
-3.333600758835214
3.5322157964866205
-0.5892204203067528
-2.4666445565269886
-0.3464707464478894
0.27206816912016946
-3.601790404591231
-0.8845133677981095
-11.7210209546438
-5.664847287925892
0.184839534869413
-1.069461907732767
-5.921273484263173
0.05003854535963751
-1.4532017109839963
1.1681146942877265
-2.922866720044938
-1.3139609154176295
-0.4649529305965433
-2.3657018177007787
-2.966093774842929
20.355630019330125
1.8273573425721163
-1.2341676097186003
0.9686417972406471
-9.596270326815306
-0.10934523873310109
-2.3401278180250147
1.1354829986261412
-0.29880220427747906
-0.45319046155632103
-0.6776094145197246
3.5033947218281853
2.2017374477527016
9.03268839183938
1.1127951552579156
-2.7081358852572786
0.5613589301402346
-0.30261923730900486
-0.17675541847030865
-1.0886413420255363
-1.185311152787057
-2.769674887956102
0.9554286371120102
-1.90162766373856
-0.4981350087641801
6.045264101537738
-3.0931673845967436
-0.2889213424074426
-0.8721658071862516
-2.5908278428044937
-0.703711128738392
2.710230055109095
-2.181358832672945
-2.8018207840442226
-5.7795341489689305
-3.60937424467356
-0.7644886026094626
-1.1974056823340695
-3.596133056731863
-0.8679527351284264
-2.4973902328240345
-0.16450695840256901
-1.2124274120466427
-5.736420581254712
8.40299357226335
1.7170696349196242
-0.39099792153999635
-1.37074188734975
0.290539484474073
0.2247225715943918
-2.549626499868326
-0.2727510963303712
-1.0157111355664943
1.5963093383076308
-0.11126845689811125
-2.5565979688363534
0.10043007267052298
-3.0124475376721427
-0.03005284474951164
0.5985284588053578
-3.5097891154479886
-1.2947920003741407
0.17961117557645986
-1.704561610603263
-3.308198310770518
-2.201235132455474
-2.66050508769125
-4.287896255127347
-1.9084000928866112
1.5518169578147532
-0.7876477650484071
-0.9026444219603551
-1.8485546350148447
-1.3017928995807864
0.27890117823049393
-1.400963818866576
-2.8567203928181826
2.3917500574030743
-3.9907420652955516
-1.6345370178859222
0.76485755507281
-4.132746583204281
-2.2280493016633027
-1.1395957475330072
-1.7165191013813428
-3.871844561072214
-2.002484901592409
2.425862022510304
-3.6768382236922905
1.415928627191451
-1.9665915935700127
-1.3995028413807014
-3.522255036514655
-0.5492420733923489
0.0894792303249051
0.6803272651438987
0.8607150668430347
-0.14764459059843724
2.946428639347462
-0.2531630273177718
1.8717612277136835
-2.819403271419025
-2.3696299258926667
-0.6549146662018381
-6.892542969359251
0.01757093951223364
-2.075618960530372
-0.877160561463901
-0.3370355416851289
-7.68884272767963
-1.4336852069202364
7.876278401092622
-2.4647295729278635
-4.486660686864109
-1.7228758720409225
-0.7501863204000686
-1.494862273108666
12.516538075870507
1.2157796988413163
-3.8506140882366138
-1.7993994864967948
0.3094028406401562
17.086774344938352
-0.8981545673329043
-0.8692327341536212
-8.282434874221822
-1.124281712443004
-0.2299144251047791
-3.7340099761940433
-2.1670062149501743
-1.1105023365662694
0.18653841276515012
-1.7382037777504673
0.6507385955035703
-2.0829184132383216
-1.4021246405958598
-3.055892512076199
2.81467183898415
-3.4417734151594837
-1.704511790643491
-1.2733972485983567
-1.3940062279064183
-0.7355860853990204
-0.9097534097537177
-6.312330571843526
-0.523838597295457
-1.240668363821835
-1.8436252652681073
-3.6322042610327525
-0.2752724930114305
0.08646026729225993
2.524038987933984
-0.9540035424349772
-1.2225475933229497
8.304164215374641
-1.6212952853704878
-1.066655945486995
4.319817155910774
-2.257445464938777
-4.324389255076357
-0.26202515822566824
-3.6290053538174347
-3.2452028252127185
22.16591257001823
-1.0887544784828385
0.12933330415077823
-0.35131870058333126
-0.12265092643285391
-2.3172820610639824
-1.3188972275607758
14.614738682010929
-1.346381037475622
-0.6984018096634279
-0.7696504389368707
-1.7649129523627998
1.8040541083223227
-4.465630828419614
0.3626494285017616
0.1298803350766067
-1.7879648226513831
1.2668343461522718
-2.1562449673761415
-2.221608244698872
-3.8966991478163413
1.0578270296208718
5.270124026589372
-0.3801132612767694
-0.2715146356704015
-0.8650548145336158
1.3311819283647606
-0.1952763157591194
-5.324878050083893
-1.167943903464951
-0.14916137644059044
-4.7042484023665105
-0.11270612895199177
-0.7611191629853701
-4.63924002396114
1.8453965805861727
-0.30780520323505356
12.190143104779445
1.278054868115621
-5.03832453222243
-2.7969386922974646
-3.7084560012728653
-1.60633919856798
1.310379663354607
0.07475351248647395
-0.8418562211136799
-1.5604415526390134
-0.04850423126677547
-2.81689139296151
-4.969480990808213
-1.823397245801079
-0.19376238840878243
-4.8786877683455065
-1.4940673732372143
2.7737159560388793
3.355976099641328
-1.1883025380988494
0.6485869369557246
2.197951325138135
-0.4513119643921774
-3.6719931888067263
-3.1889637525835357
-1.1224108164728845
-0.7166113494500971
-0.9558879023741382
3.4901160241870226
-1.5774679978378743
-4.534317814136696
-1.0155181174405878
-2.614153315022025
7.604361445781427
-1.1396521529320653
-2.775818651323563
-1.2005746556373258
-1.4388212582368312
0.8647027111014582
4.527678869516137
1.4597963930455302
3.4166765939265575
-0.7882557982903692
-0.2917297049367443
2.6372354791672445
0.9728395392104855
0.24319619191434294
0.6366470090414911
39.1091152077325
-1.7901637434710447
-2.8796122864118034
-1.1397744893610182
-1.7376440711173502
-0.45816113771343175
1.5406985184688442
-0.6417760569216957
-0.42307466163054197
-1.1695846076073246
1.8857462719925582
0.4563056209718611
2.6473228872826757
18.13488817244041
3.0270754979428585
-3.0911149815842314
1.0677879865321036
-5.121281983739348
2.594480716194723
-1.00865982158915
-7.244158944236974
0.3876008019369162
-2.2081876584542286
-1.7692410109898304
-4.7715321089147
-3.1180650525307056
-3.4201351087259346
-3.3013439568268863
-0.8182848322492957
-1.2072654096035336
1.0693450060004164
0.2613180339990413
-0.8450282861147551
0.898947813667661
2.797769274562641
0.32748995373958595
-2.1526840642462757
2.8057699262918803
-0.9288776816923742
-0.994939614800976
-3.2161998227466086
-2.433831982844338
-0.39924361244208517
-0.3282945238157713
1.9146822880503858
2.125849020642941
8.914532788684495
-3.329533528462933
-9.116109624367287
1.2730532805930836
-1.5337978837137056
1.7458131791152596
-3.9240710568894617
-2.4872493356689445
0.0753890434414838
-0.6720791864552917
-0.802081496871903
0.4931943874788881
-2.7763194401611386
2.1334802619677093
-1.2557288589195779
-2.5607600784154148
0.1017517382858567
-1.1292928907322244
0.01336890291971593
-0.23681495602145697
3.0061667363437277
-4.5560898815362085
-1.1930850488211275
0.1684329264665722
-2.2776262377413548
-1.9503669894379678
-0.05421347899514653
2.514758239500242
-4.321845080136827
-2.785110633833861
-0.84744442583118
-0.8599219453200714
-3.9158137798182606
-0.3138905778368397
-0.44953092135330647
-0.7047217334067237
1.0173367719616102
-1.9389394829450666
-0.6600140544834703
-2.265693890804402
-1.157666891680543
-1.95545159629264
-0.31096434084718505
0.792648152501493
-2.296361132182865
-4.520948694799627
0.9582590138040854
-2.9118956663553455
0.433194853799405
-3.632626904855357
-2.456127224938341
15.354924720414186
-3.7410120407272913
-2.988245821968986
0.47860103316737723
0.3206821481373384
1.7447089394778657
-3.1685554116842143
-4.4652159135942835
-5.913420568674803
-2.9504522009460494
-4.626440442165148
0.6128348823381754
-0.6661656513916642
-4.999391724076487
0.40781192298639957
-4.643907668894783
-0.35218418222166487
-1.164201485656702
-2.7485569843719255
0.2491474545619725
-0.5586721710548941
-1.5215290819147111
9.383900838061356
-0.34933585735086176
-0.48964570417513664
-1.7857223777835387
0.8364319761596906
-3.4216929165729746
-0.9277996195117825
-0.7030319894783299
0.5011467840645225
-5.305378572364613
1.6564553034824046
-4.964086758612354
-0.6743684856996217
-1.828140077415429
-1.2760997267800542
-0.48718753012156785
0.25594536680427366
-1.1014668683594755
-3.162746137759692
-1.4325457738049183
-1.8912803344704905
-6.233832984107633
1.1946927012680926
-1.6172369341013826
-7.6413723150796855
-0.3289403413521435
-2.1195733570520203
0.562962789755782
-6.911505792546115
-4.700966380054802
0.1980377442169942
3.0183961679624347
-1.4485841184766788
26.21283554765075
3.8259969211794154
-0.872366580880781
-0.9314416722425666
-7.120866313286518
-0.3052100826639087
-0.7300664059477341
-0.7342965167584744
-2.500423996633339
-1.8379769855748347
0.5891421894938043
11.628805899139506
1.891959774227815
19.259397598534477
5.605340782187621
-2.793060867056824
-0.2553603946836647
-0.34413883895082487
0.14799715411813286
-1.0815162690658604
-0.014382725442393914
-4.819678207092025
2.4290549076415573
-6.059697663688832
-1.8982167284205178
15.046746708852332
-5.50347169457912
-0.6090401523666358
-0.966200511399333
-3.183061041439036
-0.6956278029581856
-2.230346025679909
-3.074278487626632
-6.161991782483385
-9.076222443902791
-3.876031552705617
-1.6595878703341673
-1.9619174364099419
-3.865755008094133
-5.7286021286869975
-5.230351265870987
-3.792216391603609
-1.897132180778277
-5.524135892218126
8.008459032046932
-3.3098153327272435
-2.0447434054376235
-2.9742729189638886
-2.729983694175981
-0.5632917904910165
1.5439997496903561
-0.32350151620319684
1.3517392345924413
0.5972002605793957
-1.2212917644766061
-3.1534134534719174
0.8545511107279439
-3.6432922425174565
-2.7183668553996
-0.7030317072746323
-5.344424517036621
-2.2001894914817353
8.236499350791908
1.38800189076351
-6.115226504532918
-2.6053108956702022
-5.266040329378533
4.582252800240325
-0.8131004621796228
1.0335907079811206
-1.408310027246376
-1.002894436254759
-5.004847829990326
-19.357755797715807
-3.16513741375459
0.46894564246231757
-5.728146702202899
1.9193078496791813
-5.467820281743565
-2.792633299120369
-3.2127167898972844
-4.946898697628552
-3.1841556345407565
-3.6314163009655696
-2.8309497513480486
-6.115475624268566
-4.371527323392778
4.238918979755389
-5.172709209502681
-0.4257068887139708
4.404496959543584
0.1526911182114952
-5.196075662751433
-3.109562150770429
-1.0421948472061557
-4.119434133819692
0.3177867463409702
-1.7371314022935107
-2.253573493015852
1.986679210565898
-0.39071970844088105
-3.451811991628929
-2.0917534488897522
-2.08609946754709
-12.840634255006817
-1.7690231427386691
-3.799102777544423
-1.1605390950090027
0.22662844890716322
-8.159489953072049
1.131104342701145
8.884332074071644
-2.8640238298104204
-5.482529527867482
-4.326016656318517
-5.096849938023823
-0.8762069088329454
15.78858921770652
3.243947715163848
-5.347817526225582
-4.971214936046024
1.9664882645814137
21.25182527588757
-0.6076881995658079
-3.4915562867204812
-11.779478336715105
-0.38974335101718216
-1.7952815947025162
-7.413308739609659
-3.31263278071152
-2.319528316535402
-0.3782472597592107
-3.791287829804855
0.7823981215935415
-5.026178069314965
-6.273612823685262
-2.7524062011298316
8.776019266443807
-11.416978783502557
-2.2038333639541543
-0.4748392069602344
-3.0755051340098145
0.027591523721509515
-4.142190586289379
-7.331892791040603
-1.2229777952552747
-2.614582794277918
3.8451180810080134
0.8896372506110769
-3.1610495877104454
0.9122977238616825
-0.029173787666065803
-7.374763431563436
1.221666693717767
17.634784675286266
-3.9469849210119796
-1.2668817434069315
-1.8486331937553855
-3.3390969560882264
-6.293995302365506
0.12455108144812
-5.216646853385085
-6.7121287174481115
25.141254292737983
-1.1036303747962113
-2.190067780754526
-2.0903666037735773
-2.568434102811719
-10.868716176420445
-0.7324085092525113
14.67057250963969
-0.268517578759116
-1.2830720051680808
4.120552044592224
-5.073580069472196
-7.41033876885331
-0.11225126620631845
2.045977216621973
0.8602310728039975
-10.494725424316828
5.555254982535635
-2.2351211115037044
-0.8054230791330946
-7.980863642427899
0.2698836724838533
6.680524106938715
0.010854200015292498
-3.369454819756732
-1.6304435331761122
1.3047518658255197
-1.4439703462811044
-7.121468802707078
-2.9767786106598817
-1.0092906832475756
-3.2930023088869866
-0.47226128380105015
-3.6850297834360664
-9.532976080816725
-2.4122298227046834
-1.475411654436051
12.045904393883365
0.2904141640968959
-9.264705289735975
-4.595315428625083
-3.429635448967281
-0.3791649017254733
0.6947991912562712
3.9759777966310876
-0.022808494302777253
-2.7171124823122255
5.869166450071079
-3.7155795264649654
-6.11945830032364
-1.2599712197145705
-2.2974759780993743
-5.298948138799411
-1.0755703210909087
3.8149315055880377
6.9333038091502885
-4.773904829591161
2.5545003982100285
5.588422917588774
-2.1017543933722704
-4.510008272199392
-4.551350166289046
-5.028983122349303
-0.5399462750550986
-2.387849556992615
8.117747897477603
2.178757226572185
-4.5034895174075515
-0.6550865779294087
-5.0195310764785965
-0.6307206454854336
-2.3804306086251525
-3.771726298649309
-2.7103374014383546
-2.327107223619674
1.8112205123724066
8.465806194715277
4.24276609642991
2.276232080663003
-1.0251607791972708
-0.8287585318999998
-2.8295619320704315
0.5749117266583834
-1.1558797287404579
1.244903638007943
35.819283183514074
-3.8255235839229194
-1.9865094041762903
-3.196185697995694
-1.9410150595443745
-3.249728866766909
0.9148594511513093
-1.855215607752686
-1.6170380347970983
-1.8557823758393146
0.05136347096095262
0.35387150006391244
2.1938277497326792
-0.29130369023618397
4.885945569970714
-6.145074627162066
-3.56160888749932
-4.718180742265703
-0.3330015254831026
0.4324917465238556
-7.169534532193235
-18.212681462534054
-0.09922603364757716
-4.545670583705713
-18.828737639044387
-3.6870855233929722
-4.835253331705823
-7.383366844923061
-0.5843442601374678
-1.026210572389901
0.9723689664196578
5.920790432579562
-1.1336939594085027
0.6879449508131195
7.591738080566935
-2.375572282308104
-2.1743617256223264
3.3077785760813994
-0.5152643316557775
-0.0946987732419817
-2.470253936980065
-0.6020897383869913
-0.3816864070347103
-2.3631938651788285
8.257136329512006
4.966362296335543
9.874898838353797
-4.0150978851545345
-8.15189859593623
3.164062869049856
-1.6669658302963648
-1.7113338247822443
-2.659077467587391
0.9233073893635845
5.823922254825125
-1.0938716435381959
-2.937839529513397
0.7123212758403848
-4.16235203530398
2.029932186428988
-5.6446636965652
-2.2555809761410184
-0.680104255487286
0.33410171474994377
4.345606920969266
-0.05658550273195283
4.335144375705256
-8.68475285208538
-4.357737528900467
-2.0482860102898464
-2.134134843581597
-2.390413839491427
1.5139042711509503
2.7975721098455404
-5.70202747256062
-7.8555596513853665
0.8647781817110166
-0.7196884087522366
-5.3564034291004665
-0.20673102167064916
-1.174684424200734
-5.723418901352647
4.778084710468785
-3.690665414563155
-0.7538807290087663
-3.9561908904492746
-2.9196921215704257
-6.916085570563513
0.002832929704164175
0.765047582490568
-4.55569379536347
-7.526556387059667
0.47705284003499543
-5.01405780404718
3.574102834470213
-3.861714335196462
-3.058317352024327
17.657705536954037
-8.347307823863076
-7.594014375996271
0.622055324653456
-0.5296825966222857
1.662561477002029
-1.9680376917326219
-5.683630746712597
-7.362624636161515
-3.9031945053731665
-2.589551803947322
-4.7317953044144385
0.5477647022216469
-6.381866875047851
3.0075795380592982
-6.183679001398156
1.5467801680002093
-1.9201453245625764
-8.371406142567482
6.858873480750338
-1.7516738942136885
-1.331851888422084
10.395757298303396
-1.5279557945158628
-0.45384906187626084
-3.361513768455242
-3.4119178199563005
-2.9714753337722577
-2.153744276344624
-0.2377635625531296
1.1271573718909964
-6.928694019507506
10.079803315571114
-7.592769053455235
-3.253669508668583
3.729515256721356
-3.113172993848903
-3.041872396727657
-4.534826758375285
-1.3696223446748346
-4.7509977537161765
-1.4633720390496179
-13.70237216865207
-4.610634349176811
2.835565689374478
1.7410016943801299
-5.0125034350086715
1.5218496427954948
-3.6109848662710338
-0.8239035342707921
-7.737364945914632
-4.939609455793318
0.48336616841907215
3.4059922802437965
2.142002935938812
9.616556338366694
4.897605657896425
-1.6594395338022299
-1.4837740626176674
-5.655248632199692
0.07504409966622962
0.11444402425144148
-2.9178619965496138
-3.428847048499617
-2.011026779349292
2.0820064118316552
12.221936095948957
2.1410806890123584
15.595399402724688
5.4333541103468885
-2.769210071654465
1.4252585811258234
-1.6345065344116667
2.2739311396486532
-1.211548037120869
0.24783608175490024
-1.275288263891635
5.3505475500331094
-6.73811941550446
-3.3617845567399467
17.23703640803308
-4.301656851526735
2.399239613440989
-0.2422726843069935
-1.76518776779072
-0.7276177743882299
-2.5409811434263982
-3.2314273147777857
-4.366773839027557
-9.95824577098797
-2.847809070998945
-0.16764511678963603
-1.5439383100947905
-4.455241272264264
-7.139175483064231
-3.5322333821384833
-5.771231399723707
1.4183903618448663
-2.495216770800225
4.182383529006342
-6.697677421298068
-0.9890946624899487
-4.608810146137465
-2.9928631011026527
-1.64691226422036
2.5910717113242043
-1.6964574392652914
3.1379932975120455
-1.1254908650162574
1.6150071609361798
-3.3880777182799857
1.4099860683431702
-0.01678189061344517
-2.4069534213844457
-1.711833301594237
-1.7320479443711303
-2.746186390780786
12.68895782589062
2.4052098795828414
-3.942742364385715
-3.339851934253923
-2.7795355421502714
8.281668960685316
0.12545352316989464
-1.2366583567449816
-0.7024065249686835
-0.7381975772651787
-5.84458632850008
-18.756949930841962
-3.9490555209379057
2.9364800707517915
-6.630111606477311
-0.22751237915213432
-4.168866405936839
-1.2698460395781959
0.15022156347087173
-0.9180865127809977
-1.9344975035641547
-3.8562430770282066
-1.7607160146473055
-4.336742877397153
-6.093425239086972
3.9074134312756468
-3.9297933403668943
-2.2233915531308193
8.02461508222743
1.4421583805443998
-3.545528185640236
1.7622070170835593
1.5744110249967855
-5.938821097008141
0.16428732186783687
-4.075328823283364
-3.049284883633285
0.78105136998742
-3.530311043915044
-4.573960366940557
0.41028425767949867
-4.179352584984883
-8.703201842863274
-3.003883155414898
-4.0519673998895955
-2.705314990690407
1.0107239710101787
-4.286415162522085
1.8656295106284237
1.4102636692062867
-1.0442037140058917
-2.4492546604585796
-5.307872766584858
-9.844035809761385
1.5924322062071672
6.943299207453494
1.5732081385808159
-2.5244542333895668
-5.027771199908166
1.249858393196285
8.957210740836265
1.5479444077007598
-4.142537676173392
-7.985263296857906
1.2628792834991895
-0.9674061784692435
-7.340112441236261
-2.960025127693174
-1.9770110957841045
-0.4334269861358252
-1.1399993827425265
-1.054339898832205
-5.649420754426376
-5.536008555077536
-1.4355983050547296
5.474417586134601
-13.812321574658144
-1.8886182256225998
0.2141363528168376
-2.245465095383544
1.561919417187741
-5.45426749580692
-7.6010439880470075
-3.746137979295758
-1.5250264603265518
3.398531437012464
1.1433292666807018
-4.208409499098899
1.0115496490988234
-0.07905401708664016
-8.770094928278258
2.5252415084352964
17.647770137384686
-3.668790492953407
-2.200538897985627
-3.6254925423728928
-1.779436921816535
-3.84034730757621
1.1174564387655381
-5.256345007797563
-6.758773147788405
14.035204465684183
-0.23066205564398265
-2.121277492853197
-1.3697551032010369
-1.618949788936907
-7.441465928781833
-2.254072180680353
4.198168205597774
-3.2808789650391126
-2.2331362635907435
5.709947255628048
-3.8049876481897127
-7.545353844893894
4.575132901625535
1.2725342610872654
0.7085164513531905
-14.065631588348124
1.4450771659701838
-1.9016479144962783
0.7966399014298453
-9.031528660008346
-0.542508256227633
3.059280659482848
3.810592602107211
0.4348078581364473
-3.3062323440682913
-0.3871060093201254
0.14427749021295821
-2.9238259955254455
-4.735958131337006
-0.07729209502830096
-1.5472788189325057
0.3684422447138901
-2.4673191419951843
-2.8428115639107276
-3.2679451152514596
-2.537765231652162
7.078933058622033
-0.03685725659201317
-8.040118924578481
-3.22023456618733
-2.3484828970784792
3.531898475365405
2.337511191677965
-2.2959009782675697
-0.6940714216080508
-1.1297084925584457
6.2923731722245195
-0.8223617210165318
-3.96078903668229
-0.8657959661375546
-6.568608818926586
-2.213732561290138
-0.5727399336360026
5.160938320241485
4.57029510523316
1.3509911028945973
2.8946197351391194
4.781707136061388
-3.379798777499862
-3.7045173852983218
-5.276974087800192
-6.322491636222546
0.5671061656164519
-3.2993094618365113
9.187162600285324
2.1982803080414564
-0.8257406235260517
-3.7640351439896333
-1.462929035045442
-1.5082760014960348
-2.7886856527775814
-3.963973130910524
-5.071631298179895
0.34482975956897766
0.17230656435876765
6.336540898556449
2.8462579411038673
0.4006687571652054
-3.53831883496689
-1.1801583280783536
-4.9377439054342425
-1.0460233622122053
-2.0714581235486462
-0.8079368654702143
10.012032476043087
-1.786450708334652
1.4530008959180791
-4.299457496729113
-3.8395413875118316
-6.202022462945196
-0.8996836592406106
0.41764458217989353
-2.6887848117073836
-0.7557487464787577
-0.6739989131768801
1.1309283453810455
2.4496336335017967
-15.844889450809534
-0.35844758703778773
-4.486486750505143
-7.008721659713823
-2.52854442607245
-1.9179633232126154
2.637433758757734
-5.844706204921857
-24.613722462650905
6.875492320072768
1.4982307374612776
-20.77345324079682
-2.022015155023252
-3.0177449828268124
-7.194722585090582
2.7196091216696288
0.891904728137377
1.069081524122872
9.682090522771578
0.28830883873537083
-0.7463436872014562
2.6667205774305685
-4.93282246507229
-1.0638879109062733
3.3480348161095765
-0.9144278215552617
-0.7685648260304603
-1.9645191134354871
-0.9595114492723268
-0.022775831264535414
-3.9869231144696817
7.452817503538312
4.5199757763444675
5.7590133078189565
-2.3555285903002807
-5.326073187891196
1.9591562936324354
1.6486060899072708
-2.816053765950388
0.15806875880422597
4.876392934822861
9.424554732057825
0.18198195515275467
-2.44737791567744
0.3722428675177458
-2.5412124057017427
1.471301917613503
-6.397166995945211
-2.1963581335712727
0.43407918176763094
1.8121879109387806
5.612755483962255
-0.7891337132592642
2.514940998405573
-6.0074286448180745
-3.774535647095171
-4.22330184224735
-3.5637290940237634
2.2778181099803008
1.8377942141416057
1.0041736164473394
-4.6220896392703334
-7.11566309317307
-0.014921337113920782
-1.6868572345506045
-3.407880686753314
1.7775920946465205
-1.4569516376141118
-7.4485257883011755
0.7592329282176592
-4.765222107443432
0.8243076766211004
-2.9458866274886453
-1.5456363817647034
-8.65019801054264
-2.267510131327115
1.196596709631305
-2.8442652188112705
-6.806439356694483
0.4314809270173557
-4.03812040672064
2.088676050689541
-1.9647944597631852
-5.961718869290725
7.703639808518142
-7.611705532309298
-6.52172123366729
-1.6927082127625384
0.7798531395950064
0.910430645035948
-0.3377646275918684
-2.656612940035722
-5.153200582143683
-2.171421641230806
2.693799545820847
-8.20034888916049
3.2260413319685655
-4.078906672489481
3.6976378342429688
-4.225591629629783
1.1877399786888807
1.0514699891833537
-9.064520632554954
7.8459755010844505
-2.222911603398414
-1.0959320335068623
4.076224640468166
-1.446859811182727
-0.5060331523080847
-2.215588941739902
-5.991435575828452
-1.466363874787177
-2.466188904484383
1.488206106659071
-0.34078520074917146
-6.215678885335412
13.063659388998797
-3.9525216294332455
-4.445330205801942
3.1620508945393047
0.4484212221894187
-3.467300738133085
1.0407512147361242
0.5672256347541924
-2.946710951049858
-2.6489939462968555
-13.64227339716778
-6.230714300026833
-0.0509634611035576
-0.9093740468671739
-6.897074889479582
0.43938148641579816
-1.5671744275877335
1.1815385601178896
-5.8355012871010645
-5.194875788135351
0.14337327119974932
0.8534308202352696
0.9073279309160832
17.321445565021136
2.9082635575862508
-2.392692510088628
0.21012266680509883
-9.110855047658292
-0.9130970052940703
-0.4028845982167478
-0.6361021191227777
-1.4369744380314933
-1.6842353581709952
0.6979788913273568
10.129252565210372
2.282488730198484
14.946178188494555
4.587577261924368
-4.614178584818366
0.8655112436218831
0.09709860145617343
1.9748249913103113
-0.10511588891220502
0.8299018467735501
-3.35000852559496
1.8341212215425744
-4.516968851822533
-2.859318160994007
13.650075811119253
-3.6798619176187777
0.6085345009767746
-0.4774614265250474
-0.985557847625047
0.07687530997172111
-2.3624287588676047
-1.71341739760087
-4.889173816702309
-7.658132461141776
-4.7170733255348765
-0.5074706347411827
-3.7228756163191723
-4.46083001238854
-4.347150523903033
-3.8456701018793775
-2.5245086212738235
0.07006148577768607
-4.043588361982568
8.055903518806184
-2.819509653073135
-0.7422377403562578
-3.4241709030283825
-1.8933867469233197
-0.4232848396078136
0.4212105966762927
0.2508223047317372
0.5733195502224254
0.5580024688998906
0.5147010161371661
-3.5333360719041145
0.6053102672932857
-2.6417910167228333
-1.2354763814672236
-0.9017600925887053
-2.307056688858916
-2.4273888750348114
7.8140374668618175
-0.47361716902734446
-5.584297274739242
-3.3528987432332826
-4.064996823835714
3.1892920294921545
-0.41104819176151275
0.17193140193997494
-1.2737968342573032
-1.3388303816840839
-5.5513498953398255
-10.690352009870496
-2.3960273884478585
0.2704155201436301
-5.246856514668715
1.726689629134448
-5.502027263317532
-0.36554281497653657
-1.4517273822163992
-2.871073373131464
-2.494925635889823
-2.836268330762673
-2.486836545591348
-5.847165925759144
-2.685813029244947
3.2919004237800307
-5.0903084153088445
-0.7935611082177714
2.914692051770352
0.9128078718150314
-4.096620153010127
0.06159453495597011
0.8489543242309489
-2.703940096182938
0.5822251185470229
-2.789597537311536
1.2679679655299663
1.1313348864531954
-2.661564054156458
-2.9222153904082693
0.11769827805376988
-2.056984338899606
-9.70117826933522
-2.7529296092073055
-2.82705575536027
-2.445043207793143
-0.6669211938908035
-6.9970244671531665
-0.020659254999953743
7.303316687785023
-1.2486183524185095
-3.917088991530328
-3.909993800246568
-5.664003254613308
-0.1995634996528888
11.864362587111021
1.4561670250733916
-3.7547765282329895
-5.267285116478161
0.19485749679256675
17.643168513746048
-0.04812626432575493
-2.929150640990331
-11.482296595535574
-0.2674350214344127
-1.1271829673457985
-6.238077664751866
-1.2323869173087034
-0.11973113487839994
-1.1909034630365603
-1.765491737645698
-1.3669677267279148
-6.416568335448097
-4.646098485483473
-2.598304989930467
5.631004307596441
-11.142645833078445
-0.8587545272571953
-0.07830261473857762
-1.5221663413222242
-0.453417635784258
-2.518485229217749
-6.207838857009309
-3.2235522409983495
-0.6142024178534943
2.1376379020705563
-0.5808026547247399
-2.9385697490272786
2.689612022613089
-0.18952804890941605
-5.054027716286715
1.9744624147152563
15.758484114706775
-4.8418854642612095
-0.5615422949085002
0.8015426512304641
-2.7388265752369447
-6.314662923492715
0.05998488755237104
-5.301982028329074
-6.2252955671914325
20.246322523620737
-0.5393831044573428
-1.9366622809157708
-1.9532267376433092
-1.0316849619852944
-4.220585502853222
-1.9038788927856853
12.192126151740474
-4.94152292348002
-0.5611571671265381
3.3527502912206937
-2.5606861137453967
-3.5566844367049133
-0.8099549357494411
0.8868735137383205
1.5463423711667348
-7.620535594492976
2.8243265046180257
-2.071598451779708
-1.3056904709327577
-4.295553459450935
-0.5836607404651383
5.7660159431806575
0.4742643342369716
-0.9417202284864099
-2.2336049651956134
0.8368143003286675
0.02687554522043656
-3.536214021961874
-1.4964828888013333
0.985425196487032
-3.3628853936282033
0.40572153010001527
-0.5092040598597298
-4.316433009633057
-1.922660799013239
-1.624222359123436
9.951821949470498
0.004652542532582814
-7.117317373888164
-2.2121464316030224
-2.5075942341150896
-0.550184801852174
2.802185429688619
-4.201350233551549
-2.116007593018896
-1.9321286420575745
4.265960436392869
-2.19159986330513
-4.643972365573511
-0.70874430434422
-3.859684923077467
-5.285088925658662
-1.4123495601599954
3.849270758651842
3.0579351097656104
-0.832227723993496
1.5788494308129273
4.020342443727518
-2.8113632134708793
-2.6615598376859304
-2.677551320301909
-4.709551702619958
0.5571596364528881
-3.393175287923777
6.969722497975293
-0.8820257728920246
-3.3920720389956935
-4.208558914959744
-3.5261284933382853
5.075745527579804
-1.9999222331297315
-4.151613914452982
-4.096016612354603
1.4790701643938775
1.604644104936011
7.549526735709926
0.16883742455509268
0.7957201413195246
-2.148360453617214
-0.780057921161462
-2.1418849655843695
0.41102289552035665
-2.3180569010815733
-0.8407976718852674
27.123431333383117
-2.0480120615056685
0.2807534299354043
-3.801785350463823
-4.04057109251279
-4.115570986933571
-0.6157111348849407
-0.8045621785666232
-1.7555070012955953
-0.5016194121407447
1.0158672203420733
-0.15239799066049933
4.209370787837063
0.9870342500707391
0.08952361621041081
-4.536493280675268
-2.1938695068321863
-4.039720883074456
0.38660663845656057
2.57943590075953
-6.97747775359086
-14.586589303633284
3.322919209295817
-0.20703725384799374
-14.91938639843089
-3.5034720412259723
-3.5644736876751497
-7.202304674683893
1.3277291396313764
0.6965871062126705
2.1460567139565705
6.578625193439732
0.6417389230767587
-0.1277704564208435
2.267948846570999
-1.9848087104112133
-1.131658964857165
2.8163316580778206
-0.6580485596720448
-0.48180124532618956
0.31588551263782705
-1.3764560323026802
1.488542909910093
-1.5204279357038073
6.346003703466601
4.572185008885241
10.097326903607426
-1.90004830593462
-8.499579639910884
2.9240499482216022
-0.45466997452769653
-3.2976503431165543
-3.3762566363056665
3.1375343016805908
6.803157052006569
-1.0436478080721072
-3.1195956878207114
0.8208850659756732
-4.077033885207411
2.3542139284515358
-4.299102790979649
-2.0162735812241155
0.5388382041904849
1.218236523764027
3.959235885673267
-0.12687737084816053
4.265357981515122
-6.973192203421594
-1.766797673453156
-3.0363819411825523
-1.5426241746631197
1.3340604214568752
1.2430395788268627
2.7997678155825234
-5.876032810173954
-6.025759281945533
-1.2694765231422993
-1.8388666907673976
-3.603523630765535
0.5989461701706635
-1.1551745704387286
-4.958965885909735
2.039459442972551
-4.8470562788888705
0.07637919095342588
-4.219508588161376
-2.558767630889254
-6.473253046302705
0.27024084721632985
0.1754582748915647
-3.930078509073881
-5.96449771669661
1.7019583302238186
-1.5247465082158183
0.2698462933514784
-2.1772569776200097
-3.4124915874200172
13.576112402635795
-8.041321706712308
-6.92688664921894
-2.809728088091986
0.521661433963554
2.158887909963721
-1.197852783148573
-4.035443575536856
-6.767251823387697
-3.4531883870620117
0.23324862352413483
-3.4713274222651003
0.9138262439917045
-5.974881893288164
2.2427066214211564
-5.0032818413259585
1.8408060852958874
-0.556038197699249
-8.22265477455239
5.115410956865649
-1.0786193673964213
-0.7870148273027411
8.227808315057883
-1.3677725781891592
-1.0743683285533583
-2.6675878067071706
-3.601099152682943
-4.846656621726213
-0.47133428649407877
-1.350426375593456
0.18178897167368296
-5.7783172621843875
9.385340637081033
-6.364541788262912
-3.14898896409646
1.0361044129684371
-0.09299439424335988
-1.7858260510516575
2.3329019986476554
0.38010719787775044
-5.933655620275667
-1.986526454465027
-9.886117085290236
-1.651850262398043
0.5332372089912564
-0.5518723354676439
-2.688231613097767
2.0268454124042936
0.061437849850684734
0.3554704811101043
-1.5291516232453433
0.10141091680431595
2.197048696181863
1.6306748980686305
0.07267105047261202
10.182539485523362
1.4060446556348807
-0.9226225817544359
0.9949617460152022
1.7310876323023685
1.1857893470855636
-0.23359919870956058
0.6100293277342681
-0.3292856081158009
-0.23260343579505321
1.3107525085859126
3.82057798938598
1.3540933280381051
5.011890567500549
2.0487697976534296
-0.5168054425324535
0.38664188396987564
1.1598567593735776
0.3247917653447089
0.669553923188685
1.4803437262853487
-0.20954540834812618
1.8881197293413874
-2.4274410267273367
-0.39141883476328754
1.4467203785677027
-3.16968521664849
0.24891938298733124
-0.023072119681432447
-0.5054980933549431
0.6567110759700769
3.5932830793327137
-0.6709217390533899
-1.067810948400986
-1.9832022808465235
0.16934080607106675
1.632987364240749
0.6854583368563755
-1.0913362044547497
-1.3870773266141945
-0.9303874959151305
-2.709031260285933
0.5786479252966512
-3.0891024588417224
3.249726407566492
-1.0550791425686223
0.8228751090476478
-1.3610504995976356
-1.932392982315914
0.04025337474802726
-1.6927142837070912
1.170808257941468
1.3838931075638676
0.03235431554900634
1.704286133711116
-1.3723496283560523
1.3830830160959724
-0.412321093527338
-1.996143362917043
2.0046839811371875
-3.2855743978060157
-1.9200595150346638
1.7432612469574185
0.4852903563901487
-2.286656616920534
-2.1422195599648557
-1.3051960557294344
2.8689744706458904
0.9236298229832097
-0.23499327919728905
-0.8382359405512702
-0.4889572635009305
-0.9889266767002061
3.113414382752912
-2.229037233449517
1.3896396600768264
-2.121487372469271
1.0889955802768674
-2.8176404180380303
-1.6458574163491053
-0.4144114569392047
-1.5826842085791768
0.49712837866164405
-2.0324011619421776
-2.554914928616932
-2.804447590475884
-1.320804773432916
0.428400161377471
-2.634621494345839
1.0585849432650718
1.9830417647797245
0.29865165742209393
-2.2618266559194065
-0.07913609519469644
0.20804101598804448
-1.6526397363252971
-0.36770929618534376
-0.3155229808310153
-1.2267929449546855
-0.18156490023501945
0.4437675484196375
-1.718588937066317
-0.7201085476803233
-1.3644710158400188
-4.729557107964761
0.576764947861032
-1.1470281774644706
0.9447820015417878
2.4706427989460704
-1.7891878642528094
0.6023588905621596
3.489211173770051
-1.5529736511270942
-1.6307198541767456
-1.077023710816249
-0.750559612049175
0.14869963682715642
8.240165141895613
2.778222085316779
-1.8453824462771315
-2.279950324790033
3.193394922226535
6.523849822352293
-0.9060717583820647
-0.8217876493622627
-1.6666137560776768
1.0417939404491372
2.009507364478091
-3.5903067696222664
-1.5927404201055497
-0.09859192702374896
0.947776167784693
-1.408747278909985
1.5745488609773808
-1.0298590007166433
-2.528224308204754
0.0018740848438180717
3.584130809006339
-2.819907013867292
-1.0692581654272217
-0.0371611920746791
-0.6236418719456713
2.3199193429727596
-2.496240898917825
-4.340187882014943
0.2055643954814801
-1.3142859098123951
0.6193160087026964
2.333867227541952
-0.2525790681112779
-1.1872814841198813
-1.106377161126183
-3.8091089624920933
1.1495694139836676
4.1422350834317925
-1.3939563096246212
-0.18716111020483706
-0.9914163398031414
-0.19341092076122463
-1.7319054170944632
1.833401683820378
-0.6416803703202766
-1.5599416244381463
8.210514226712382
-0.41406045724849483
-1.1637735482272438
-0.15374639935060092
1.3709344834781951
2.4750358206869607
-0.9570420269945202
4.28710889498889
1.3313234573575192
0.48013117448402126
1.4620934642021435
-1.2511154275690382
1.8795199794318123
-0.5823935308828249
1.2991573099571936
0.05588689281617982
-0.69157904532856
1.9158873452196827
-1.368206282842591
1.3940969925488715
-3.189659284251285
1.3886526764726983
2.5306226605301254
1.735341308277187
-0.43104544935592765
-0.18575277175784055
1.6024473495174216
0.38573436021676055
-3.2382186205906325
-0.573040824155528
-0.12673699919985706
0.7149495318265325
0.9110404716991507
-1.8894596933923242
-2.5813086968388594
0.6523909069135598
1.2908377162254174
4.503614144876809
1.2932851227781084
-3.2146829973202813
-1.843576654815956
-1.7365342974103752
-0.7342116306242065
0.3103340746105979
3.9735545554814387
1.4219599082152556
-2.4412545945652258
1.5008827100932807
-1.39372558846162
-2.47055965503804
-0.2336646528587218
-1.2052612590909801
-2.89898131479203
0.33533308489448566
0.828962536363386
4.0614580211051035
-3.0351634605590085
1.9804042114448688
2.9710348359498484
0.4454205544831874
-0.5025063760825939
-1.8822749498112792
0.03523705985498947
1.857839041287804
-0.41792918974652954
-0.13282717022650967
2.4627244441747855
-0.6268205566710832
1.0124853965769818
0.8466908167054894
-2.047561388794868
-2.129291006117721
-2.01754061649688
0.10014310687681685
-1.1453421845321354
1.8502734432390018
2.9200314679191903
2.703518591219512
0.7624415453664309
-0.5926871121512658
2.1928995092511716
0.0840651084245402
1.7379811358601795
-0.3639292528656056
2.329273737896874
16.466932025307113
-1.4233920045744095
0.2233095104810764
-1.9414635139006091
-0.5150945055530726
-1.2774804990660893
-0.9363775073943513
-0.9775266938791323
-0.8312768637234762
-1.5561736171772658
0.7392004404898497
1.7455927572402408
0.6518655599374705
8.69727148343587
4.956387764239056
-1.3468340706745192
-1.9724840601689972
-0.03877121600682796
0.18897701901087363
-1.8542520263507327
-2.330721150307193
0.3955279342405385
-3.503553194856153
-1.6314340012221182
-3.539358828101982
-1.4871475674277115
-0.6287347708279024
-1.4681202569458416
0.24227443128375392
-0.3479848532044351
0.5624728692687205
1.220339964561827
-2.548814755438623
1.8710422297104279
6.7331140197586095
-1.5086069398063118
0.46911061321930553
1.101794136750439
-0.14337527258346974
0.4668745960545884
-1.353073165220138
-0.5790684628483985
0.09445977175192638
-1.7484424542656911
2.1235900344074055
0.6157242561483594
1.4343241341481348
-0.8135572806211279
-0.3114960751351645
1.9405929564792213
0.844722352212141
2.100114864501643
1.2004204811424162
-0.7007476329219868
-1.653253140295457
0.7597124803323981
-1.4871050549811293
1.701427579041411
-0.4915501203646633
0.8299747874968841
-2.2253495655118876
0.5738193376075434
0.25407879542603123
-0.9808929939373361
-4.064825013469639
-0.5588029314005769
1.910094498870639
-3.860053421441368
-2.2973927688801012
-1.2054452873120718
-1.0915525210746029
0.011052655601024381
-1.266571091796717
2.6305433720385056
-0.7385835047998044
-1.6935569814047697
3.0730647027352025
1.9038993596066844
-1.4298046332004015
0.34298574618955974
0.4518105264780722
-2.103124655596284
3.395756595132242
-1.9323932038290836
-2.1105244701414625
-0.9136996851590374
-1.0287438742586883
-1.7000631402045516
1.299306605115822
2.1657954917368243
-2.1606239361995843
-4.110966427360221
0.7288560172471557
-1.6960127965627994
-0.312584595317207
-1.25864209651896
-1.0929171605315098
7.436193254066819
-3.0999285115489
-2.112072191004621
1.8011314599065167
-0.12947752028830273
1.4352784788937234
-0.5878157570979542
-0.8059484821877422
-3.1772489598923404
-1.9218720772673659
-3.429292232952929
-1.6625605852577703
-0.5624370407343553
-2.4446818774005314
-0.2885688361268498
-2.0348768547089433
-0.6016870927158253
0.3540049425685142
-2.7566775042570675
1.7572474539957719
0.5219151687722294
0.55866215473403
5.687306020991023
-1.082421176322898
-0.9067935306199394
-0.48107702599416113
-0.9596748758973204
0.58783167815934
-2.4820328185566973
0.7429105852069093
1.528924009413815
-1.325724366456846
0.8537137126329273
-1.0224406755616324
-1.632173231451982
0.8060597546268246
2.4680878359409433
-1.2891698811343444
-2.669052268736575
-0.832301228705027
0.20921822717841423
1.5367168133834623
4.101297640879363
-3.457771809211067
3.2153789844105707
0.4757322169622184
-0.8801446433873521
1.544689443461743
-1.5671195066057024
1.0298588637243475
-5.959085933325163
-4.102344454363511
0.9421219650944446
3.9186445822811113
2.1754671915318706
6.3064659310722675
5.651080255538016
-0.33320764037974465
-1.4597786064540883
1.587095659131837
0.7602675896935028
0.8614289120333783
-0.5250886182816068
-1.6458375852394675
-1.716927528177246
1.9535522424292306
9.97558886918183
0.9818093677758302
13.68564133467353
6.006066947841867
0.8553110551999145
2.80437084636342
0.31915725001246664
1.5859011479023928
-0.3660455843980331
1.823033087257578
-0.2706547921490737
6.0906704862103584
-6.024059209571002
-3.6904298565354754
13.382727007943588
-2.4711288410410983
0.8697425400271276
-0.4590395669771565
-1.875350330248466
1.5794160398535744
-0.6361773754233829
-2.437428528206452
-3.353053213449289
-2.588789223523557
-0.11430415921583925
0.39201359422440607
0.004819910993201415
-1.3670505519968401
-6.496444562297289
-4.103101093539423
-6.76568971754693
2.2256299787087657
-1.2465857582523376
1.0177294027872887
-5.6098268255957535
-1.098613647638142
-3.5481978363634386
-3.18262669021924
-1.0736631898938864
3.7094791583454283
-0.3330271673524401
4.748685880639579
-1.8511240242577425
1.0855052100956943
-0.30708793220656083
1.268813596400693
-0.27699777148272237
-3.2090659348225037
-1.8926282074813656
-2.7209617705215274
-1.639368048273232
11.995336652756272
2.2959517161403546
-1.1992682042609701
-1.6422857617059685
-0.29446451242635774
9.80880185229134
1.947246151140217
0.1262325937580473
-0.10830957012498955
-1.4258407713692067
-4.001993652000114
-13.458590338444509
-4.686823290174525
2.8529254578197567
-2.6263338145126687
0.2819906225529958
-1.0110646623655857
-1.527945311020548
-1.540920089862255
-0.02243575556817905
0.2760305832828173
-3.2673611049334172
-1.3467869646319894
-3.5392680728694716
-4.063281289509968
1.8305539572687628
-3.0389595006234593
-0.026081801123366066
6.890189491499689
2.169514322276461
-2.42585160834185
-0.038052209213335346
1.5309021092797601
-4.755402521183237
0.8555066235572109
-3.1089339963135205
-2.885000206028457
3.706054365383759
-3.822664550967974
-1.5196973968967915
-1.0267142822471107
-2.6993111103978396
-4.440529283323134
-2.652743714948659
-1.7533425236905396
-0.16942742160856408
0.5913844552811546
0.11814018711956904
2.8652703560531734
0.6519364547813936
-0.09841344282142392
-0.7771419367123183
-4.064093446712798
-6.452552232602921
3.354884878836076
1.6481947781488202
3.945892284969168
-1.55038595484052
-3.104142124904753
3.352498432877769
3.752398669346164
1.7044040000437093
-3.4549211867593628
-2.5007832304048896
1.790058092728894
0.44123585414318783
-3.7813215908454283
-1.6038364217509924
-1.3408014585981853
0.5343171908295052
-1.1490078460791866
1.9051362215759753
-3.7443829567647606
-4.948902804527649
0.23269228794753985
7.773138962360459
-12.25060122445467
-0.5304728359071332
1.4857832672371505
-2.2683734243370144
2.349076053669231
-5.057435826229107
-5.395278648900347
-3.8819535720960094
-0.9430221630768085
5.909805642840916
5.225704513520175
-2.6128520894285714
1.4828845679047122
2.1472373043246247
-8.997206910435365
4.609381730072172
12.587548386409699
-2.65636335003305
-0.6205476751143392
-9.776390905698113
-2.1739687301689266
-4.093788118841457
1.19317156190254
-3.399154547879051
-5.455170632409312
5.273896823013068
0.698618478458594
-0.3578145149882534
0.34393704228782357
0.4564434222697213
-8.962371096676774
-0.9071303855015226
-0.801222886931279
1.3669186391834638
-0.48971181050536144
6.896888379932011
-3.2073898316617595
-2.5364257116499753
7.502961287997342
1.8307305779168608
2.7717965712922927
-10.299059195090388
3.4209853516218405
-0.49815503879832285
1.6508552586980945
-5.873493476821897
-0.3810190664102473
1.0841166470807961
4.3259777698509785
1.1680811699073934
-2.772304237768972
1.4887189508676206
0.7847010501018177
-2.4300963097556605
-4.293647629003729
-0.29557526810992174
-0.425836752508652
1.097532377879495
-2.44297537098789
-2.825279095841504
1.673942490009834
-1.0171705272633116
1.0973321268007301
-0.1168641575062571
-7.4109959803135155
-2.6269704917235797
0.08955037939263276
2.4231693416795768
2.696229002630136
1.9200601873373848
1.0139004300032006
-0.5355774447135639
7.069102810663827
-1.0802731933092777
-2.7331265225705472
1.8419613229789422
-5.078637910970135
-2.754627738357632
-0.9424998828223542
4.970636680650661
5.521497162517556
-0.38006403126431443
4.113116976885622
5.423697767922124
-3.807904631982016
-0.342677266499743
-4.464091224823271
-5.103013502624575
1.0591223877764444
-1.3075069385588614
7.62903826979072
3.5911368878138874
0.8188978575745649
-1.1693424994214987
-0.07886193145819546
-6.655122102617747
-1.8505717493514957
-2.4894157419644443
-3.5804224380925236
-0.569168415515422
1.8969012655126378
5.089202514852356
3.641487973364244
0.5428796486805602
-2.356371193437878
-1.0588258679197986
-5.853968921079656
-0.9732703000001939
-2.206518146316825
3.732150456717196
-5.374823731360465
-0.8485669941371072
4.316079652233458
-3.729007056607048
0.4535133439429576
-5.9374345913427495
2.9511246849179282
0.2643715616940735
-2.2417613292459264
-0.985054606839108
-0.7919582132309854
0.07225492421358332
3.077326435859093
-22.16671996210504
4.253020840261769
-4.554421382631126
-7.903303114988347
0.08957413053907247
-1.8655184788045784
-0.1097476090305918
-1.622026022556363
-23.542902598498653
1.4275556367803224
-1.0355636376802806
-18.67056838811275
-0.7736952182688969
-0.40245722387733807
-6.687690726037435
2.375869520589513
0.45265706988322696
0.4750414613527604
10.084364354577861
-0.26311866794288635
1.3859050804349926
6.760820575710793
-5.252928183829436
-0.5168270144506152
1.0471308492053273
-1.647676716676482
-0.7411322622320151
-0.9809490667037462
-0.37869089092666874
-0.10959544684394894
-4.752358082579219
7.4067748022406885
6.199964072678562
2.8962082169685717
-0.3125194408023805
-0.8973400053377268
1.5512221628155685
0.33029235345042307
-0.9632023688648299
1.4128404154371013
5.131189848004486
6.499468240421509
1.5121141874457324
-3.2002724492017096
0.7642087769617653
-0.8653378695530073
1.086959384915395
-5.311786448124488
-0.45941927794057635
-0.4039877604853228
1.1376650225797849
3.498864206011351
1.0699212316721785
2.548971954526831
-5.717024507133936
-2.5761081907580174
-4.323279632804399
-2.28922798998249
2.8487875357955263
2.4525240618204607
2.1350687432429627
-1.8748152027179483
-6.3936118145356655
1.379555395688659
0.9353864858410164
-2.099499039742546
0.07383407520947577
-1.0800787433152266
-5.414156447595086
5.074385803565721
-2.642724547123016
-0.6447254079957255
-2.5367697578457777
-1.1225009386168987
-6.4248968504888575
-0.27553617598462143
3.3910276451169747
-1.4749682837423677
-6.443774936337132
0.04950176983929771
-3.5363097588550616
3.2280924817971437
-1.1870086868332643
-5.141672627536066
2.3306240911335823
-4.747089112532113
-5.264158259349727
-0.5726093076867602
0.8133683181762574
1.5318937046436802
0.32127076299979124
-0.6819033809787277
-1.7769901620704673
-1.1170599906210057
1.0084262366456254
-8.483700401768447
3.6941366635776185
-2.9056837275119864
1.0794794440166862
-0.6426504637017566
2.5359099924566855
2.105340851304912
-7.28812307636509
9.176357055198567
-0.22475265750363566
0.19765152565049635
0.9507630093176392
-0.8815223700320204
-1.3471714553577419
-0.09213328630986002
-5.200622063048351
0.7979732174569308
-2.855776514934558
1.641634124514561
-0.6304062083093023
-2.5295924879019736
10.510256692045234
-1.6601978884910364
-3.9910397780566664
4.424114404422291
2.6210216870888834
-3.8732946145598106
0.32539443707756677
0.27964124157381504
-0.7475097064198827
-0.47588346522787656
-9.874127053078189
-5.243094822372747
-1.5745961252968252
-1.1734488103119833
-7.573682436373098
-1.6925357981698368
-0.2850687348957733
0.1258492551784911
-4.085481999990314
-1.9955981408046222
-0.4867936232882635
-0.11919926710899831
-2.149699832569994
22.762689648433735
-0.14350357535685276
-2.197395722358113
0.22956021997420106
-8.627905031492244
-0.29911948045862796
-1.535038079891422
0.3292262574617625
-2.187104612563031
-1.2371584705036802
-0.017251145812011443
6.00069734908727
2.1468399621102816
9.993538036283843
1.3022830339574838
-3.788361960020684
-1.4094582347361049
0.4459546143963036
2.2388378791420385
0.02672901459582269
-1.5912081498319202
-4.249465972273139
-2.6427852025561522
-3.0237971790424614
-1.0272596229562336
7.612902308336624
-5.213118698901593
-1.6931437625166672
-0.7892679331279656
-1.4803361338880217
-1.6947021544804417
-0.5778345699103192
-1.7689811863411051
-4.58807102365549
-10.340920366738738
-4.887683205577239
-1.6026173090395446
-1.6080453088408284
-4.5288825663284396
-1.201615728041354
-3.498485936149459
-1.6302709532086075
-1.4415417442299214
-5.054569120381053
8.58329796675047
-0.49095644369301883
-0.8594124705207579
-0.5211391722435749
-0.9505306135729616
0.2613144798506434
-4.59122831230274
0.7654052257222922
-1.8393355599912402
1.9022729938987166
1.171187568005955
-3.173774292104146
-0.2799613344603959
-0.08503156186059865
-0.06480287036769619
2.640538078692882
-3.5060390657709166
-1.7640311476943098
-1.4761175687150607
-0.1633544290198294
-7.159851702423485
-3.339042000862335
-4.567793420240549
-0.2456695242700536
-1.3457178869421627
-1.693970944939368
-2.54312461693741
-1.2127384786806243
-2.702078944506902
1.2075752621821754
-1.1949931979822297
-0.3918052114803421
-3.385996211864522
-0.09815151720071341
-6.205567744431814
-3.785015555314422
-1.1265678303047768
-4.492587913179035
-2.343900837900018
-3.608332343050969
-2.4717842673258685
-3.8952191666979203
-3.9155062806504355
3.4801950580130945
-4.677274631158177
0.15849036286574145
1.105308286742816
-1.1828681876958318
-4.668732450019361
-0.7383613705251412
-1.049144266642002
-0.8751551986430192
-0.44959496016417455
-1.6345763777226419
-1.809379160254191
-1.4877417628921978
1.7285686411088654
-4.00554316843849
-0.6820433152914016
-0.4000624125865048
-12.961209668423393
1.3890862471059682
-2.5177515591656947
-1.6802714668313474
0.015779777172405456
-9.44608605328666
-0.7901595715329182
7.39418118449716
-1.0085586993353732
-3.6737321927380773
-1.217365663100163
-0.9536592730718517
-1.024215275822546
17.47652015797161
0.5694979478446153
-4.9831188764656655
-3.3223268897724494
1.7820675421752852
18.94986774519122
-1.7914142032887777
-2.6661910758753873
-10.720623142567991
-1.2779158640492874
-1.183976719522528
-6.179784693356849
-1.5029878923638396
-0.2024531410179661
-0.9699214263725144
-2.665289902450776
0.3320567863732571
-4.893769749787744
-2.6341391914835355
-3.9423176402760385
4.199975546160834
-4.137029879069141
-3.011328653826638
-0.7558639571227015
-1.214252439520841
0.8266280568646113
-2.1765476822919516
-5.723884337163212
-1.3174569952901067
-1.1309408461760808
-2.457795937192386
-2.3942073677665325
-1.29220525837468
-2.7775399841365886
-1.5125227581287704
-0.64146072357301
-0.049957662698988506
10.567016322152483
-2.1253446387125234
-0.47888513685771594
5.1790949014302585
-1.5201379926295324
-4.308059104463492
1.706712189310286
-4.975617513350498
-5.322893593434395
23.554675289447893
-1.4423975264084408
-1.5422079605511574
-0.1912217188621024
-0.7904969487244338
0.8177750116058988
-2.807264429014031
12.159789709712696
-1.1968442533377321
-0.36878580831060265
0.16886703932714045
-0.9332133795281328
-0.8858745204137797
-7.295167395853858
1.340967884168888
-0.13936973459122196
-1.2179809849033048
1.332319767011648
-2.476132620109294
-1.0395801913632794
-5.2132664435995615
-0.1929849475078136
4.712850690751181
-0.13747540755363866
-1.635778152223631
-1.7770841209573869
0.7029079777953307
-2.0629963897292947
-6.361352604045946
0.4488129346942038
0.21521745294703173
-3.400968906289839
0.35249662352361466
-1.2422119566925922
-0.5939222222450106
-1.4418684473678338
0.038798023636764246
12.809824379896368
-1.0634210850784385
-4.257886752401885
-3.2235743925814497
-2.899165006515606
-2.485409436625674
0.6393151128706628
3.5143796930225726
1.4562901045061762
-2.5934461422151127
-0.7560380118033271
-4.958893928397813
-6.834260628549597
-1.8046818761477923
-0.10569022237755961
-4.868495874058737
-0.25293645966845685
0.8612717864426387
3.7861522227063
-1.8349126686717188
-0.674318757014865
3.111729551087975
0.550594398406047
-3.331969243145375
-3.4324865859330385
-1.5354665553522449
-1.7350452247039974
-1.7708490477424192
2.299929778459188
-1.7424877403053929
-4.681650126722158
0.7377432132758415
-3.9404553470951647
7.344016928032167
-3.0104083134666535
-2.633702640931895
1.026948698914337
-2.257996398240341
-0.68978631822792
4.019637963982119
0.19547770920829094
1.3624244608628258
-1.0251147922396364
-0.9854784129166174
1.9183982071906323
1.5758257881139281
-2.0494111471525627
-1.3847537189221129
51.61675681822774
-1.775378036974954
-3.814312851239784
-2.541125346820773
-2.4681026255114276
0.7599951362379614
-2.192298898262828
-1.0216933082319362
-0.6843834501308141
-2.1559300088320725
0.5494511466893846
0.7407747320372644
0.9657774344211779
27.80200941117712
-0.09330862591376594
-4.008462569760184
-0.011040518065494054
-3.2402114931042854
1.9711666532084258
-2.6395312345804847
-8.176870108862468
4.185124298722618
-0.43066478761182825
-1.8768283224414184
-4.778843559303179
-4.32294454389428
-4.4143244755480575
-4.494148792051995
-1.380314402781808
0.36183700721050754
0.9726345875172915
-0.14576505588259317
-0.9584578134300099
-0.17528698117907388
-0.2838034429250934
0.17067407111133914
-1.0631693572714012
2.638847269110931
-1.8462117737569013
0.44051331070953065
-3.31125624007917
-2.360766639752144
-0.9571297683162174
-1.4486512618289573
1.966043996846661
-1.7971937227274752
8.482023790764044
-2.338425569063707
-8.502075336440356
2.582704174095609
-0.6590296478511505
1.3787813151435646
-3.1079255451595924
-1.1267241259531593
-0.8712760009393524
-0.3473813059420631
-1.3708389464283572
0.015052625022000905
-2.892060257855742
2.0804190625824757
-2.292907046893728
-2.9374879696373712
-0.3081393834981089
-1.8404949511537139
-2.0460111000302446
0.5152096245670774
4.56895711123038
-6.273054773262352
-2.9691044790516083
-1.9283905375711756
-2.773529331421558
-1.4837486707145426
-3.084015228438582
1.4261175115946474
-3.7583432910785075
-4.6853010271460285
0.4419185326191435
-0.8714629227912469
-5.351449561029189
-1.2099587139455392
-1.466330465174973
-2.5982280211698168
0.49063031165268817
-3.6975787395740998
-2.203555522353849
-4.617991164761436
-2.448160043994161
-4.8033130017865275
-0.19659348092710718
-1.990672764772175
-5.72487709208947
-5.451919918842227
2.6122034450966227
-3.833435711354341
-0.04042827559793643
-3.409409643322579
-0.8356091452405875
18.646709714543746
-4.706867719390928
-5.615955466527616
0.4914464032878045
-0.9822415683112132
0.5442524259000515
-3.307232411500146
-4.5257318961405115
-8.872950861672464
-1.814404982759607
-6.198816419471992
0.4037591912309171
-0.7450589153379817
-3.5821599904222836
1.412940285511718
-5.279210195531813
0.4830752259826543
-0.7761371740113366
-3.675930027554657
-1.2548720979743935
-0.3758667655489419
-1.5518333212121644
11.000948513323499
-0.3708249969425132
-1.0982078022289903
-1.8845384255165067
-0.13188053607588165
-2.828004852358315
-0.738097590063998
0.6747234748165594
0.20525518297523312
-4.965299128982067
3.564087198669562
-6.431098252274764
-2.0881748199010257
-1.535306098381054
-2.511249422603622
-0.9029401184471935
-2.998216746110188
-0.48474730611890987
-3.6852289310593522
-0.10107544941443364
0.061859942283248724
-5.580467859096121
0.02758005926994601
-1.3393720737579686
-10.990196268560691
-1.7403016105137712
-1.2894217588352535
1.1527606199265965
-3.4080959855757693
-3.035775946742889
-2.1204326600307124
-1.763003474712946
-2.3225204371434005
24.84615868492339
1.3533797098684857
-2.183268812132064
-0.26759131939782604
-15.359502594285097
-2.0542151399740707
-1.1694553303310389
-0.6966717817609576
-0.9581567174378516
-0.37448999420746343
-0.3090142032286242
8.959715094503162
1.668007037361661
15.16996722902325
2.7776666541930606
-6.5479618422970445
-1.424351095128406
-1.4017820458222139
1.3806507373114927
-0.49962989529034635
-1.2489759626141181
-3.7376411157529037
1.0083542988848158
-1.7271660056896816
-0.8103827539210946
12.71539100185242
-5.121408034978812
-0.08806734546846337
0.32618181860638445
-0.855336324273024
-1.9325383221970267
-1.6411589922165104
-2.0252274596106377
-5.820804575122222
-12.028370119512452
-5.6023242977270495
-3.350937157921267
-3.8791241444918554
-5.6231613665982305
-2.9471124939505398
-3.3393996586975745
-2.140312967092275
-1.385437527061763
-6.335791092843074
10.593345146583038
-0.7728823485844057
-1.0492098779175476
-1.3523870508007012
-0.6008863950470791
-0.957697009965061
-3.6029722366341086
-0.2716408186027366
-0.5862099579944328
2.208502266772366
0.9696961180079554
-4.168357693173701
1.1072494204124912
-2.919906760293429
-0.0808045317581162
-0.3758353353619834
-2.5054089515438154
-3.813679182064397
1.2136988298811402
-1.7452963494168359
-5.758336766255517
-3.010260029503646
-5.465530140345792
-3.674039278676279
-1.5541038284301831
-0.18577081876090365
-0.3465211208751161
-0.6573098360729406
-3.5675493067432438
-5.30088221991844
-0.6933953406799973
-0.23520900386786994
-5.096436146330808
1.8701250468760229
-7.0270390387161
-0.06915823495786697
2.6483423702187117
-3.7637188064193503
-5.935671197184109
-1.319094859593281
-2.1791645622040656
-4.528027941886954
-4.9867695129085
4.031328746672874
-3.729430859233247
-1.9967871950306915
0.03947806666884908
-0.39829754850694365
-4.2533039579987415
