0.9563815975516052
0.42250165937430145
-2.43435650282538
-0.7485611864410929
0.02311560406748576
0.3263774148731391
2.4743741284885687
0.6782503391974063
-0.5800839113376909
-1.6832754325596766
0.6488391259642867
-1.1701463353513215
-1.2679233901453686
-2.2448436901345383
1.8687775111460831
0.1445383326989069
0.4323435971864171
-2.5566180421341853
0.6789979688180753
0.11498400567255382
0.47349111012763595
-0.7260445016001279
-1.5708346354364267
0.22833911300023757
0.9416746463276201
0.5513415168133846
0.055617100091425155
0.210247793286703
0.48477049527811805
0.05073642614030606
0.8077689841114305
0.5643925845129347
-0.4048618561971962
-0.37632081190944283
-0.7782079457610607
0.578681639248437
-0.5027030515616475
-0.4701392312445491
-0.030449451551841724
-1.2035114188621
0.7242461507537336
0.10063904096826504
0.013477050680139244
0.8557579103849706
-0.2923631094504703
-1.0293680904789364
-0.2661823239104688
-0.3569196647736809
1.4523673273558853
0.04941368685945797
-2.8837538347314435
0.5492984169849419
-1.24743041298984
1.3710232732817527
1.9588876695494946
0.318185329561539
-0.39257552010498287
-0.5755529494150171
-0.37507286670672985
0.9181634177730508
-5.175324249722948
-2.8323495626810695
3.384580836560509
6.991479817849732
-2.8326355119073336
-1.2292777963978927
1.7553701493822975
-0.01611191851386422
0.4523441828595665
-1.8088776616478548
0.8809364186943744
0.7595939665255305
0.08862253011745327
0.9125297048998048
-1.1470949972908389
0.16149001078737776
-0.21208874818236825
0.7160660606471448
0.5013775105403897
-1.4419107947304302
-2.7075311863144513
-0.3370781073358699
-3.5663659915759083
4.146331596209744
0.6209354397319742
0.5589828960044835
0.6335283740998281
-0.7890038375253249
0.9670524972475214
-0.6707994167134023
0.31384065130049504
0.4358793346667281
-1.3289273171782052
-0.2170734140562096
0.6211023225499974
0.8545309642920667
0.27767095288412247
-0.5745959165943262
0.7698769663392601
-0.476300580588333
1.0515341813465786
0.6639722037508906
0.7705695002839852
1.0407128218190749
-0.2733028122802043
-0.26930640211092133
0.7961737331762212
0.7943055538776884
-0.22388718500459506
0.09152708801374208
0.9681027429945378
-0.2961629532690818
0.09996648915232088
-0.7606818107378907
-0.5099662545555916
-4.450070622899508
0.5046830510765281
0.3536632436292781
-0.5434480207849216
2.4585505874783835
1.4622819227074055
0.2973193576666117
0.5062693479788652
-1.0862330678611645
-0.8232615746247054
-5.114017936304233
1.7332553703292863
2.49287389213186
0.9916646879505329
-0.3901038573024923
-1.8524973398420173
0.7676565627426255
-0.48231316431681287
0.9424669026113252
-0.8064499131122183
0.02415824674550448
-0.06875314266313483
-1.1028615556299741
2.868338449875303
0.21978004531561524
-0.17467958162019392
1.0450738306042233
0.5169559985377493
-0.6494605321856772
-0.8132591359816685
0.8414874768985802
0.47993579458469254
-0.5812241416208054
0.42683921663786323
-0.003561411099709585
0.9827421696461988
-0.23101164782558126
0.1737605442362515
-2.329345778832785
0.3261788719438826
0.3006670683158673
-0.40954641736111463
-1.414148539308219
-0.14323760516734596
0.5255283613337809
1.237021872947777
0.3250440673387816
0.3718158495471407
0.48259123607121335
0.06363046403484916
0.9672469248269596
-0.23410739734796812
-0.7824400422817784
-1.228523946723523
-0.8885127800424573
-0.2955318968118271
0.336032027165511
-0.26509346056259514
0.5677463594116949
-2.640098946170223
0.8167143784588492
-0.47536450264595703
-0.09127708504549022
-0.25586888998990787
-0.6832625037671919
0.969098996210777
0.1921908951971706
0.4607573457811863
0.7028745049888088
-0.04197275378200109
-4.044526638104113
1.9602334039070166
1.574464860354942
-1.2170319900278652
1.3994028585139342
1.1573194575272512
0.8225662168485012
-0.7568548704146709
-0.8575873804737338
-0.7848530781799167
0.9524792835405057
1.1045897431332488
-0.2063379605035011
-0.9337812474118333
0.19317941585080248
0.9320995018180401
0.8561685176268545
-0.5591504653439956
-1.015972369320009
-1.3561650359995727
1.150547152915322
-0.03939779555337045
-1.1505817953037372
-0.8465628845277448
0.979922375310239
0.6921931092334662
0.5281863834224622
-0.9927732701320934
-0.2581504778884737
0.5036270488647608
0.7780516152180665
-0.4618998706274104
0.5385900751781726
2.0156926890408124
-1.7409827298137786
0.2972745659151754
0.6995641828070291
0.012992846265803715
0.4842731807296113
0.6748527215488371
0.6795956806307977
0.2987080154894647
-0.3671769521755584
0.5783417163080445
-0.4039961192238735
-0.9808074235743954
2.001579508635834
-1.6135953877397977
2.9853962088589476
-2.6310167112923204
0.28224338566729645
0.5592005002863298
-0.4616636979824547
0.9880982778632648
-0.9445558957641511
0.6363607974324984
0.13906263898408386
-0.15739844523124702
0.33925100678090264
0.8092201396722976
0.3932768135326555
-1.1659873005903212
-0.2116123524881698
-0.11434008945607284
0.5411055536253535
0.4462120514298715
0.19248788531086955
-0.38390587073366295
0.6456344089624675
-0.34779493649816345
1.4096162286302272
-0.09348196521015122
0.4918828483034006
0.7041501663751307
-0.33287105125840427
0.58390310679704
0.11172959154824048
-0.3992740123275909
-0.42153462706688766
-1.1955455393654308
0.573261198411974
0.15906903911085
0.09687062595351939
-0.27166739829763464
0.29904179833469424
0.5395448895496487
0.41246651248935856
-0.20456665862530504
-0.9983966633000549
0.2953616347048357
0.6221261616299829
0.44628675237771553
-0.6703365696003108
-0.4067362187412733
0.18552805010259957
0.2707669574567548
-0.40475028373425387
1.2604623824257575
-1.4055259314548454
-0.33269318713552
1.2969909185783621
-0.13527960203240294
0.7081199470894862
0.7615606622047297
-0.3416554609498959
1.6448444248852137
0.2082846959306239
-0.6913685563344271
0.09843365954170569
-0.7100325746007875
0.02750998257184996
-0.4296901724943476
-0.42294653223099077
0.10115505543526898
0.6573788424668058
-0.32216125707819254
-0.10205972906343304
-0.44062079795457
-0.8670267059524334
-0.6005758997254569
0.37690772421486957
-0.24707709543221534
-0.9831636145351269
-0.23973114766545034
-0.3448818095583477
-1.4315556418190825
2.1011053373385766
-0.15210343142929042
0.7159592600298782
-0.9988224929534548
0.7680995422588001
0.32505133619762444
-0.5991450883133814
0.61126059195799
0.11164408217279323
-0.8477432493324998
1.3021690402295119
-0.1415733025988943
1.017893566484539
-0.7270511019559565
0.6854903732159284
-0.06959682602757879
-0.3809479976308617
0.23624413297357044
0.3130254960114871
0.7429499114716509
-0.514492673134385
-0.19653560451813884
-0.9776924793887717
0.06300176371979993
0.14789007702175672
0.04647170542277191
-0.5440356784916628
0.7991780931854932
0.655762154469024
1.419554611466551
0.6188416480119311
0.25430687733147644
-0.6712464169420501
-0.024524603963670996
-2.169799877035459
-2.2459949102859835
-0.6544062236024472
-0.43414673101907086
6.6679646133879755
0.27804852894625065
-0.5758415533739749
-0.2794524927684105
-0.6429569160776611
-0.38192587559461744
0.4976326660395076
-0.5942390846396108
-0.9350039533303872
0.4719286390457606
-0.16860380544374487
1.0393421578368418
0.4724663258218731
0.050881542819531854
-0.7748815982491577
0.8614908835438985
0.1655357596511846
-0.12366142876263486
-0.3538153624841998
-0.0038012935126866096
-0.870201292465609
-1.5955313134229456
2.0183602091807984
-0.027354380198289698
-0.9487373302441912
-1.7883234732402509
-0.6117336958923324
-0.619527100387561
-1.4786060872518818
0.4699415616150798
1.9161135439463273
0.8022528979015108
0.9399008548297567
-0.30816916827128865
0.4132827896781538
-1.103176191015193
0.23610094055345462
0.7264668678116319
-0.13625901961329862
0.34436765547065035
0.8279732402154742
0.27204853819913044
0.4335192021953228
-1.4619677777786073
-0.4530513974885295
0.20556659047540013
-3.3947032717811108
-1.5440411292290526
-2.004128588220023
1.9132858339231686
4.371817210691883
0.7271794154084048
-0.8032678731737364
-0.30676554116287147
-0.5819116879743615
0.5862326742738028
-0.7549002463142205
1.0569520771948295
0.2684560977564816
1.3298090214260594
-3.1646530463757596
0.33385907729401443
-0.16212068628375445
-0.22555577304086347
-1.6899177763872524
-0.6135119740833268
1.005755717487506
0.7536162312374058
-0.6082407776295491
-0.4685846565611103
-1.2833821181914353
1.2699327818298412
0.2998983360647141
0.4456985949490641
0.9904007212100137
-0.25107147757364934
2.2340559091229903
0.8650891015853225
1.1721640787430978
-0.09049151969222836
-3.983864347054849
0.4381073439372195
-0.1870254629653554
-0.08643127492625854
-0.5639019026972361
-0.47630755529934155
-0.3846515212351948
-0.02901276641602837
-1.6090089677411885
-0.6052429037202057
0.6971338193490815
0.6435395540477875
0.7035702832344056
-0.5488880422706194
0.725621680226033
0.3090293107591058
0.7809800301820303
1.4155947429418803
0.5314709487197825
0.4741829232809149
-1.3735442079566458
0.5379972393768215
0.36770874850171276
-0.7276278895478504
-0.43173252924684913
-0.22955837431895668
1.159730943118323
0.8514952411099946
0.4501645122517775
-1.3909070887274153
-1.2912119949628253
1.877651546892533
1.1214504812818635
1.0422843817510863
0.023725342585789337
-2.5137415453530996
1.0607696798890718
0.7084313691703055
-0.21655138381533712
-1.8659921703908293
-0.06261714437887604
0.5099081545793286
-0.02407619519629168
-1.0848802631421177
0.8736815771151353
-0.4245620796568334
0.695135038368655
0.04519103756653289
-0.10575368500668561
-0.654736731704508
-0.9028975384905146
0.6674061525297674
0.36325774076846024
0.08296322398338005
-0.7806758932297463
-0.3125327759380434
0.6105456691111684
-0.41047990907474596
-0.5540786757802937
-0.42826038722202703
0.2598608288821989
-0.012218229958208978
0.8921151464920274
-0.4003349523298855
0.6984659334026101
-0.9588895836165197
0.09488183838247136
0.3388893283530841
-0.23242100468128965
-0.18872674170901016
0.5180190428129647
0.792261948092753
0.45290690339272605
-0.268888975501562
-0.3053186683214722
-0.0801650101496132
1.0224713895659685
0.6829431939551184
-0.9299782071007505
1.1406486671236185
-1.865087553033383
-3.960106798272541
-0.677747353733873
-2.05611782324234
0.7368213018025035
5.609840301509155
0.5230344668387135
-0.24995024711145516
-0.24061567377837353
-0.7779102427954069
-0.9611547786877755
1.2687996473410332
0.3125440971189298
-1.0833470815070123
-1.208567002598219
-0.8846874012512235
1.4932617332191584
0.3474439122956967
0.22105794274736898
-2.1725892606735533
0.19063291205979774
1.0126936300174287
0.4648633468634465
-0.8871521877605105
-0.47295510384161604
0.17921120845077324
0.20496176594373375
-0.9371286086042986
-0.4028916547828197
-0.26933018758109484
-1.085614054291866
0.7798022668737613
0.33849349552981817
-0.7363573228195551
-0.6184210935423681
-0.2878820408617161
0.44429509650222637
-0.09814677144800081
0.0408831923742245
0.39270398989492267
-1.228827833182696
2.9200937809769125
0.6546445038619955
2.1987663724275714
-0.7854716420270207
-6.021658415657105
-0.8269453084991704
1.6604224170117459
-1.480504046939291
3.279035499517278
-0.3848170251517916
0.05636508850684526
-0.34747607353336984
0.4262853571327401
0.9827447260139568
-0.5166280746506524
0.960754626080581
1.2496054565903416
-1.0386285737108238
1.434179375363508
-1.9254638876964358
0.5626095440395278
0.03611622706596583
-0.052234919442427696
-2.350631577737439
-0.5737042184841001
0.5735406078499765
-0.14480438961281344
0.16988378862373582
-0.37391671681532546
-1.0979633927768508
1.7982181193286402
1.9920865495947964
-0.9962053180135687
0.06919239640254343
-3.947725776142079
0.6310759578659225
0.1101717653660096
0.6846926806744277
1.1298974637232098
0.5659986230441789
-1.2405547899467944
0.6215008426578145
-1.1519145230056174
-0.7777252326614464
-0.6282144098710709
-0.12533018053018136
-0.17448829090137755
0.4695086955063238
0.9091525937258452
-0.7380212512560611
1.5724828658703633
-1.2551027141175548
-0.936284479530045
-0.021885522398894474
-0.9762562986173283
0.1879255125935853
0.9695166046688027
-1.7645701701594125
0.714732043697567
0.22594265971477903
-0.9966909606032549
1.5747244661812902
-0.5423934568874935
-0.006926779718756471
0.6849279575549261
0.17577882006816148
-0.3137956430037326
1.632472044970519
0.8982551154620556
-2.1630951658595374
-0.1966905063262825
9.619276829306155E-4
-0.1843261586440231
-0.639828357790432
0.060745562133249796
0.8682928363664245
-0.09998958025088599
-1.5531689587293942
-0.8215145423143102
0.142760716631699
0.27798531118202574
-0.4339340294614568
-0.44288485999801147
1.015777325121839
0.18080705398363056
0.5676590137262333
-0.22987020034642502
-0.6892219376073494
1.1700218915917369
-0.7178946904249961
0.8237122395316956
-0.36154466730037715
0.21275414495860193
3.798149876230092E-4
0.6189578176293228
-2.3554818630278485
-3.703158621106682
1.2405241746298963
3.2696556378688433
1.7383727963890456
-1.5914021366017512
0.07322872372237173
-0.7786925533322916
3.124661223706622
-0.17259794856733252
0.8909257505184679
0.454964679948826
-2.1357655732938827
-1.021725679716664
0.28153024374067975
0.43141445020564123
-0.20443807412631726
-0.526832710036648
-0.19322111775774292
-1.439549947857282
0.10264055774333875
-1.7398070871520115
-0.463140848872907
1.7710757185177932
0.7470095864093607
-1.8448131339241423
-1.7590514988970651
2.8835167746297476
0.9692030587304311
-0.39403221509885067
-0.05329263660253688
0.9392245085615204
0.5178574855568294
-1.1756018875508891
0.17540415603171483
0.9470734079001805
0.49173030965220277
0.46481700885121113
0.393033886372586
-0.17951989449095232
0.1631225728917025
-0.704367748191202
-3.2904216854387327
2.805687669958137
0.33748647167757007
1.2924493063710432
-0.1330903896156481
-1.0152413837824694
-0.1832567667218116
0.6584983337675816
-0.5362868881889782
-1.0117820870822725
-0.12284636753509184
1.0761971957939191
0.7360508916989937
1.1086829613812885
0.45414579931562665
-0.2948833805802477
0.07827139784841326
-1.0331585998802248
0.45316061232037314
0.08512176207065805
-0.17015538482922182
-0.6109552002570768
-0.21458978397132158
0.16278078173158786
1.5923489245433855
0.3702759205539618
0.40970359944241835
0.7614145296546568
0.5244477996909203
-0.274450099817724
-1.5081089645530665
-0.7318562994110739
-0.3302892644263539
0.4103091602453174
0.2836752467181275
-0.24570808087444918
-0.8985983031625747
-0.3614504018097514
-2.2559785656676583
-0.4872295357275955
-1.5603826870709578
4.6777198373687385
-1.1617201465766607
0.7216938788358086
0.08520289565411573
-0.2703230869308403
0.47436107357384233
-1.019852744741711
0.1273663341085886
-1.2683169491844883
-0.9461268535103979
-0.8627339825747926
-0.5540239910877675
0.171715168609369
0.39979525279760064
-1.6826456721234024
0.017507099280483863
-0.34027312924870656
-2.333704541011529
0.7071643560268528
0.010919479644840222
1.8407958560714304
0.1447218655781573
1.777501433448087
-1.1055960049857383
-0.5289139626493454
0.25037393293626553
-0.580810105908593
-0.30186509319187993
0.7194594740050114
-0.25782491522988954
-0.03295800307001627
-0.03436086816313796
-0.13618373722758323
0.6716405320975465
0.14425639475078866
0.6469064943376016
-0.7588294520922287
-0.17644750084435673
0.038366603873038176
-0.5034669405917349
0.2706630443460727
0.49720801859099006
0.7156993869392378
-0.34591365411760544
-0.4664424701017776
0.23209778064335201
-0.04217428779406001
0.8123194586159566
-0.4819163718938709
-0.05423714987246119
-0.9125155607420458
0.1747107206743464
-0.029467443442913105
0.7139800181529182
-1.0324737625486167
-0.7992501992756756
0.9517674964034623
0.3041573851027671
-0.3712865509705622
-0.014840581782914072
0.8816516083436956
-1.002505514881463
0.2021181833925804
0.07366784055697695
-0.19429263492695598
0.04948304122966132
0.5004365340387297
-2.638308539731709
2.6340039873843204
-0.90094683308543
0.8609047229594495
0.7386239451646273
-3.7498696242118186
-0.33002841170005376
-2.014068273972365
3.996806289956703
1.157286345430359
0.05649967890922435
-0.6107314921708659
-0.4677922438767345
0.3656619869576949
-1.3429719863297005
0.55919974742597
2.467050757196253
1.4052859481578421
-1.4191758957937919
-2.498514654825766
0.5532906963772564
0.41432679029514335
0.6149710633260188
1.9134195418201416
-3.2030822228561995
1.5996303837360408
0.12496080810142396
0.2769285877864963
-0.6435754910952813
-0.09034119014614717
-1.775147423180837
-0.33322059712970037
-1.8783438043615142
0.43014771225205467
1.6991477754792867
-4.335161756399868
1.2948129980745156
2.18013718900619
-0.5905261517042136
1.0239923918134102
0.7503692954110097
0.19318638398818674
-0.09581783102970862
0.28371832206449044
-0.5716563376381119
1.4254061656200268
0.5944104960539189
-1.1145502242437002
0.014355320340118046
0.16597851403189035
7.898643815525421
-2.288401066680559
2.1381112611259927
-5.86838740924449
-0.6627622151784134
0.17275872543713985
-0.15482934048755637
-0.3396246795796923
-0.2687007106875848
-0.37516937290194435
0.5628271583989384
-0.001391190764874357
-0.610548253587504
0.18325932278963344
0.41781516179686373
-0.09440544492761072
-0.26222519972075736
-1.4436053770491861
0.43317490447457424
1.245374842250275
0.6911245676641079
0.17415064800173052
-0.321337248648624
1.00997391324226
-0.19999609500687665
1.2811476639644666
0.26277529797796373
-0.20336220532847096
-0.03504579391055735
-0.9011842387973616
-1.3143515177870069
-1.346254000088887
6.080059239977803
-0.6589160848653793
-3.865615617881194
1.007585209084603
-0.039369370066201115
0.35578095679730587
-0.31922342809248117
-0.6005641705548864
0.6546987032882774
0.7623370749382569
0.5117925102456484
0.5885080406708683
-0.47807462385893373
-0.5631365386510715
0.9235919735390479
0.5525731465975969
0.526702555223981
0.7208112519501035
0.46951112425716907
0.25004644059564635
0.34210335456279284
0.45220063817286593
-0.4165931045480863
6.421749707886728
-1.8273421232312332
-0.6695816502319851
-2.694688357257986
-1.2121210060021979
-0.1717571595248173
0.3379673088956534
-0.3808213131601952
0.3879459443022858
-0.729245712951386
-0.07155324934375759
-0.5119662587541576
3.624407077279144
0.48893711206818596
-5.236846263890656
-0.8060577943646342
-0.794867301040384
-1.3924520106312932
2.9898597846024355
-0.873731213886552
-1.2359165937904502
1.083466686776939
-0.3448061663462116
1.4346645664017927
-1.2466916547510631
-1.977395305569531
1.4274444018835764
-0.647849176005114
0.6372854293200921
0.3459988810023753
0.6257020655685475
-0.32762743758364216
-0.16686338197464523
-0.7257235298502472
-0.15213939245414104
1.7459113786778448
1.7247327121856453
1.907425044579066
-1.2204893589474428
-4.758083906740338
-1.1606869644731337
1.3212201774408232
-0.9861500976115983
-0.38787054649356184
-0.13430274678086768
-1.8944578214812258
-1.2619945431185362
0.7343722036194466
1.8976510199315897
0.677616385353393
0.7450204701162887
1.2179015576907275
-0.35391213676377925
-0.0033134098253748243
-1.2385183673049431
-0.4759187703502166
-0.1734185202558521
0.44476547660800053
1.8175072813644515
-1.6668976644552311
-2.077789655752765
-0.00949124386497057
1.300039802592343
3.489091689149788
0.2594998827605133
0.5090447304291444
-0.1067363928057078
-0.047302277423056
-0.8549078247347598
1.230072735644374
1.275935442919289
-0.2977831255952004
-1.3769110421656519
0.4382252910605616
1.2235718647536518
0.6306812217364441
1.0379046953975222
-0.4438462281822007
0.12133869545665824
0.447790201824297
-0.3210794996087733
-0.2240290322157527
0.7744135207889793
0.15987992372046028
-1.5811451573893787
0.8173720942048562
0.7879556263871768
1.3394855021948098
-0.12287863054333908
0.015138083029223079
0.3594787292559308
-0.2562204909850315
-0.29589117974160006
0.18059955885737067
0.3857048455946761
0.5243652125305629
0.12438964063003007
1.4217145604355237
-0.9141807433267952
-2.770113249788547
-0.2783069634162334
-0.6415619905392929
-0.5561908746226912
0.13236668398408774
-0.8042466150646295
0.6975694138434773
0.36573274422017116
-0.3076158147983356
0.643849393208409
0.3306300723027715
0.4159618535055859
0.3240243200656165
-0.13698317203734428
-0.613931110662521
-0.9253664596009499
1.6005596593991236
1.2000751228417228
-0.008097505778047787
-1.1108078414561642
-0.5492630124417536
0.309967260268965
-0.05693042705770743
-0.012049892305445262
0.10828590426285095
0.054068068830646646
0.7704806754318684
0.22025777811329555
-0.9425013901756684
-0.791317077192062
0.3256394157046818
0.10321292838632164
-0.9182418423977503
-3.00806283787136
0.055139525331983824
2.206595059230142
0.14165372562434214
-0.41983018996658683
0.3673026593059274
1.3338022308951623
-1.6241622247349214
0.8928378908303561
0.14328259343313693
0.29517757662038085
-0.5455226264405799
-0.03743440027966424
-0.3185070691777664
-1.428753525342281
-0.9390346743573369
-3.672689808116442
2.9372971042857103
0.6524014120958761
0.4899543600992216
0.8264941508564686
0.924318317831155
-2.503356912483074
-0.48906845386945463
-0.4578709712295929
-0.28154956585728724
0.348623907682454
-0.20706454643514338
0.3137173055505356
-1.211948750457099
2.679945339864315
-1.6428258398744682
-0.7116486733123149
0.5826313588045562
1.2247441039382763
0.23448950944483438
-1.10432765333594
-2.3883882178212024
0.9769701082364848
-0.7372666538230261
-0.9036243776348233
-0.7783845685988577
0.3722686611184718
1.7689848504474672
0.9923401717489114
0.48265323038170393
-0.8201783565345858
-0.5580532268192825
0.8635272478528934
1.217721596454332
-1.4419035025906595
0.14083414303679465
0.9864370591798298
-0.1172431727533925
-0.30995388859013695
-1.3402757687603808
-2.6971297559555714
4.548071989293083
-0.21466497536302231
-0.06981205363022948
-1.2138840817660317
-0.6664912575617236
0.5390646132076715
-5.210813077700085
-3.5502270785944874
-3.1257691823777507
10.661665679503557
0.10971339186465945
-0.7707636732221401
-1.6430103883551517
-1.4084362237964654
1.1567204928502468
1.137807862601544
1.7909289933310966
1.296844233260129
-0.7360682956642649
-1.3291882168989901
-0.4851872391614218
-2.199402302653371
1.1593264107580012
-0.7813345171195402
0.6846238368508569
0.5577821254922057
0.17319914231039293
0.14930794378456394
-0.7472067727170881
-1.22056628177791
-0.7906572260608191
1.2716723208107703
1.049965334245458
-0.893325466323956
-0.7722485949180358
-0.06887763521085395
-0.26338237343543763
-0.26866654437791593
-0.5854499063085452
0.7537462750701011
1.2408460974307383
0.8748517624858484
0.36902768652281237
0.1377949480847206
0.9474604833162296
0.35861090146225916
0.6968556474981341
0.29468694349739993
-0.9580471233125911
-1.5786337505845423
0.6740712973640351
-0.12844339395152218
-0.11337421718639376
-0.27657853984115444
0.40193832794604895
-0.26519701058375295
-1.7995436949928774
2.4156629655795925
1.0098714574548708
-0.09330016471746416
-1.749255620934328
-2.893255346930694
0.24680955627445667
-0.31041741730765987
2.409023578791392
0.3038040919539313
2.660048128981971
1.2616452988789029
1.325417223746785
-4.809679249102035
-0.3264398093105568
-1.0846338231895374
1.2719904307492012
0.07701729972003803
1.5259870866866556
-1.6516270994872608
-1.0818672961209477
0.813009428396519
0.11680036914000781
1.472774924212404
0.6256612215708166
0.7927561941043214
-0.09738969338108759
0.31089102845741234
0.5179431298345736
0.7561803468977052
0.6215486449183623
1.0206374087150365
-1.2059652792451376
0.8351682047039449
0.34835088806816195
0.26899443924029226
0.8973935355057973
-0.3265858673445879
0.05301980609002575
-0.22525770547594134
0.27523104784553487
-0.9700939747411306
-0.5381292124051031
0.6268890680419249
0.5871732849830125
1.2071608841059616
-0.2626468595932694
-0.8799601026939645
-0.30302482366233396
0.45535754599466133
0.39618042152287825
0.2478387008406811
-0.1650712964053178
0.5872499683252399
-0.18038317150410355
-1.1230951554315847
2.526357381789322
1.4811382852845922
-0.4147319671619158
-1.3352673804168151
-0.10993989454630683
-0.4594821122362855
-1.37844257413037
1.8341572673239352
0.007668566541875984
0.10288369286206413
0.34363468697902416
-1.0730367711688507
0.7803545172717281
0.5700945058583727
-1.0263070224745068
-1.2734824648916978
-1.2636248887695685
2.4422818898531586
-0.6215903132061844
0.4024655099506764
-0.23764945996287548
-1.0355708433057653
0.39092372089246097
0.21137820948368696
6.682984258802586
-0.26066129126397036
3.389923928554531
-7.063307543325501
-2.2198434841848598
0.21926972275726322
0.994805683156838
0.0693845752647758
0.2966827642108479
0.21192208170243645
0.24367677858556044
-0.16206895285329379
-0.5993309589723259
0.4030824433928975
-0.5570242853112084
0.3881858389973018
-0.7389643909656177
-0.14276860350952175
0.5937767830156206
0.3591902330083363
0.45361825202401374
0.520979605057795
0.20534054322561554
0.05222251576030165
-1.3079728096004266
0.6890432972999014
0.9901579635596516
-1.1827406803077147
0.5473056388277131
-1.887439909529972
-0.6837500215208377
0.05137629298445231
-0.2519565028908644
-0.27745115754427524
-0.4580223514430801
-2.4723636359893053
1.1490873698021171
0.26844731735111443
2.7861655942664476
-2.561726322865074
0.420028638741004
0.1809213548667037
0.3171229892621206
1.1312151128485397
-2.043111398512463
0.10642805773853509
0.30995073956650004
-0.17392413856272426
-0.07240251403916151
-0.6239084732491343
-0.17810671203133557
0.5518454320928099
-0.8620151436632517
1.4002647177221346
-1.0982420125505619
0.4309597746502089
-0.840358292405632
0.3358415123643069
0.1004683328484044
-1.616601445766276
0.6778432238676148
0.35825887510429816
-0.5274688457495126
0.9280274823639737
0.11928430613774157
-0.03646143960945147
-0.3287455640739984
-0.35014207456934676
-0.6051051703282836
-0.8520900599180626
-2.0862117257686426
1.5762257251719023
0.2668537332588346
3.1410709033579742
-2.1442058094978047
0.4705245116950308
-10.64044724164605
7.670759102585327
2.118739196231865
0.259216534716457
-0.20354651429491066
-0.2906511870966567
-0.7866103570072958
-0.4256774007201431
-0.42162153999597685
1.77591621191917
2.361802587656974
0.05720584339402149
-1.0983155095918895
-3.004880306598006
0.7071552598681377
0.046100994336415235
0.05668347358898604
0.20947490711581374
-0.515267252664552
-0.12943666826219974
0.2719683123559466
-1.4100623739002367
1.554937639350982
-0.501768720591338
0.6421671667222705
-0.6787494086165595
0.12423282389264609
0.2105331545963615
-0.23613408960328627
-0.171396993762941
1.2529518207258157
-0.3237685045414524
0.9584947778360738
-2.4697186496584944
1.4657916750647355
0.9706534219690152
-0.7489613667529785
-0.41422416977022336
-0.23876923682672155
0.22119969790424274
0.15965601308021427
-0.10257490348147164
0.41451410748063455
0.24259832475829554
0.9923418931141189
0.36000117280366883
-1.735838533532372
-1.8878801749293923
-0.3342112234894697
1.4229409296962472
0.5597304455899097
0.3257575527496836
-0.01718332798838673
-2.1286779121454606
-1.0456890543942474
0.10181840178017483
-0.38285980653953755
0.8252540867983247
1.678083692145375
0.36037392174186206
0.8992437821366306
-0.13423897908308915
-0.37443808816273455
-0.9226002361611121
8.965889965728083
-11.073631831354842
1.3509522759217274
-0.6167232794749254
2.0087184179187703
-2.8122951031612917
-0.30644887903919255
-0.8934183618949141
4.322327046348618
-2.3789559639874303
0.7778873209367789
0.05576105133049728
-0.37044812258689364
-0.3836268813325058
-0.36778857780421736
0.6520143355585492
-0.31896486315259753
0.2527483089499804
-0.23478896872742439
-0.7629282904156732
0.16384380814249716
0.5179972132963306
-2.207177159857533
1.134743982397047
1.1953224418737098
0.8789412526416823
-0.17379461948980934
-0.3747652640470837
-0.2806756250198556
-0.7614124514553011
1.324057412424335
0.8780184689695035
0.6746567943397035
-3.3031370569945664
1.4541954762266043
-0.12341410619220149
0.43425219880132565
-1.966352764131061
1.1748766817968033
0.500243407510252
5.667678939001959
-2.4683846258382225
-2.9790821539367247
-0.30811421647190795
-1.6315784164578793
0.650927402338141
-3.810160723323647
-0.908820004079795
-6.245050035897377
8.070903299210375
2.519882358002328
1.5222402630834597
1.3737231914544061
-3.9505982540354196
0.06030490511487369
3.4825110220809594
-2.2619633541819546
-1.218979189754863
-1.091990387910977
-0.30702646806854167
0.41767974393825186
0.25925447692262954
-0.29204327641442174
-0.5247991453663255
-0.18263194788021594
0.9497843931423904
0.974499441324042
-0.5208237853743802
0.6061488119612292
-0.4388785878495063
1.1211304949659797
-0.25734470491678185
-0.2692845775460201
0.37875086624122334
0.4818969833441512
0.5296261266634179
-0.23357794479435487
0.05656847378284912
-0.7044815790523039
-0.9238129888516797
0.9948360463319998
0.5645519892791515
-0.5973060132492357
-0.8551758029979958
0.32767510505908215
0.7873537352755254
0.551453696280527
-0.5204299202856831
-0.6156173793531411
-0.28908788917886297
-1.0477110398149763
1.4627545249230984
-0.9236970117689408
-0.25618420294406263
0.12565824074310822
0.5416599320136744
0.3191922252185662
0.443734767567114
-0.7303509627023387
-2.6164722952772435
0.885297863075651
0.8087445012748
-0.43940405752032136
0.6340575454489343
-0.35049472407197024
0.8910245684745797
1.2137965753870819
1.4196388025411313
3.2298209326229093
-5.192517078281512
0.3328896206973713
-0.7128455191764757
0.16734863941042835
-0.43644795784613705
-0.5362768209536865
-1.8197035237368906
1.0172728677705658
0.07826947538169968
-0.16661882404303063
0.5788682174552227
-0.7513384362860197
-0.6346065319354508
-0.6392443060371803
0.13292649244466248
1.2033681531418707
0.2379177654596249
0.4953444344969249
0.20928454416322753
0.19862122948746488
-0.6904254139088086
0.18278929115780101
-0.266123503416049
-1.1911025576172707
0.13101945279180421
0.7621564375555621
-1.0760355597683395
0.6943414068806151
-0.6356668468895976
-0.841178162225155
-0.24773742749931393
-0.17788071285566884
0.6852252044373075
-0.16091809937286758
0.627968460641954
0.723065198919867
1.1911467028731724
0.803045827689782
-0.3758665940896108
-0.8461620333031751
0.4706066200167418
0.8305250803710169
-0.13289611688174482
0.32532645878825983
-0.33520116978387643
-0.5325690160599179
-2.4287592008898153
2.0800925076314885
0.7715569769221032
0.6600274062879435
-1.6971350499367757
-1.483254286565265
1.553739755631423
0.7128323277452816
0.04653928499893715
-1.8567213815566104
0.28674038899728976
1.0812717601295938
2.9802362556790203
-2.075859091885194
-3.831668759152031
1.1118449475774166
0.2659813107396818
-1.926446558407425
0.492369615238629
0.12042763253759524
-0.9058385981346824
-0.10656598443067794
-2.6610319264650153
2.10265872872182
1.8816180196033037
0.29140834939999477
0.24776699971804972
-0.4771194991866922
-0.5595645674471569
-0.19135592105445082
0.6431987655805059
-0.8689478502124283
-0.30989120171949713
-0.5289160368194626
0.17016849372328496
-0.6048224475659681
-0.07293248746421623
-0.3333728521713812
1.0125747112550703
-1.0721813593000185
-0.5961263051014906
0.1998556665161931
-1.0880270816735622
1.2165430814426228
0.4894542470520487
0.21137391393456784
0.3004504134934815
-0.06254062651266053
-1.0690837025269408
0.751612720538209
-1.402921264382809
2.708788774718194
1.2449964401302844
-0.45209077174667095
-0.36688899807063
-0.9479280396371362
0.7759178367339041
-0.19099801060000837
-0.8592011129601077
0.3720883788079967
0.6031790351988092
-0.021314567812010916
0.011004184243226519
-0.512604875123504
-0.5594215460410589
0.00280701983760569
-0.041180923389739596
-0.6855069961800945
-0.07175166117678247
-0.5368005622334999
-0.4049996333093849
0.6269486598879358
-1.1975014083052375
1.017133966504018
0.2936103118009177
0.28981893102341844
0.03701072664262111
-0.3664225280666717
0.23829749319729265
-0.5180653987894643
0.32664794609824616
0.020510943222340275
-0.42483812240574126
-0.03820268138942296
-1.3028729238607302
0.49395858233318574
0.16554597369696428
-0.7813486372721147
0.06799674369004813
-0.27444942123630794
0.8215307477261945
0.4543217495385869
-0.7660282021873855
0.12187565850340522
0.6757163907625925
1.1086451073412698
1.1938561092805886
-0.36813680695195816
-0.3156082134460398
0.1984307771736114
1.1351606739288334
0.2586552697040079
2.0816212279732307
-3.2389871893777302
1.1128034244887945
0.3232918597456603
-6.619393175077254E-4
-1.275983327271026
-0.578296086340783
0.2327956281974634
0.40869438367077865
0.5271019971667235
0.3887729921366106
0.9585083758517313
0.8104949724766026
0.9583913788803602
0.09898060742473029
-0.5455207555454896
-0.7931074231360603
-1.01053943799196
0.4125978311977227
0.512063483266093
-0.0850525923674452
-0.4931153582298983
0.3877032023316555
0.5507534093254274
-0.2247780676274092
0.09055206908212678
0.29896251896152315
-0.8127977718593812
-0.0972614372364216
0.3616069087700742
-0.48042449618637256
0.03468514854016665
-0.573300512240093
1.1624690053077453
-0.23176377886900587
0.6104329949665573
-1.3669945372335697
0.5991773074593473
0.005937528066598222
1.4653724891439097
1.193109126208656
-0.4418588899251694
-2.6331253439005455
0.025860646607063147
0.16428497886638416
-0.4212558130592125
0.51973175970366
-0.5561314832941651
0.31673119653737314
0.0678357115614563
-0.7022483677714414
0.3189786740807668
-0.09563826378520618
0.7957632866120354
-0.2246128073317324
-0.4904534629991672
0.1038552481482158
-0.477961841885956
-3.2290985474433698
-1.2438415387639126
-2.0796604946967885
2.816062491685497
3.3260625365770324
-1.4621631377209172
-0.41334601131325654
-0.9956868500591691
1.3288548448306658
0.08077843475637181
0.6449082898724158
0.46872079749348716
-1.2556672503837503
-0.5651447328174001
-0.013009232960796317
1.0455789046964439
0.01660025220834452
0.03569074309805582
-1.157836067038945
0.30519254810837965
0.7404021136169227
0.03666717591636281
-1.0573330786697797
-0.8312458680888863
-0.08030270707572296
0.8953401785438121
-0.13813539600736313
0.13269135575265956
0.6165381380090168
-1.0712575858547393
-3.4052405928223988
0.8488432793865381
-0.6819660718568282
4.02458620675969
-1.639783305260843
0.7106713567153399
0.3009396844981541
-0.11172631379400286
0.9124140289020659
-0.42901394408653704
-0.8087625034052682
0.8911834260322318
-0.10659488687748643
-0.7729911378245566
0.09894166263096364
0.49966237621026555
0.3180147894704774
-0.3007485316372197
0.44311524286560083
-0.5586577846988617
0.03534754853369144
0.045274819360855235
-0.5034493874513685
0.10379394399687704
-0.716495261388058
0.8507648455249517
-0.4529348051261746
-0.4764194719622047
0.40989219156865997
-1.1213228203185783
0.8631703545637954
0.42887327080819065
-0.5815032028725768
0.4586484957809229
-0.6662711091753067
0.6075502081952293
-0.24440190036569792
0.40415977251558144
2.374314176691138
-3.1125790783344844
0.46097340471079173
1.3729490306337166
0.09305000729579357
0.07811204855543548
-2.375290109281493
1.3672731081988483
0.4490021406095694
-0.21683497262648574
-0.4367190406284291
-1.1103995156529483
0.27823583526945667
-0.21790386898834935
-0.5664608464307795
-0.6774568222429337
-0.08738965633693152
0.3557084540183476
0.5247847044001345
-0.28205003641557835
-0.3499397306231575
-0.3941473315105155
-0.9592264274272255
0.38961003444059444
1.2192635038682298
1.5417340517335587
0.24534424338069422
1.4847140620235855
0.6267013104832285
-0.5384310869627814
-1.1171629008106638
0.6459398098478134
0.7007865354968462
0.7979593825196595
0.3146078627181536
0.7580488751337486
1.0389626113367096
-0.8532832106757328
-2.253087441361428
3.4121776896566716
0.3116300650100933
-1.9173899281433606
0.7440435681529207
-0.16354945875776658
-0.7146532378047141
0.17511290124225992
-0.7420906631499905
0.8357547576366162
0.010513065678523895
-0.673316059509411
-0.39312129405004503
-1.5752967392727395
-0.4611647057823253
-0.7022644993547046
-0.44947269404333645
0.8175995024225768
-0.4623235248888069
2.011717693143807
-0.8237294508086513
-0.25349586414337366
-1.8273060776074372
-0.14851043169496841
0.61435927035346
0.4904429404229572
-0.26416874162305
-0.35991863156216347
0.30331271267716065
-0.17329829078063413
0.4029146970789427
-0.6693168993793609
0.5830187194345289
0.8520661961220589
0.3859780758548947
0.21405372516898738
-0.6834331671976566
0.046097437934340325
0.4041977179979
-0.21090885457356548
0.8167453419069478
-2.0253420016360977
-0.601284400172629
-0.7325202304677522
0.5275438132629657
0.2439093050741631
-0.18446845894240216
0.06443065213932218
0.36656049474647634
0.6664204884321479
2.313413568956059
0.5273679027686682
-3.4641707706366147
0.011334623070634545
0.5539802198919802
-1.2389166982835946
0.262475123016242
-0.29381580108829036
-0.8966874277551916
0.4819396801821245
1.0579476218873853
-1.0048188376450482
-0.6232713787342926
0.4470933720654644
0.6608448506600196
0.1768914819649146
-0.5809229622210705
-0.014196546100154884
0.7689618934348592
-0.4385900878986499
0.006069633925440391
-0.45241241572727414
-1.4145550582425155
1.565881991777949
-0.5748892054861666
0.6332854073892485
-2.0255132914949914
-0.1605036523154279
0.6479648232865053
-0.24952389401041666
0.9537764818895085
-0.28112530695245247
0.14739248070809724
0.38248199580903797
1.1055091270672348
-0.011891297375916416
-1.3758895674831395
0.4309292398181778
0.3174898294021765
0.9842816305924119
-0.425047318335099
-0.4868580784529582
0.6503086527059444
0.34056663517857505
-2.740475057008738
2.5067187735634784
0.1694125603477256
1.1434068198034433
-0.18410483522462762
0.09297166785679065
0.7698653293703576
-0.1374020393156651
0.5454847518033219
0.6231084584695441
0.8954090038082877
0.6068470605296464
-0.8166995702426174
-0.2747489555359939
0.20078896054816217
-0.5613235648859761
-1.4687367336180375
1.6936358864495091
0.840384291161327
-1.7762371092824727
1.2802345192968412
0.4407466950726647
-0.5122542372401865
-0.4475014070629852
0.1322237335515801
0.07674094901701205
0.07677445674522299
-0.19939776944629403
0.4346041548958335
0.2993694052685165
0.7802800222457124
0.6993123778761221
-0.49559573041959737
1.704270863053177
0.44386519278329667
0.270699650927522
-1.0794579874579162
-0.33604664370753207
0.10980509285682902
-0.5254477166340654
-1.5676134061276321
-0.5584119506650771
-1.936346854015882
3.066632282944952
1.544768947747744
0.7527681572103758
0.11215772230036919
0.1752914826342386
-0.9537428982069756
-0.1510444088724053
0.8472002786660332
-0.4253228568901559
-0.3512882688047972
-0.010864502285823224
0.6744286902574568
-0.04574999083975932
0.20826024063701942
-0.23989019377169526
2.4728556247009466
-2.152564536690696
0.6570785827888646
0.1416874599833931
-0.7768844007765103
-0.11309813316012048
-0.6099701287062824
-3.906321636759311
1.593133594497614
0.34275620549624314
-1.18590527865149
3.3885923984127415
-0.15152684203965733
0.42521065038075484
-2.3956460092392886
-0.09855602511814837
-0.36843536901165036
0.5264092651427718
-0.0709813116862579
-0.11038025361600738
0.11855573528378381
-0.8485444561526684
-2.3597614781160168
0.4885552605910886
-0.9605732114477928
2.132600289145792
0.0980082947077326
0.9869125387145201
1.782476362072405
-0.11302340285797957
0.16214281248860665
-2.367366014680895
0.24008962500173056
-0.5888895159476568
-0.3081704980683706
-0.6931664923633
0.3097128391896831
2.146917981148389
2.420281146697323
1.5741272867648268
-3.739389151573652
-0.586046400200571
0.8730508838232099
-0.6035436825696053
-0.32977581222290103
-2.000464090440318
-0.13381616260497836
0.37597414662514456
-0.08306131307828035
-2.1721733303923827
0.6914607895117867
0.017452488450556147
1.5250873412110186
0.38557354400839283
-0.6915409063367105
1.144085937054437
0.4393371975070748
-0.5671153116904561
-1.2528510038604843
0.5699892065305824
2.558541683376939
-1.610509480004893
